tree
version=v4
num_class=10
num_tree_per_iteration=10
label_index=0
max_feature_idx=31
objective=multiclass num_class:10
feature_names=angle_0 angle_1 angle_2 angle_3 angle_4 angle_5 angle_6 angle_7 angle_8 angle_9 angle_10 angle_11 angle_12 angle_13 angle_14 angle_15 angle_16 angle_17 angle_18 angle_19 angle_20 angle_21 angle_22 angle_23 angle_24 angle_25 angle_26 angle_27 angle_28 angle_29 arm_1 arm_2
feature_infos=[0.1039232078534431:160.59883081845351] [0.0119771907541424:173.59900750461631] [0.0310324617022355:112.37723477729402] [0.022590461090921499:177.26132221840444] [0.0071806113705662001:136.62288915297898] [0.0151319609468312:87.603398546790771] [0.0113946277330471:176.97972337254109] [0.0023648292461013001:179.82415438112116] [0.0078962933424770992:37.182613771976882] [0.034364227400228403:150.24041885748062] [0.0072273942240283998:178.6840387025882] [0.0030031380909188001:58.838382249743681] [0.1127976729439753:160.71178600531479] [0.0030927506951175:127.34346410921437] [0.00047973950670490001:105.88207544139712] [0:150.15450865144706] [0:127.94976211483689] [0:94.245751124577723] [0:179.96748979605553] [0:44.036741002828713] [0:176.63780136526927] [0:179.89537451247324] [0:49.161273141495165] [0:155.82910690359932] [0:167.51870334249102] [0:134.73289752127511] [0:131.73708656859208] [0:150.82025441847657] [0:128.64408780059472] [0:91.406978530895685] [0.465702641679407:179.05252071635169] [0.85518754786191087:177.30366194700656]
tree_sizes=945 547 546 548 447 545 644 446 650 745 838 446 737 449 428 448 533 445 854 741 741 447 738 448 446 448 546 445 736 633 752 448 821 447 428 446 548 445 656 634 649 450 712 449 448 448 551 445 757 630 551 449 713 447 448 448 549 446 841 549 842 451 750 447 448 446 551 445 843 549 551 451 756 447 445 449 550 448 843 530 551 429 756 448 449 447 536 444 656 551 544 427 750 448 448 448 552 449 836 649 552 429 913 450 449 450 536 451 828 551 552 429 831 449 450 450 619 450 843 649 640 431 652 448 449 450 552 449 831 553 554 432 652 452 451 451 622 452 820 645 552 432 730 451 450 450 539 449 704 533 555 433 536 451 433 448 624 451 738 615 536 431 537 451 432 451 622 452 707 649 556 432 622 452 432 431 624 430 709 616 619 430 622 450 432 432 620 430 621 532 554 432 628 451 432 433 623 430 743 786 533 431 620 452 433 430 621 431 706 534 536 431 621 452 430 430 610 433 537 706 534 433 628 432 432 433 613 430 533 534 535 433 621 432 434 431 537 434 623 705 624 433 623 606 432 518 614 429 625 532 517 427 598 432 432 434 532 433 536 621 692 433 538 602 434 432 536 432 535 533 519 432 603 433 433 433 610 432 625 700 520 430 538 434 434 520 515 433 521 515 605 433 604 608 432 432 518 433 540 513 519 432 607 433 431 435 606 433 520 605 606 523 519 611 435 523 698 434 521 609 602 435 605 434 435 433 519 431 520 518 521 434 521 520 435 518 519 433 516 605 607 525 602 522 434 433 607 432 526 523 597 525 521 434 435 431 608 434 518 517 599 434 523 611 434 434 522 434 519 523 601 526 603 434 434 522 519 434 524 522 511 437 523 516 434 437 608 433 520 525 518 437 699 433 435 526 520 436 521 520 418 438 524 612 436 527 519 432 525 526 512 529 599 434 433 526 525 434 521 521 520 440 515 436 443 437 522 437 518 516 423 528 515 438 435 438 522 435 517 515 432 439 503 436 439 440 523 438 523 515 431 440 517 439 437 440 524 436 518 517 434 441 519 438 433 440 505 438 524 513 223 441 422 440 436 431 505 441 516 522 223 441 421 440 438 434 422 442 522 515 223 423 223 420 418 223 334 223 522 223 223 424 223 418 419 223 336 223 523 223 223 223 504 420 421 223 334 223 523 223 223 336 223 420 421 223 336 223 223 223 223 336 223 420 420 223 336 223 223 223 223 336 223 426 421 223 336 223 223 223 223 336 223 424 418 223 336 223 223 223 223 334 223 426 421 223 333 223 223 223 223 336 223 423 420 223 335 420 223 223 223 336 223 426 419 223 335 223 223 223 223 336 223 426 424 223 335 223 223 223 223 336 223 424 424 223 336 223 223 223 223 335 223 426 335 223 336 223 223 223 223 335 223 426 334 223 336 223 223 223 223 336 223 426 336 223 333 223 223 223 223 336 223 426 336 223 336 223 223 223 223 336 223 426 336 223 336 223 223 223 223 336 223 426 336 223 336 223 223 223 223 336 223 425 336 223 335 223 223 223 223 336 223 223 336 223 336 223 223 223 223 335 223 223 336 223 336 223 223 223 223 335 223 223 336 223 336 223 223 223 223 336 223 426 336 223 336 223 223 223 223 336 223 223 336 223 336 223 223 223 223 336 223 223 336 223 335 223 223 223 223 335 223 223 336 223 336 223 223 223 223 334 223 223 336 223 335 223 223 223 223 335 223 223 336 223 336 223 223 223 223 336 223 223 336 223 334 223 223 223 223 336 223 223 336 223 336 223 223 223 223 335 223 223 334 223 336 223 223 223 223 334 223 223 336 223 336 223 223 223 223 336 223 223 336 223 336 223 223 223 223 336 223 425 336 223 336 223 223 223 223 335 223 223 336 223 335 223 223 223 223 336 223 223 335 223 336 223 223 223 223 336 223 223 335 223 334 223 223 223 223 335 223 223 336 223 336 223 223 223 223 336 223 223 336 223 336 223 223 223 223 336 223 223 336 223 336 223 223 223 223 336 223 223 335 223 336 223 223 223 223 336 223 223 336 223 336 223 223 223 223 335 223 223 334 223 335 223 223 223 223 336 223 223 336 223 335 223 223 223 223 336 223 223 336 223 336 223 223 223 223 335 223 223 336 223 335 223 223 223 223 336 223 223 334 223 336 223 223 223 223 335 223 223 336 223 335 223 223 223 223 336 223 223 335 223 333 223 223 223 223 335 223 223 336 223 336 223 223 223 223 336 223 223 335 223 336 223 223 223 224 337 224 224 336 224 336 224 224 224 224 336 224 224 337 224 337 224 224 224 224 337 224 224 337 224 337 224 224 224 224 337 224 224 337 224 336 224 224 224 224 337 224 224 336 224 337 224 224 224 224 337 224 224 337 224 337 224 224 224 224 337 224 224 337 224 337 224 224 224 224 335 224 224 337 224 336 224 224 224 224 337 224 224 336 224 337 224 224 224 224 337 224 224 337 224 337 224 224 224 224 337 224 224 337 224 336 224 224 224 224 337 224 224 337 224 336 224 224 224 224 337 224 224 337 224 337 224 224 224 224 337 224 224 336 224 337 224 224 224 224 337 224 224 336 224 336 224 224 224 224 337 224 224 337 224 336 224 224 224 224 336 224 224 337 224 337 224 224 224 224 336 224 224 337 224 337 224 224 224 224 337 224 224 337 224 337 224 224 224 224 337 224 224 337 224 337 224 224 224 224 337 224 224 336 224 336 224 224 224 224 336 224 224 335 224 337 224 224 224 224 337 224 224 336 224 337 224 224 224 224 336 224 224 336 224 337 224 224 224 224 337 224 224 337 224 336 224 224 224 224 337 224 224 337 224 337 224 224 224 224 337 224 224 337 224 337 224 224 224 224 337 224 224 336 224 336 224 224 224 224 336 224 224 336 224 337 224 224 224 224 337 224 224 337 224 337 224 224 224 224 337 224 224 336 224 337 224 224 224 224 337 224 224 336 224 337 224 224 224 224 337 224 224 337 224 337 224 224 224 224 337 224 224 337 224 337 224 224 224 224 336 224 224 336 224 336 224 224 224 224 335 224 224 336 224 335 224 224 224 224 336 224 224 337 224 337 224 224 224 224 337 224 224 335 224 337 224 224 224 224 337 224 224 336 224 336 224 224 224 224 337 224 224 337 224 337 224 224 224 224 335 224 224 337 224 337 224 224 224 224 336 224 224 337 224 336 224 224 224 224 336 224 224 337 224 335 224 224 224 224 337 224 224 335 224 336 224 224 224 224 336 224 224 337 224 337 224 224 224 224 337 224 224 336 224 337 224 224 224 224 337 224 224 337 224 337 224 224 224 224 337 224 224 337 224 337 224 224 224 224 337 224 224 337 224 337 224 224 224 224 337 224 224 337 224 336 224 224 224 224 337 224 224 336 224 337 224 224 224 224 337 224 224 337 224 335 224 224 224 224 336 224 224 337 224 337 224 224 224 224 336 224 224 337 224 337 224 224 224 224 336 224 224 337 224 336 224 224 224 224 337 224 224 336 224 337 224 224 224 224 337 224 224 336 224 337 224 224 224 224 336 224 224 337 224 337 224 224 224 224 337 224 224 337 224 337 224 224 224 224 336 224 224 336 224 337 224 224 224 224 337 224 224 336 224 337 224 224 224 224 337 224 224 337 224 337 224 224 224 224 337 224 224 337 224 337 224 224 224 224 337 224 224 337 224 337 224 224 224 224 335 224 224 337 224 337 224 224 224 224 336 224 224 337 224 336 224 224 224 224 336 224 224 337 224 337 224 224 224 224 336 224 224 336 224 337 224 224 224 224 336 224 224 337 224 337 224 224 224 224 337 224 224 336 224 337 224 224 224 224 337 224 224 337 224 337 224 224 224 224 336 224 224 337 224 337 224 224 224 224 337 224 224 337 224 336 224 224 224 224 337 224 224 337 224 337 224 224 224 224 337 224 224 336 224 337 224 224 224 224 337 224 224 337 224 337 224 224 224 224 336 224 224 337 224 336 224 224 224 224 337 224 224 336 224 336 224 224 224 224 337 224 224 337 224 337 224 224 224 224 337 224 224 337 224 337 224 224 224 224 337 224 224 337 224 337 224 224 224 224 337 224 224 335 224 337 224 224 224 224 337 224 224 337 224 337 224 224 224 224 337 224 224 337 224 337 224 224 224 224 334 224 224 337 224 337 224 224 224 224 337 224 224 337 224 336 224 224 224 224 336 224 224 337 224 337 224 224 224 224 337 224 224 337 224 337 224 224 224 224 337 224 224 337 224 337 224 224 224 224 336 224 224 337 224 337 224 224 224 224 337 224 224 337 224 337 224 224 224 224 336 224 224 336 224 337 224 224 224 224 337 224 224 337 224 336 224 224 224 224 335 224 224 337 224 336 224 224 224 224 337 224 224 336 224 337 224 224 224 224 335 224 224 337 224 337 224 224 224 224 337 224 224 336 224 337 224 224 224 224 335 224 224 337 224 337 224 224 224 224 336 224 224 335 224 337 224 224 224 224 336 224 224 337 224 337 224 224 224

Tree=0
num_leaves=8
num_cat=0
split_feature=1 31 10 3 1 8 5
split_gain=524.602 407.388 308.732 29.2067 7.77392 9.39181 4.91885
threshold=4.7013239459474407 103.55944908815751 10.085551206670656 30.754636425161134 7.1250076145145611 3.0228414461565234 2.4213069394624642
decision_type=2 2 2 2 2 2 2
left_child=1 2 -1 6 5 -2 -3
right_child=4 3 -4 -5 -6 -7 -8
leaf_value=-1.4317246833278903 -2.1058104278655749 -2.2406730353646789 -2.3648671838191664 -1.9709478203664712 -2.3873744228294069 -2.3604122515105144 -2.3809223103015831
leaf_weight=15.082421183586122 2.0244860649108878 2.0244860649108913 4.3526450395584098 2.0244860649108878 126.22670614719391 3.6440749168395996 13.361608028411863
leaf_count=149 20 20 43 20 1247 36 132
internal_value=-2.28888 -1.95633 -1.64394 -2.30329 -2.38215 -2.28168 -2.35631
internal_weight=0 36.8456 19.4351 17.4106 131.895 5.66856 15.3861
internal_count=1667 364 192 172 1303 56 152
is_linear=0
shrinkage=1


Tree=1
num_leaves=4
num_cat=0
split_feature=30 8 17
split_gain=1314.48 92.7293 1.93017
threshold=154.63990002271507 8.9289669461237136 22.581582536928639
decision_type=2 2 2
left_child=2 -2 -1
right_child=1 -3 -4
leaf_value=-2.3941593413573057 -2.2006640561221449 -1.4181481807498209 -2.294816903347535
leaf_weight=147.61523146927357 2.0138503611087826 16.211495406925678 2.013850361108779
leaf_count=1466 20 161 20
internal_value=-2.29482 -1.49777 -2.39283
internal_weight=0 18.2253 149.629
internal_count=1667 181 1486
is_linear=0
shrinkage=1


Tree=2
num_leaves=4
num_cat=0
split_feature=15 0 1
split_gain=974.747 383.429 5.68049
threshold=52.602497209303046 63.926725934285408 62.104321995578253
decision_type=2 2 2
left_child=1 2 -1
right_child=-2 -3 -4
leaf_value=-2.3987200146126622 -1.4331618889998037 -1.4809382199529217 -2.268999409932996
leaf_weight=148.33686470240355 11.818872407078741 4.507197104394435 2.3036785200238219
leaf_count=1481 118 45 23
internal_value=-2.30079 -2.36791 -2.3961
internal_weight=0 155.148 150.641
internal_count=1667 1549 1504
is_linear=0
shrinkage=1


Tree=3
num_leaves=4
num_cat=0
split_feature=31 10 31
split_gain=810.611 633.633 1.84771
threshold=52.747022795962643 14.28771133600778 59.78838087112053
decision_type=2 2 2
left_child=1 -1 -2
right_child=2 -3 -4
leaf_value=-1.4193691543310734 -2.3067930943942505 -2.3967105083844085 -2.4059441155856858
leaf_weight=16.338753968477253 2.0921575203537932 10.759667247533796 136.8868777602911
leaf_count=164 21 108 1374
internal_value=-2.30679 -1.80854 -2.40452
internal_weight=0 27.0984 138.979
internal_count=1667 272 1395
is_linear=0
shrinkage=1


Tree=4
num_leaves=3
num_cat=0
split_feature=18 3
split_gain=1383.48 25.8286
threshold=139.73625394012518 123.73885413055525
decision_type=2 2
left_child=1 -1
right_child=-2 -3
leaf_value=-2.4301179413920226 -1.4231650042977866 -2.0913190318137449
leaf_weight=145.5451026186347 15.012689754366873 1.949699968099593
leaf_count=1493 154 20
internal_value=-2.33118 -2.42471
internal_weight=0 147.495
internal_count=1667 1513
is_linear=0
shrinkage=1


Tree=5
num_leaves=4
num_cat=0
split_feature=12 31 8
split_gain=1094.52 340.327 3.69025
threshold=64.732243633711931 142.00278361201859 24.557088396261928
decision_type=2 2 2
left_child=2 -2 -1
right_child=1 -3 -4
leaf_value=-2.400043306208786 -2.3774377447503507 -1.4186238273506295 -2.3007870703340387
leaf_weight=143.82966759800911 4.5071971043944385 16.426229447126389 2.2035185843706122
leaf_count=1436 45 164 22
internal_value=-2.30079 -1.6281 -2.398
internal_weight=0 20.9334 146.033
internal_count=1667 209 1458
is_linear=0
shrinkage=1


Tree=6
num_leaves=5
num_cat=0
split_feature=7 3 0 3
split_gain=623.426 624.921 55.3445 5.56592
threshold=139.09590343251423 50.972663015835138 24.929243533159148 36.71220491618044
decision_type=2 2 2 2
left_child=1 3 -3 -1
right_child=-2 2 -4 -5
leaf_value=-2.4165983010661725 -1.4625992482487717 -1.4410108492247575 -2.1285822254780964 -2.2901127566171935
leaf_weight=144.87934179604053 7.8845900297164908 7.1946884021162969 1.9711475074291227 2.3653770089149466
leaf_count=1470 80 73 20 24
internal_value=-2.31891 -2.36312 -1.57204 -2.41392
internal_weight=0 156.411 9.16584 147.245
internal_count=1667 1587 93 1494
is_linear=0
shrinkage=1


Tree=7
num_leaves=3
num_cat=0
split_feature=4 30
split_gain=938.367 527.017
threshold=57.576126922138251 58.089630387047301
decision_type=2 2
left_child=-1 -2
right_child=1 -3
leaf_value=-2.382439669646625 -2.3703230991338691 -1.4156833211782143
leaf_weight=143.98373708128929 8.3439338803291339 17.29839950799942
leaf_count=1415 82 170
internal_value=-2.28298 -1.72807
internal_weight=0 25.6423
internal_count=1667 252
is_linear=0
shrinkage=1


Tree=8
num_leaves=5
num_cat=0
split_feature=16 28 14 0
split_gain=802.108 553.043 1.63751 15.6867
threshold=20.626866984491674 8.0835531727818566 0.66042282481224934 35.546024269863842
decision_type=2 2 2 2
left_child=2 -2 3 -1
right_child=1 -3 -4 -5
leaf_value=-2.4046809252319976 -1.4391816112137912 -2.4010418793995547 -2.4110405011058633 -2.1239864299912465
leaf_weight=13.476560533046721 15.854777097702028 9.215589188039301 124.65818493068218 1.9818471372127522
leaf_count=136 160 93 1258 20
internal_value=-2.31284 -1.79421 -2.40624 -2.36099
internal_weight=0 25.0704 140.117 15.4584
internal_count=1667 253 1414 156
is_linear=0
shrinkage=1


Tree=9
num_leaves=6
num_cat=0
split_feature=12 6 30 12 0
split_gain=415.95 855.643 52.1376 8.26594 14.8699
threshold=8.7687893231575558 20.504908470109175 58.927877250416486 10.334874722688994 37.619874272355844
decision_type=2 2 2 2 2
left_child=1 -1 -3 4 -2
right_child=3 2 -4 -5 -6
leaf_value=-2.3848545530852192 -2.0608562253658738 -2.0608562253658742 -1.4244102479531435 -2.3881042406158506 -2.3681221530640464
leaf_weight=26.115870237350464 2.0244860649108878 2.0244860649108913 15.588542699813841 117.92631328105927 5.0612151622772217
leaf_count=258 20 20 154 1165 50
internal_value=-2.28888 -2.02413 -1.48913 -2.38177 -2.28884
internal_weight=0 43.7289 17.613 125.012 7.0857
internal_count=1667 432 174 1235 70
is_linear=0
shrinkage=1


Tree=10
num_leaves=7
num_cat=0
split_feature=1 31 10 1 10 15
split_gain=324.052 141.278 104.067 7.5777 14.6171 5.07588
threshold=4.7013239459474407 104.77894616869231 10.085551206670656 7.623320645983358 14.28771133600778 16.384732896976981
decision_type=2 2 2 2 2 2
left_child=1 2 -1 4 -2 -3
right_child=3 5 -4 -5 -6 -7
leaf_value=0.391883612927515 0.2197302165204591 0.032342027919778575 -0.078240561593645286 -0.097603325017042428 -0.08012807316641006 -0.08837458635623649
leaf_weight=30.193481855094433 2.077038846909999 3.7921789139509192 5.1376745924353591 108.48949106782675 5.4431614130735397 10.12330114841461
leaf_count=158 20 38 57 1226 57 111
internal_value=0 0.214775 0.320932 -0.0908728 0 -0.0491094
internal_weight=0 49.2466 35.3312 116.01 7.5202 13.9155
internal_count=1667 364 215 1303 77 149
is_linear=0
shrinkage=0.1


Tree=11
num_leaves=3
num_cat=0
split_feature=30 8
split_gain=597.071 42.7848
threshold=150.85249834544015 7.7228372930848774
decision_type=2 2
left_child=-1 -2
right_child=1 -3
leaf_value=-0.097733151702626198 -0.04734680466623159 0.3975270537495541
leaf_weight=130.44219203293324 1.8895556777715672 32.363946460187435
leaf_count=1480 19 168
internal_value=0 0.370241
internal_weight=0 34.2535
internal_count=1667 187
is_linear=0
shrinkage=0.1


Tree=12
num_leaves=6
num_cat=0
split_feature=15 30 0 13 25
split_gain=419.645 101.465 58.4951 6.73071 0.147718
threshold=40.248052006069322 86.823253699691406 63.926725934285408 106.84531072939502 43.112907343333056
decision_type=2 2 2 2 2
left_child=2 -2 3 4 -1
right_child=1 -3 -4 -5 -6
leaf_value=-0.09683370882078772 0.38531781631953271 -0.078624891629950344 0.33637517269612904 0.06810729005135166 0
leaf_weight=122.8754723444581 28.82076932489872 5.1868044286966315 2.9785096347331992 1.7698858454823483 1.8367341607809056
leaf_count=1399 154 58 16 19 21
internal_value=0 0.311881 -0.0818709 -0.0929461 -0.0960576
internal_weight=0 34.0076 129.461 126.482 124.712
internal_count=1667 212 1455 1439 1420
is_linear=0
shrinkage=0.1


Tree=13
num_leaves=3
num_cat=0
split_feature=31 10
split_gain=441.807 182.629
threshold=56.080469351562236 14.28771133600778
decision_type=2 2
left_child=1 -1
right_child=-2 -3
leaf_value=0.39294324832614719 -0.097560817539727285 -0.087828716847675792
leaf_weight=32.257746443152428 121.06204072386026 9.9837587550282461
leaf_count=166 1388 113
internal_value=0 0.277314
internal_weight=0 42.2415
internal_count=1667 279
is_linear=0
shrinkage=0.1


Tree=14
num_leaves=3
num_cat=0
split_feature=18 3
split_gain=592.418 22.7521
threshold=28.829379818099483 20.668766483657027
decision_type=2 2
left_child=-1 -2
right_child=1 -3
leaf_value=-0.097409727749902086 0 0.40003173896762417
leaf_weight=127.27561528980732 1.6518258452415455 30.683388791978359
leaf_count=1489 17 161
internal_value=0 0.380668
internal_weight=0 32.3352
internal_count=1667 178
is_linear=0
shrinkage=0.1


Tree=15
num_leaves=3
num_cat=0
split_feature=12 31
split_gain=528.357 99.802
threshold=61.451475465731669 142.00278361201859
decision_type=2 2
left_child=-1 -2
right_child=1 -3
leaf_value=-0.097656213489491064 -0.076858080071137813 0.39292144805766455
leaf_weight=126.79210444539785 4.8209571912884703 32.450630493462086
leaf_count=1446 54 167
internal_value=0 0.329669
internal_weight=0 37.2716
internal_count=1667 221
is_linear=0
shrinkage=0.1


Tree=16
num_leaves=4
num_cat=0
split_feature=31 10 31
split_gain=349.632 287.229 1.32694
threshold=78.455013776886233 19.190558112803178 83.208249923949481
decision_type=2 2 2
left_child=1 -1 -2
right_child=2 -3 -4
leaf_value=-0.092105144458292695 0 0.41094303095724033 -0.09746713581467098
leaf_weight=17.508377857506275 2.5495927557349196 30.495334081351757 110.11769910901785
leaf_count=204 28 167 1268
internal_value=0 0.225978 -0.095748
internal_weight=0 48.0037 112.667
internal_count=1667 371 1296
is_linear=0
shrinkage=0.1


Tree=17
num_leaves=3
num_cat=0
split_feature=4 7
split_gain=488.766 141.098
threshold=57.576126922138251 99.827154309844374
decision_type=2 2
left_child=-1 -2
right_child=1 -3
leaf_value=-0.097806162352030282 0.38725631162085206 -0.08430794894585425
leaf_weight=125.94731569290161 33.39429073035717 7.3779757693409911
leaf_count=1415 170 82
internal_value=0 0.299732
internal_weight=0 40.7723
internal_count=1667 252
is_linear=0
shrinkage=0.1


Tree=18
num_leaves=7
num_cat=0
split_feature=16 28 16 3 14 1
split_gain=423.413 149.08 1.92287 0.498955 0.357121 7.22527
threshold=20.626866984491674 8.0835531727818566 18.699944072921369 10.790436929324295 0.66042282481224934 14.123692251514163
decision_type=2 2 2 2 2 2
left_child=2 -2 4 -4 5 -1
right_child=1 -3 3 -5 -6 -7
leaf_value=-0.089252717442507956 0.38603390055764897 -0.085233524038930905 0.015099016179049008 -0.046362296863254313 -0.09737469255166542 0.094359968162889302
leaf_weight=11.696936309337614 30.936644434928894 8.1017474904656392 1.8126829415559762 1.907827280461788 105.82260701805353 1.9964676126837719
leaf_count=134 160 93 20 22 1220 18
internal_value=0 0.286001 -0.0911062 0 -0.0933751 -0.0550315
internal_weight=0 39.0384 123.237 3.72051 119.516 13.6934
internal_count=1667 253 1414 42 1372 152
is_linear=0
shrinkage=0.1


Tree=19
num_leaves=6
num_cat=0
split_feature=12 6 5 12 8
split_gain=271.22 323.495 13.1329 3.55193 1.11881
threshold=9.263946967485996 20.504908470109175 5.5440036787480205 10.334874722688994 17.656771763585056
decision_type=2 2 2 2 2
left_child=1 -1 -3 4 -2
right_child=3 2 -4 -5 -6
leaf_value=-0.094321925812387089 0.047970283497772492 0.40187756437977218 0.1309528828674543 -0.097564910914074043 -0.051521482735030745
leaf_weight=24.992478810250759 2.0226877555251113 29.807028040289879 3.2549272403120986 103.20709048211575 2.0879890844225883
leaf_count=281 20 157 22 1165 22
internal_value=0 0.173985 0.378859 -0.0939395 0
internal_weight=0 58.0544 33.062 107.318 4.11068
internal_count=1667 460 179 1207 42
is_linear=0
shrinkage=0.1


Tree=20
num_leaves=6
num_cat=0
split_feature=1 15 6 1 7
split_gain=237.712 83.4742 89.9054 7.3447 14.4087
threshold=4.7013239459474407 16.384732896976981 21.556363488341734 7.623320645983358 4.3966243700183201
decision_type=2 2 2 2 2
left_child=1 2 -1 4 -2
right_child=3 -3 -4 -5 -6
leaf_value=0.28732013234407433 0.22025469089587585 -0.088010810726123129 -0.084020924044486717 -0.096330203126567981 -0.07918833303038518
leaf_weight=38.067663803696632 2.0479304045438758 9.8832260221242887 7.3403438478708258 96.132756508886814 5.3869573026895523
leaf_count=161 16 118 85 1226 61
internal_value=0 0.167488 0.225213 -0.0889204 0
internal_weight=0 55.2912 45.408 103.568 7.43489
internal_count=1667 364 246 1303 77
is_linear=0
shrinkage=0.1


Tree=21
num_leaves=3
num_cat=0
split_feature=30 8
split_gain=400.789 22.5121
threshold=150.85249834544015 7.7228372930848774
decision_type=2 2
left_child=-1 -2
right_child=1 -3
leaf_value=-0.096497426168494604 -0.042731774992144943 0.27823713575440262
leaf_weight=115.66869486123323 1.7489350736141194 40.495959520339966
leaf_count=1480 19 168
internal_value=0 0.26269
internal_weight=0 42.2449
internal_count=1667 187
is_linear=0
shrinkage=0.1


Tree=22
num_leaves=6
num_cat=0
split_feature=15 13 0 13 16
split_gain=287.632 58.0973 43.5009 7.35501 0.318534
threshold=40.248052006069322 3.0231922393232256 63.926725934285408 107.48745028653993 38.887131961320222
decision_type=2 2 2 2 2
left_child=2 -2 3 4 -1
right_child=1 -3 -4 -5 -6
leaf_value=-0.095519284869201707 -0.062438989735027386 0.2759141694629092 0.24525500837812581 0.091829872248056887 0
leaf_weight=109.48664677888155 5.3591375425457946 35.269740477204323 3.6547522693872443 1.5155371874570835 1.6628136336803425
leaf_count=1403 61 151 16 15 21
internal_value=0 0.228992 -0.079442 -0.0911882 -0.0946524
internal_weight=0 40.6289 116.32 112.665 111.149
internal_count=1667 212 1455 1439 1424
is_linear=0
shrinkage=0.1


Tree=23
num_leaves=3
num_cat=0
split_feature=31 10
split_gain=314.764 100.019
threshold=56.080469351562236 14.28771133600778
decision_type=2 2
left_child=1 -1
right_child=-2 -3
leaf_value=0.27617934864285226 -0.096338422987273603 -0.085474373714895122
leaf_weight=40.21601165831089 107.39883958175778 8.8977331742644292
leaf_count=166 1388 113
internal_value=0 0.208754
internal_weight=0 49.1137
internal_count=1667 279
is_linear=0
shrinkage=0.1


Tree=24
num_leaves=3
num_cat=0
split_feature=18 31
split_gain=397.846 10.3444
threshold=28.829379818099483 99.45823615681816
decision_type=2 2
left_child=-1 -2
right_child=1 -3
leaf_value=-0.096219416390485923 0.018201498154242487 0.2828111401714169
leaf_weight=112.88824326917529 2.3298645690083495 37.734386026859283
leaf_count=1489 20 158
internal_value=0 0.269825
internal_weight=0 40.0643
internal_count=1667 178
is_linear=0
shrinkage=0.1


Tree=25
num_leaves=3
num_cat=0
split_feature=12 31
split_gain=363.738 53.5709
threshold=61.451475465731669 142.00278361201859
decision_type=2 2
left_child=-1 -2
right_child=1 -3
leaf_value=-0.096425360405906102 -0.073841581223902164 0.27621378266262997
leaf_weight=112.42437751963735 4.3760609179735175 40.444961309432983
leaf_count=1446 54 167
internal_value=0 0.239861
internal_weight=0 44.821
internal_count=1667 221
is_linear=0
shrinkage=0.1


Tree=26
num_leaves=4
num_cat=0
split_feature=31 10 7
split_gain=256.822 161.619 3.5999
threshold=81.427160548609592 19.190558112803178 13.617199919032826
decision_type=2 2 2
left_child=1 -1 -3
right_child=-2 2 -4
leaf_value=-0.090531117351014184 -0.0962582307323262 0.10671279361891946 0.29193209292219308
leaf_weight=16.073447428643703 98.868041653186083 3.0256920456886283 36.554404467344284
leaf_count=210 1282 19 156
internal_value=0 0.171892 0.280643
internal_weight=0 55.6535 39.5801
internal_count=1667 385 175
is_linear=0
shrinkage=0.1


Tree=27
num_leaves=3
num_cat=0
split_feature=4 7
split_gain=342.77 76.3337
threshold=57.576126922138251 99.827154309844374
decision_type=2 2
left_child=-1 -2
right_child=1 -3
leaf_value=-0.096554827052633713 0.27281401689010493 -0.081556230248020861
leaf_weight=111.71092104166746 41.48562815785408 6.5892115309834471
leaf_count=1415 170 82
internal_value=0 0.222243
internal_weight=0 48.0748
internal_count=1667 252
is_linear=0
shrinkage=0.1


Tree=28
num_leaves=6
num_cat=0
split_feature=16 28 5 14 1
split_gain=297.188 83.9625 1.27366 1.23756 9.20716
threshold=20.434603974196047 7.3491378960135831 6.004310915894151 0.66042282481224934 22.173084461200588
decision_type=2 2 2 2 2
left_child=3 -2 -3 4 -1
right_child=1 2 -4 -5 -6
leaf_value=-0.087339267861354417 0.2749941755440245 -0.083241283710705216 0 -0.095156647259487803 0.12029745670055031
leaf_weight=10.675164356827734 37.971815027296543 6.8260884582996351 1.5871290713548658 96.550788782536983 2.175077572464942
leaf_count=137 159 84 16 1253 18
internal_value=0 0.211454 -0.0646032 -0.0900593 -0.0439925
internal_weight=0 46.385 8.41322 109.401 12.8502
internal_count=1667 259 100 1408 155
is_linear=0
shrinkage=0.1


Tree=29
num_leaves=5
num_cat=0
split_feature=12 6 4 12
split_gain=207.172 199.052 5.48863 1.24996
threshold=9.5066791686755501 20.504908470109175 10.260608008984489 10.334874722688994
decision_type=2 2 2 2
left_child=1 -1 -3 -2
right_child=3 2 -4 -5
leaf_value=-0.092957452686541348 0 0.28563798587310663 0.12283948237444703 -0.096295241915420951
leaf_weight=23.239262953400612 2.5888414531946173 36.575046479701996 4.8371151238679877 91.535092428326607
leaf_count=292 28 155 27 1165
internal_value=0 0.137919 0.269467 -0.0942643
internal_weight=0 64.6514 41.4122 94.1239
internal_count=1667 474 182 1193
is_linear=0
shrinkage=0.1


Tree=30
num_leaves=6
num_cat=0
split_feature=1 15 6 5 4
split_gain=183.454 57.4427 60.4961 6.38854 4.45644
threshold=4.9142392527749168 16.384732896976981 21.556363488341734 1.190940744991446 1.6776939505616395
decision_type=2 2 2 2 2
left_child=1 2 -1 4 -2
right_child=3 -3 -4 -5 -6
leaf_value=0.22595812739176396 0.12723953399265081 -0.085935805055829803 -0.082154857004307857 -0.094218592474139204 -0.056018187670451497
leaf_weight=42.636334598064423 2.0767429545521727 8.9994609728455526 6.9097156897187224 87.014847341924906 2.4374756515026093
leaf_count=162 20 120 89 1244 32
internal_value=0 0.138301 0.181022 -0.0880344 0.0110188
internal_weight=0 58.5455 49.5461 91.5291 4.51422
internal_count=1667 371 251 1296 52
is_linear=0
shrinkage=0.1


Tree=31
num_leaves=3
num_cat=0
split_feature=30 19
split_gain=296.194 12.9826
threshold=150.85249834544015 10.083562149946969
decision_type=2 2
left_child=-1 -2
right_child=1 -3
leaf_value=-0.095397618453468613 -0.0051145786232964195 0.21972544059006072
leaf_weight=102.2494076564908 1.8897020891308773 44.526266634464264
leaf_count=1480 20 167
internal_value=0 0.208658
internal_weight=0 46.416
internal_count=1667 187
is_linear=0
shrinkage=0.1


Tree=32
num_leaves=7
num_cat=0
split_feature=15 13 0 13 15 28
split_gain=212.629 36.124 34.3885 6.7202 0.737848 0.551401
threshold=40.248052006069322 3.2841674367227083 63.926725934285408 107.48745028653993 48.74235340099176 48.831244335549222
decision_type=2 2 2 2 2 2
left_child=2 4 3 5 -2 -1
right_child=1 -3 -4 -5 -6 -7
leaf_value=-0.094304524913625759 -0.069602319073226171 0.21796641123539598 0.19460239954494229 0.077309437975410789 0 0
leaf_weight=97.009093090891838 3.6933449879288665 38.847540758550167 4.0780859142541876 1.641717605292796 1.5989039018750189 1.4048157632350911
leaf_count=1405 47 149 16 15 16 19
internal_value=0 0.184257 -0.0771453 -0.0894851 -0.0457244 -0.0933313
internal_weight=0 44.1398 104.134 100.056 5.29225 98.4139
internal_count=1667 212 1455 1439 63 1424
is_linear=0
shrinkage=0.1


Tree=33
num_leaves=3
num_cat=0
split_feature=31 10
split_gain=240.434 64.9395
threshold=56.080469351562236 14.28771133600778
decision_type=2 2
left_child=1 -1
right_child=-2 -3
leaf_value=0.21871359189684234 -0.095248575861368867 -0.083061392018272825
leaf_weight=44.413661867380142 95.00458662584424 7.9010490179061881
leaf_count=166 1388 113
internal_value=0 0.17128
internal_weight=0 52.3147
internal_count=1667 279
is_linear=0
shrinkage=0.1


Tree=34
num_leaves=3
num_cat=0
split_feature=18 3
split_gain=293.443 5.69354
threshold=28.829379818099483 21.249995133666641
decision_type=2 2
left_child=-1 -2
right_child=1 -3
leaf_value=-0.095151815588555455 0 0.22142811214865904
leaf_weight=99.759391065686941 1.9332882538437832 42.352089509367943
leaf_count=1489 18 160
internal_value=0 0.213588
internal_weight=0 44.2854
internal_count=1667 178
is_linear=0
shrinkage=0.1


Tree=35
num_leaves=3
num_cat=0
split_feature=12 31
split_gain=271.862 34.7532
threshold=61.451475465731669 142.00278361201859
decision_type=2 2
left_child=-1 -2
right_child=1 -3
leaf_value=-0.09532653685583492 -0.070851151160165354 0.21839030264101245
leaf_weight=99.3511330075562 3.9844987466931334 44.679766163229942
leaf_count=1446 54 167
internal_value=0 0.192673
internal_weight=0 48.6643
internal_count=1667 221
is_linear=0
shrinkage=0.1


Tree=36
num_leaves=4
num_cat=0
split_feature=31 10 7
split_gain=200.263 106.509 1.20278
threshold=81.427160548609592 19.190558112803178 13.617199919032826
decision_type=2 2 2
left_child=1 -1 -3
right_child=-2 2 -4
leaf_value=-0.088747180020505301 -0.09515649056764619 0.088961419788694263 0.22842460412256516
leaf_weight=14.236529927700756 87.452575270086527 3.202020250260829 40.918164312839508
leaf_count=210 1282 19 156
internal_value=0 0.143687 0.220781
internal_weight=0 58.3567 44.1202
internal_count=1667 385 175
is_linear=0
shrinkage=0.1


Tree=37
num_leaves=3
num_cat=0
split_feature=4 7
split_gain=259.135 49.112
threshold=57.576126922138251 99.827154309844374
decision_type=2 2
left_child=-1 -2
right_child=1 -3
leaf_value=-0.095442242399393237 0.21601730543607944 -0.078683821988517477
leaf_weight=98.795689217746258 45.728142142295837 5.8618017584085456
leaf_count=1415 170 82
internal_value=0 0.18062
internal_weight=0 51.5899
internal_count=1667 252
is_linear=0
shrinkage=0.1


Tree=38
num_leaves=5
num_cat=0
split_feature=16 28 14 1
split_gain=224.194 55.1349 1.42197 7.77599
threshold=20.434603974196047 8.0835531727818566 0.66042282481224934 22.173084461200588
decision_type=2 2 2 2
left_child=2 -2 3 -1
right_child=1 -3 -4 -5
leaf_value=-0.085129372402910755 0.21457705654608974 -0.081019147680369011 -0.093928149331392333 0.10103305490989108
leaf_weight=9.4624376744031888 42.962352722883224 6.7989436835050574 85.45491386204958 2.3744990527629843
leaf_count=137 163 96 1253 18
internal_value=0 0.172225 -0.0882931 -0.0392498
internal_weight=0 49.7613 97.2919 11.8369
internal_count=1667 259 1408 155
is_linear=0
shrinkage=0.1


Tree=39
num_leaves=5
num_cat=0
split_feature=12 6 13 12
split_gain=164.089 134.409 3.88674 1.25873
threshold=9.5066791686755501 20.504908470109175 24.080299810585881 10.334874722688994
decision_type=2 2 2 2
left_child=1 -1 -3 -2
right_child=3 2 -4 -5
leaf_value=-0.09136823396298023 0 0.22615042975508542 0.095528244377176913 -0.095155967704625657
leaf_weight=20.579497173428535 2.5315239876508704 40.391554594039917 5.5438608005642882 80.921156026422977
leaf_count=292 28 154 28 1165
internal_value=0 0.117364 0.212819 -0.0928987
internal_weight=0 66.5149 45.9354 83.4527
internal_count=1667 474 182 1193
is_linear=0
shrinkage=0.1


Tree=40
num_leaves=5
num_cat=0
split_feature=1 10 15 31
split_gain=147.639 55.9122 47.4138 0.224175
threshold=7.1250076145145611 8.3757351981715278 21.564508456210806 103.55944908815751
decision_type=2 2 2 2
left_child=1 2 3 -1
right_child=-2 -3 -4 -5
leaf_value=0.18004318393992019 -0.092984754658879121 -0.086925452505630843 -0.081246201181885622 0.2798973937811004
leaf_weight=40.821374833583832 76.572078481316566 10.835219658911226 6.6590264029800883 4.7745693624019614
leaf_count=147 1247 154 98 21
internal_value=0 0.113311 0.15672 0.193641
internal_weight=0 63.0902 52.255 45.5959
internal_count=1667 420 266 168
is_linear=0
shrinkage=0.1


Tree=41
num_leaves=3
num_cat=0
split_feature=30 15
split_gain=228.852 9.51869
threshold=150.85249834544015 16.384732896976981
decision_type=2 2
left_child=-1 -2
right_child=1 -3
leaf_value=-0.094400059354726673 -0.0049432327264970245 0.18481704191947396
leaf_weight=89.975469417870045 1.8191863372921933 46.058663740754128
leaf_count=1480 20 167
internal_value=0 0.175744
internal_weight=0 47.8779
internal_count=1667 187
is_linear=0
shrinkage=0.1


Tree=42
num_leaves=6
num_cat=0
split_feature=0 5 15 1 12
split_gain=166.682 48.974 15.3825 2.39187 1.2847
threshold=42.41916955947196 6.5075855404860334 87.281826182754529 65.3729013084819 18.054315857850018
decision_type=2 2 2 2 2
left_child=2 -2 3 -1 -3
right_child=1 4 -4 -5 -6
leaf_value=-0.093289315800092448 0.18830179123216423 -0.082028518581109044 0.14065779569069123 0 0
leaf_weight=83.145483214408159 42.616712767630816 7.2813729047775251 2.4950774610042563 1.318017505109309 1.2700775340199468
leaf_count=1344 165 118 9 17 14
internal_value=0 0.144051 -0.0830338 -0.0910214 -0.0654537
internal_weight=0 51.1682 86.9586 84.4635 8.55145
internal_count=1667 297 1370 1361 132
is_linear=0
shrinkage=0.1


Tree=43
num_leaves=3
num_cat=0
split_feature=31 10
split_gain=189.963 45.8607
threshold=56.080469351562236 14.28771133600778
decision_type=2 2
left_child=1 -1
right_child=-2 -3
leaf_value=0.18428186816550274 -0.094257066507053733 -0.080541716052071916
leaf_weight=45.927389189600945 83.667134746909142 6.9919331781566134
leaf_count=166 1388 113
internal_value=0 0.147426
internal_weight=0 52.9193
internal_count=1667 279
is_linear=0
shrinkage=0.1


Tree=44
num_leaves=3
num_cat=0
split_feature=18 31
split_gain=226.676 4.30746
threshold=28.829379818099483 99.45823615681816
decision_type=2 2
left_child=-1 -2
right_child=1 -3
leaf_value=-0.094180682661865633 0.0042574396340438496 0.18707844138063576
leaf_weight=87.761249985545874 2.3828432187438002 43.504100292921066
leaf_count=1489 20 158
internal_value=0 0.179597
internal_weight=0 45.8869
internal_count=1667 178
is_linear=0
shrinkage=0.1


Tree=45
num_leaves=3
num_cat=0
split_feature=12 31
split_gain=211.626 24.7104
threshold=61.451475465731669 142.00278361201859
decision_type=2 2
left_child=-1 -2
right_child=1 -3
leaf_value=-0.094329618404425844 -0.067661900760591503 0.18377565657485881
leaf_weight=87.407961893826723 3.6168137602508059 46.17808336019516
leaf_count=1446 54 167
internal_value=0 0.163515
internal_weight=0 49.7949
internal_count=1667 221
is_linear=0
shrinkage=0.1


Tree=46
num_leaves=4
num_cat=0
split_feature=31 10 1
split_gain=160.539 75.9225 0.935115
threshold=81.427160548609592 19.190558112803178 16.205617523917358
decision_type=2 2 2
left_child=1 -1 -3
right_child=-2 2 -4
leaf_value=-0.086929823663488559 -0.094151289720226669 0.078370028732754227 0.19261190327587915
leaf_weight=12.550061155110596 77.018474172800779 3.9380074217915526 42.056751698255539
leaf_count=210 1282 21 154
internal_value=0 0.125204 0.185161
internal_weight=0 58.5448 45.9948
internal_count=1667 385 175
is_linear=0
shrinkage=0.1


Tree=47
num_leaves=3
num_cat=0
split_feature=4 7
split_gain=203.245 34.4794
threshold=57.576126922138251 99.827154309844374
decision_type=2 2
left_child=-1 -2
right_child=1 -3
leaf_value=-0.09443358717684941 0.18194637580502995 -0.075658786648653734
leaf_weight=86.987508580088615 47.19009467959404 5.2000842280685893
leaf_count=1415 170 82
internal_value=0 0.154475
internal_weight=0 52.3902
internal_count=1667 252
is_linear=0
shrinkage=0.1


Tree=48
num_leaves=6
num_cat=0
split_feature=16 30 14 1 15
split_gain=174.689 40.3184 1.59825 6.59252 0.380854
threshold=20.434603974196047 86.37046327612633 0.66042282481224934 22.173084461200588 25.991871789766424
decision_type=2 2 2 2 2
left_child=2 -2 3 -1 -3
right_child=1 4 -4 -5 -6
leaf_value=-0.08283786062886625 -0.082027650051527248 0.063003929973999215 -0.092769755914685767 0.086187687179255637 0.18604358713578095
leaf_weight=8.3556898683309537 6.0996014960110179 2.8079315200448027 75.297828648239374 2.5436400473117819 41.768492579460144
leaf_count=137 88 20 1253 18 151
internal_value=0 0.147039 -0.0865327 -0.0344406 0.180619
internal_weight=0 50.676 86.1972 10.8993 44.5764
internal_count=1667 259 1408 155 171
is_linear=0
shrinkage=0.1


Tree=49
num_leaves=5
num_cat=0
split_feature=12 6 31 8
split_gain=132.33 97.0288 3.12498 1.30107
threshold=9.5066791686755501 20.504908470109175 42.859464327430679 0.66409017726649966
decision_type=2 2 2 2
left_child=1 -1 -3 -2
right_child=3 2 -4 -5
leaf_value=-0.089805498990057214 0 0.063104691910909672 0.1883939295181325 -0.094172782720904513
leaf_weight=18.1475481800735 2.5271060504019252 4.7200186401605597 43.120742313563824 71.145348452031612
leaf_count=292 36 24 158 1157
internal_value=0 0.103102 0.17822 -0.0915915
internal_weight=0 65.9883 47.8408 73.6725
internal_count=1667 474 182 1193
is_linear=0
shrinkage=0.1


Tree=50
num_leaves=4
num_cat=0
split_feature=1 10 15
split_gain=119.747 42.4579 34.6672
threshold=7.1250076145145611 8.3757351981715278 21.564508456210806
decision_type=2 2 2
left_child=1 2 -1
right_child=-2 -3 -4
leaf_value=0.16793258973555777 -0.091859807030561277 -0.084827491248879672 -0.078308776502993865
leaf_weight=45.634806662797928 67.156138177961111 9.5907009020447713 5.8820400796830645
leaf_count=168 1247 154 98
internal_value=0 0.101298 0.137883
internal_weight=0 61.1075 51.5168
internal_count=1667 420 266
is_linear=0
shrinkage=0.1


Tree=51
num_leaves=3
num_cat=0
split_feature=30 24
split_gain=181.443 7.41924
threshold=150.85249834544015 4.4947696477008128
decision_type=2 2
left_child=-1 -2
right_child=1 -3
leaf_value=-0.093478137649359194 -0.0043004644724518861 0.16173839914928312
leaf_weight=78.793081466108561 1.7344285249710072 45.609207063913345
leaf_count=1480 20 167
internal_value=0 0.15377
internal_weight=0 47.3436
internal_count=1667 187
is_linear=0
shrinkage=0.1


Tree=52
num_leaves=6
num_cat=0
split_feature=0 5 15 1 12
split_gain=132.471 35.6569 12.911 2.36726 1.27135
threshold=42.41916955947196 6.5075855404860334 87.281826182754529 65.3729013084819 19.074778673660667
decision_type=2 2 2 2 2
left_child=2 -2 3 -1 -3
right_child=1 4 -4 -5 -6
leaf_value=-0.092168728421447577 0.16321212430102014 -0.079645040325663843 0.12167550063798974 0 0
leaf_weight=72.904949400573969 42.717134326696396 6.5477920919656745 2.4859331846237174 1.281897798180579 1.1233939602971075
leaf_count=1344 165 120 9 17 12
internal_value=0 0.127064 -0.0812927 -0.0896127 -0.0618288
internal_weight=0 50.3883 76.6728 74.1868 7.67119
internal_count=1667 297 1370 1361 132
is_linear=0
shrinkage=0.1


Tree=53
num_leaves=3
num_cat=0
split_feature=31 10
split_gain=152.671 34.3411
threshold=56.080469351562236 14.28771133600778
decision_type=2 2
left_child=1 -1
right_child=-2 -3
leaf_value=0.1614333209502333 -0.093331027885876203 -0.078074093869983749
leaf_weight=45.500873297452927 73.266529742628336 6.2271008901298037
leaf_count=166 1388 113
internal_value=0 0.130678
internal_weight=0 51.728
internal_count=1667 279
is_linear=0
shrinkage=0.1


Tree=54
num_leaves=3
num_cat=0
split_feature=18 31
split_gain=179.685 2.88226
threshold=28.829379818099483 99.45823615681816
decision_type=2 2
left_child=-1 -2
right_child=1 -3
leaf_value=-0.093279235978832101 0.0028696718191604798 0.16315758557599913
leaf_weight=76.823511391878128 2.3411029614508143 43.205547362565994
leaf_count=1489 20 158
internal_value=0 0.156935
internal_weight=0 45.5467
internal_count=1667 178
is_linear=0
shrinkage=0.1


Tree=55
num_leaves=3
num_cat=0
split_feature=12 31
split_gain=168.426 18.4044
threshold=61.451475465731669 142.00278361201859
decision_type=2 2
left_child=-1 -2
right_child=1 -3
leaf_value=-0.093407684318149747 -0.064024054212445822 0.16067855039249512
leaf_weight=76.536846932023764 3.2550049796700469 45.684014454483986
leaf_count=1446 54 167
internal_value=0 0.143702
internal_weight=0 48.939
internal_count=1667 221
is_linear=0
shrinkage=0.1


Tree=56
num_leaves=4
num_cat=0
split_feature=31 10 1
split_gain=130.458 56.7234 0.40826
threshold=81.427160548609592 19.190558112803178 16.205617523917358
decision_type=2 2 2
left_child=1 -1 -3
right_child=-2 2 -4
leaf_value=-0.085094517531351069 -0.093210808214896745 0.06776766297479403 0.16772636874074545
leaf_weight=11.051676500588654 67.461572427302599 3.9810660555958739 42.006536230444908
leaf_count=210 1282 21 154
internal_value=0 0.111899 0.161353
internal_weight=0 57.0393 45.9876
internal_count=1667 385 175
is_linear=0
shrinkage=0.1


Tree=57
num_leaves=3
num_cat=0
split_feature=4 7
split_gain=162.69 25.6406
threshold=57.576126922138251 99.827154309844374
decision_type=2 2
left_child=-1 -2
right_child=1 -3
leaf_value=-0.093498348516871554 0.15940128047940261 -0.072577446955034638
leaf_weight=76.197773426771164 46.634946823120117 4.6268848963081828
leaf_count=1415 170 82
internal_value=0 0.136513
internal_weight=0 51.2618
internal_count=1667 252
is_linear=0
shrinkage=0.1


Tree=58
num_leaves=7
num_cat=0
split_feature=16 30 14 1 3 0
split_gain=138.952 29.992 1.76482 5.60694 0.165311 0.0966782
threshold=20.434603974196047 86.37046327612633 0.66042282481224934 22.173084461200588 1.2074599686134297 27.232867757008666
decision_type=2 2 2 2 2 2
left_child=2 -2 3 -1 -4 -3
right_child=1 5 4 -5 -6 -7
leaf_value=-0.080432312594898178 -0.078934620555654575 0.056773759854992792 0 0.07481177799852938 -0.09310575708005453 0.16272448774224832
leaf_weight=7.3588996641337854 5.4296810068190089 3.0672540701925746 1.8639688715338696 2.6788839027285576 64.168406326323748 41.234907701611519
leaf_count=137 88 21 35 18 1218 150
internal_value=0 0.129849 -0.0847358 -0.0295577 -0.0916502 0.157699
internal_weight=0 49.7318 76.0702 10.0378 66.0324 44.3022
internal_count=1667 259 1408 155 1253 171
is_linear=0
shrinkage=0.1


Tree=59
num_leaves=4
num_cat=0
split_feature=6 12 5
split_gain=108.467 79.5452 2.9058
threshold=20.504908470109175 11.828133243676346 5.5440036787480205
decision_type=2 2 2
left_child=-1 2 -2
right_child=1 -3 -4
leaf_value=-0.093274558309803635 0.16589269407943164 -0.088691178940640436 0.041866783832227257
leaf_weight=62.882550459355116 43.904481217265129 17.446289166808128 4.2328435182571402
leaf_count=1157 162 326 22
internal_value=0 0.0902524 0.157067
internal_weight=0 65.5836 48.1373
internal_count=1667 510 184
is_linear=0
shrinkage=0.1


Tree=60
num_leaves=7
num_cat=0
split_feature=7 15 12 7 12 1
split_gain=98.0744 44.7495 7.83445 1.98654 0.918385 0.311718
threshold=2.8723817128233322 21.564508456210806 14.016468481472543 3.5016451736160565 6.9509011979143276 12.786385198672104
decision_type=2 2 2 2 2 2
left_child=1 2 4 5 -1 -2
right_child=3 -3 -4 -5 -6 -7
leaf_value=-0.046213417771513422 0.016240546337016059 -0.084400192442496524 0.15105327706487731 -0.092483235385098117 0.051760517339245894 -0.037127698957609021
leaf_weight=2.0330910161137576 1.6393422447144979 10.474183369427918 41.873796850442886 57.136822506785393 1.4477922432124612 1.7094016522169111
leaf_count=38 14 214 160 1196 8 37
internal_value=0 0.0954253 0.139118 -0.0880558 0 0
internal_weight=0 55.8289 45.3547 60.4856 3.48088 3.34874
internal_count=1667 420 206 1247 46 51
is_linear=0
shrinkage=0.1


Tree=61
num_leaves=3
num_cat=0
split_feature=30 27
split_gain=146.187 6.02036
threshold=150.85249834544015 0.13183484736369147
decision_type=2 2
left_child=-1 -2
right_child=1 -3
leaf_value=-0.092623070451213818 -0.0032084467539670036 0.14549638556249303
leaf_weight=68.680010367184877 1.6406281068921078 43.785118848085403
leaf_count=1480 20 167
internal_value=0 0.138163
internal_weight=0 45.4257
internal_count=1667 187
is_linear=0
shrinkage=0.1


Tree=62
num_leaves=6
num_cat=0
split_feature=0 8 15 0 1
split_gain=106.472 26.9857 10.8844 4.24111 2.62233
threshold=42.41916955947196 6.6970983548223115 87.281826182754529 71.668531363797385 69.261779736781222
decision_type=2 2 2 2 2
left_child=2 -2 4 -3 -1
right_child=1 3 -4 -5 -6
leaf_value=-0.091102062165010211 0.14892261053753245 -0.080030492681227638 0.106754513918836 0.084535928398804652 0.011167678126510218
leaf_weight=63.921162270009518 40.083631917834282 6.8921169564127904 2.4198425710201255 1.3586614131927488 0.95081578940153022
leaf_count=1349 155 137 9 5 12
internal_value=0 0.114626 -0.0795509 -0.040922 -0.0881903
internal_weight=0 48.3344 67.2918 8.25078 64.872
internal_count=1667 297 1370 142 1361
is_linear=0
shrinkage=0.1


Tree=63
num_leaves=3
num_cat=0
split_feature=31 10
split_gain=124.291 26.4443
threshold=56.080469351562236 14.28771133600778
decision_type=2 2
left_child=1 -1
right_child=-2 -3
leaf_value=0.14530021441860388 -0.092470114697449243 -0.075329052345230949
leaf_weight=43.710715264081955 63.87940720282495 5.5062716081738463
leaf_count=166 1388 113
internal_value=0 0.118591
internal_weight=0 49.217
internal_count=1667 279
is_linear=0
shrinkage=0.1


Tree=64
num_leaves=3
num_cat=0
split_feature=18 31
split_gain=144.746 2.02311
threshold=28.829379818099483 99.45823615681816
decision_type=2 2
left_child=-1 -2
right_child=1 -3
leaf_value=-0.092439376590644565 0.0016108819307860238 0.14634494193822278
leaf_weight=66.932093499228358 2.2908495813608161 41.544663041830063
leaf_count=1489 20 158
internal_value=0 0.140867
internal_weight=0 43.8355
internal_count=1667 178
is_linear=0
shrinkage=0.1


Tree=65
num_leaves=3
num_cat=0
split_feature=12 31
split_gain=135.966 14.2
threshold=61.451475465731669 142.00278361201859
decision_type=2 2
left_child=-1 -2
right_child=1 -3
leaf_value=-0.092551133794987375 -0.060095849776697519 0.14441812786459063
leaf_weight=66.707091996446252 2.9228533431887618 43.780601799488068
leaf_count=1446 54 167
internal_value=0 0.129498
internal_weight=0 46.7035
internal_count=1667 221
is_linear=0
shrinkage=0.1


Tree=66
num_leaves=4
num_cat=0
split_feature=31 10 7
split_gain=107.123 43.5992 0.582723
threshold=81.427160548609592 19.190558112803178 14.009049585407764
decision_type=2 2 2
left_child=1 -1 -3
right_child=-2 2 -4
leaf_value=-0.083141602093373859 -0.092331159006838345 0.050277834043117378 0.15053381514423822
leaf_weight=9.6820470653474313 58.828003454953432 3.6879367753863326 40.915856882929802
leaf_count=210 1282 20 155
internal_value=0 0.102103 0.144515
internal_weight=0 54.2858 44.6038
internal_count=1667 385 175
is_linear=0
shrinkage=0.1


Tree=67
num_leaves=3
num_cat=0
split_feature=4 7
split_gain=131.766 19.718
threshold=57.576126922138251 99.827154309844374
decision_type=2 2
left_child=-1 -2
right_child=1 -3
leaf_value=-0.092629184870606646 0.1433982879032146 -0.069287031435265087
leaf_weight=66.426161581650376 44.661774784326553 4.1113159470260134
leaf_count=1415 170 82
internal_value=0 0.123423
internal_weight=0 48.7731
internal_count=1667 252
is_linear=0
shrinkage=0.1


Tree=68
num_leaves=7
num_cat=0
split_feature=16 30 14 1 16 15
split_gain=111.753 23.0254 1.92951 4.74259 0.325869 0.169092
threshold=20.434603974196047 86.37046327612633 0.66042282481224934 22.173084461200588 18.699944072921369 25.991871789766424
decision_type=2 2 2 2 2 2
left_child=2 -2 3 -1 -4 -3
right_child=1 5 4 -5 -6 -7
leaf_value=-0.077803411810047518 -0.075670155729446242 0.040045230052763593 -0.092218628734632005 0.065631653489817116 0 0.14589040018156493
leaf_weight=6.442531440407036 4.8220798671245566 2.7526743300259104 56.052794918417931 2.7866616547107697 1.6705600954592217 39.947647422552109
leaf_count=137 88 20 1220 18 33 151
internal_value=0 0.117248 -0.0828986 -0.0244763 -0.090569 0.141383
internal_weight=0 47.5224 66.9525 9.22919 57.7234 42.7003
internal_count=1667 259 1408 155 1253 171
is_linear=0
shrinkage=0.1


Tree=69
num_leaves=4
num_cat=0
split_feature=6 7 3
split_gain=89.2506 62.3217 6.3229
threshold=20.504908470109175 15.377202708655549 18.741104712576806
decision_type=2 2 2
left_child=-1 2 -2
right_child=1 -3 -4
leaf_value=-0.092350756132462478 -0.021962115395506101 -0.088431093959263615 0.14727658026973942
leaf_weight=54.796447061002254 1.3077263608574856 15.264760814607142 45.361341737210751
leaf_count=1157 28 301 181
internal_value=0 0.0825547 0.140541
internal_weight=0 61.9338 46.6691
internal_count=1667 510 209
is_linear=0
shrinkage=0.1


Tree=70
num_leaves=4
num_cat=0
split_feature=1 10 18
split_gain=80.7011 26.3676 20.4513
threshold=7.1250076145145611 8.3757351981715278 4.408983838261193
decision_type=2 2 2
left_child=1 2 -1
right_child=-2 -3 -4
leaf_value=0.13751533267778221 -0.089728111454270676 -0.080333454071762123 -0.071790652379923672
leaf_weight=41.489862933754921 51.103563657030463 7.4473814480006686 4.5384443700313559
leaf_count=168 1247 154 98
internal_value=0 0.0856715 0.114709
internal_weight=0 53.4757 46.0283
internal_count=1667 420 266
is_linear=0
shrinkage=0.1


Tree=71
num_leaves=3
num_cat=0
split_feature=30 16
split_gain=118.857 5.01781
threshold=150.85249834544015 0.11936986210477381
decision_type=2 2
left_child=-1 -2
right_child=1 -3
leaf_value=-0.091816897173968584 -0.0016638252596766418 0.13343777935791865
leaf_weight=59.618016708642244 1.5425620675086964 41.048592820763588
leaf_count=1480 20 167
internal_value=0 0.126457
internal_weight=0 42.5912
internal_count=1667 187
is_linear=0
shrinkage=0.1


Tree=72
num_leaves=6
num_cat=0
split_feature=0 8 15 0 13
split_gain=86.5167 23.6295 4.58538 3.75442 2.59683
threshold=40.754761190476977 6.3703966466589499 87.281826182754529 71.668531363797385 107.88846926532496
decision_type=2 2 2 2 2
left_child=2 -2 4 -3 -1
right_child=1 3 -4 -5 -6
leaf_value=-0.089910279604241528 0.13416371731630292 -0.079447990462919782 0.062914240689618289 0.073324504753694245 0.015264900576799668
leaf_weight=54.391847662627697 39.248571518808603 6.9669660665094835 1.2911303937435139 1.3263494372367857 0.88727981597185035
leaf_count=1325 164 159 5 5 9
internal_value=0 0.101276 -0.0813447 -0.0432672 -0.0865509
internal_weight=0 47.5419 56.5703 8.29332 55.2791
internal_count=1667 328 1339 164 1334
is_linear=0
shrinkage=0.1


Tree=73
num_leaves=3
num_cat=0
split_feature=31 10
split_gain=101.945 20.7668
threshold=56.080469351562236 14.28771133600778
decision_type=2 2
left_child=1 -1
right_child=-2 -3
leaf_value=0.13335847979997023 -0.09165535656527489 -0.072309512158792083
leaf_weight=41.015944197773933 55.475188590586185 4.8490493036806575
leaf_count=166 1388 113
internal_value=0 0.109441
internal_weight=0 45.865
internal_count=1667 279
is_linear=0
shrinkage=0.1


Tree=74
num_leaves=3
num_cat=0
split_feature=18 31
split_gain=117.803 1.09725
threshold=28.829379818099483 99.634214578203569
decision_type=2 2
left_child=-1 -2
right_child=1 -3
leaf_value=-0.0916438932169783 0.012509097106474593 0.13398854417799577
leaf_weight=58.071180325001478 2.4935536086559287 38.74530653655529
leaf_count=1489 21 157
internal_value=0 0.128911
internal_weight=0 41.2389
internal_count=1667 178
is_linear=0
shrinkage=0.1


Tree=75
num_leaves=3
num_cat=0
split_feature=12 31
split_gain=110.642 11.2929
threshold=61.451475465731669 142.00278361201859
decision_type=2 2
left_child=-1 -2
right_child=1 -3
leaf_value=-0.091740606815264955 -0.056091712193610026 0.13241208402701077
leaf_weight=57.890702063217759 2.6359301023185244 40.952878549695015
leaf_count=1446 54 167
internal_value=0 0.118753
internal_weight=0 43.5888
internal_count=1667 221
is_linear=0
shrinkage=0.1


Tree=76
num_leaves=4
num_cat=0
split_feature=31 10 1
split_gain=88.363 34.1165 0.353429
threshold=81.427160548609592 19.190558112803178 16.205617523917358
decision_type=2 2 2
left_child=1 -1 -3
right_child=-2 2 -4
leaf_value=-0.081045826934661225 -0.09149239793731527 0.046959087232051333 0.13782117832443058
leaf_weight=8.4518638923764211 51.087762322276831 3.8752157539129248 38.400170281529427
leaf_count=210 1282 21 154
internal_value=0 0.0944503 0.131871
internal_weight=0 50.7272 42.2754
internal_count=1667 385 175
is_linear=0
shrinkage=0.1


Tree=77
num_leaves=3
num_cat=0
split_feature=4 30
split_gain=107.641 15.4678
threshold=57.576126922138251 58.089630387047301
decision_type=2 2
left_child=-1 -2
right_child=1 -3
leaf_value=-0.091810237353000715 -0.065627117792469533 0.13159428319926122
leaf_weight=57.682034427300096 3.6360683515667906 41.763570621609688
leaf_count=1415 82 170
internal_value=0 0.113607
internal_weight=0 45.3996
internal_count=1667 252
is_linear=0
shrinkage=0.1


Tree=78
num_leaves=7
num_cat=0
split_feature=16 30 14 3 13 1
split_gain=90.5257 18.0647 2.12466 10.2743 0.576999 0.170049
threshold=20.434603974196047 86.37046327612633 0.95435019307021196 7.0691109909417991 2.2656495653983071 29.160468296098681
decision_type=2 2 2 2 2 2
left_child=2 -2 3 -1 -5 -3
right_child=1 5 -4 4 -6 -7
leaf_value=0.17995689632341752 -0.072169401221044066 0.034362209284077176 -0.091339913689759342 -0.082434035318901144 0 0.13396502563551743
leaf_weight=1.5779955983161915 4.2715212740004054 2.8511831089854232 47.647820960730314 8.5790917724370921 0.94819084554910738 37.358171224594116
leaf_count=13 88 21 1188 194 13 150
internal_value=0 0.107733 -0.0809873 -0.0277779 -0.0744298 0.129335
internal_weight=0 44.4809 58.7531 11.1053 9.52728 40.2094
internal_count=1667 259 1408 220 207 171
is_linear=0
shrinkage=0.1


Tree=79
num_leaves=4
num_cat=0
split_feature=6 9 31
split_gain=73.6151 49.3196 3.77877
threshold=20.504908470109175 20.18372949826453 37.361512615673966
decision_type=2 2 2
left_child=-1 2 -2
right_child=1 -3 -4
leaf_value=-0.091475112812696102 0 -0.086305844556979747 0.13579730689356434
leaf_weight=47.583388149738312 2.7414758019149295 13.462864730507134 41.312426615506411
leaf_count=1157 31 311 168
internal_value=0 0.0763346 0.128237
internal_weight=0 57.5168 44.0539
internal_count=1667 510 199
is_linear=0
shrinkage=0.1


Tree=80
num_leaves=4
num_cat=0
split_feature=1 10 18
split_gain=66.5239 23.2207 16.9831
threshold=7.623320645983358 8.3757351981715278 0.97415737198791474
decision_type=2 2 2
left_child=1 2 -1
right_child=-2 -3 -4
leaf_value=0.12881317405335888 -0.090683204645748305 -0.07922768579323558 -0.069081153723754299
leaf_weight=38.521848350763321 43.298700518906116 7.1872775964438906 4.1361466385424128
leaf_count=169 1226 171 101
internal_value=0 0.0783902 0.107292
internal_weight=0 49.8453 42.658
internal_count=1667 441 270
is_linear=0
shrinkage=0.1


Tree=81
num_leaves=3
num_cat=0
split_feature=30 21
split_gain=97.3078 4.27032
threshold=150.85249834544015 1.5487246380158608
decision_type=2 2
left_child=-1 -2
right_child=1 -3
leaf_value=-0.091042026886687111 0 0.12426121391458307
leaf_weight=51.568550566211343 1.4437962695956219 37.795976683497429
leaf_count=1480 20 167
internal_value=0 0.117443
internal_weight=0 39.2398
internal_count=1667 187
is_linear=0
shrinkage=0.1


Tree=82
num_leaves=6
num_cat=0
split_feature=0 30 15 1 13
split_gain=70.6001 16.4154 7.79003 2.75003 1.31217
threshold=42.41916955947196 50.717846350746377 87.281826182754529 73.319697369291873 4.1056252924223253
decision_type=2 2 2 2 2
left_child=2 -2 3 -1 -3
right_child=1 4 -4 -5 -6
leaf_value=-0.088992341085444834 -0.070215761753455647 0.0088069155244439087 0.084167480086023289 0.031848702709001746 0.12697650322070575
leaf_weight=48.380673244595528 4.3469394668936721 2.706216622143983 2.1850053220987311 0.74285408481955428 34.759938150644302
leaf_count=1352 114 27 9 9 156
internal_value=0 0.0986697 -0.0759591 -0.0852185 0.120922
internal_weight=0 41.8131 51.3085 49.1235 37.4662
internal_count=1667 297 1370 1361 183
is_linear=0
shrinkage=0.1


Tree=83
num_leaves=3
num_cat=0
split_feature=31 10
split_gain=83.7536 16.663
threshold=56.080469351562236 14.28771133600778
decision_type=2 2
left_child=1 -1
right_child=-2 -3
leaf_value=0.12411592007832128 -0.090863550719929895 -0.069217987943484452
leaf_weight=37.768955871462822 47.973164059221745 4.2952028363943091
leaf_count=166 1388 113
internal_value=0 0.102011
internal_weight=0 42.0642
internal_count=1667 279
is_linear=0
shrinkage=0.1


Tree=84
num_leaves=3
num_cat=0
split_feature=18 31
split_gain=96.4966 0.844691
threshold=28.829379818099483 99.634214578203569
decision_type=2 2
left_child=-1 -2
right_child=1 -3
leaf_value=-0.090875018622449288 0.009619134288306741 0.12457463091945847
leaf_weight=50.199356673285365 2.4412246830761424 35.689103588461876
leaf_count=1489 21 157
internal_value=0 0.119651
internal_weight=0 38.1303
internal_count=1667 178
is_linear=0
shrinkage=0.1


Tree=85
num_leaves=3
num_cat=0
split_feature=12 31
split_gain=90.6978 9.09919
threshold=61.451475465731669 142.00278361201859
decision_type=2 2
left_child=-1 -2
right_child=1 -3
leaf_value=-0.0909613605402219 -0.051559382178244142 0.12333703445476828
leaf_weight=50.075323766097426 2.3630126528441897 37.612122058868408
leaf_count=1446 54 167
internal_value=0 0.110553
internal_weight=0 39.9751
internal_count=1667 221
is_linear=0
shrinkage=0.1


Tree=86
num_leaves=4
num_cat=0
split_feature=31 10 13
split_gain=73.0946 27.128 0.156006
threshold=81.427160548609592 20.037471336074717 40.268204719195957
decision_type=2 2 2
left_child=1 2 -1
right_child=-2 -3 -4
leaf_value=-0.078642066599837454 -0.090673322936395143 0.12305450837346328 0
leaf_weight=7.0831509698182336 44.187104813754559 39.015625432133675 0.68616316094994534
leaf_count=198 1282 173 14
internal_value=0 0.0882621 -0.0738669
internal_weight=0 46.7849 7.76931
internal_count=1667 385 212
is_linear=0
shrinkage=0.1


Tree=87
num_leaves=3
num_cat=0
split_feature=4 30
split_gain=88.3375 12.417
threshold=57.576126922138251 58.089630387047301
decision_type=2 2
left_child=-1 -2
right_child=1 -3
leaf_value=-0.091019876156042387 -0.061854742126679622 0.12261423477177343
leaf_weight=49.89515857771039 3.2320870682597151 38.339922189712524
leaf_count=1415 82 170
internal_value=0 0.10589
internal_weight=0 41.572
internal_count=1667 252
is_linear=0
shrinkage=0.1


Tree=88
num_leaves=5
num_cat=0
split_feature=16 28 1 10
split_gain=73.9219 19.7414 1.61981 4.05033
threshold=18.699944072921369 8.0835531727818566 36.327803157057716 12.440142191870898
decision_type=2 2 2 2
left_child=2 -2 -1 -4
right_child=1 -3 3 -5
leaf_value=-0.088884691010232914 0.12290570684117766 -0.07356970469214956 0.13179190860881768 -0.067650281570308834
leaf_weight=44.569110926240683 37.521702099591494 5.1798999570310107 1.0341193675994862 4.0093825049698353
leaf_count=1257 168 127 4 111
internal_value=0 0.0967427 -0.0823367 -0.00612548
internal_weight=0 42.7016 49.6126 5.0435
internal_count=1667 295 1372 115
is_linear=0
shrinkage=0.1


Tree=89
num_leaves=4
num_cat=0
split_feature=12 6 13
split_gain=61.1042 39.0971 1.38589
threshold=10.334874722688994 20.504908470109175 24.080299810585881
decision_type=2 2 2
left_child=1 -1 -3
right_child=-2 2 -4
leaf_value=-0.084264759014360674 -0.090577143226568069 0.12702430636893539 0.034729713991632188
leaf_weight=11.679694909602402 41.261463923379779 36.073741897940636 4.8390837013721457
leaf_count=318 1165 156 28
internal_value=0 0.0716316 0.118519
internal_weight=0 52.5925 40.9128
internal_count=1667 502 184
is_linear=0
shrinkage=0.1


Tree=90
num_leaves=4
num_cat=0
split_feature=7 15 12
split_gain=55.0203 25.4499 6.18314
threshold=3.2730008692644934 21.564508456210806 13.622356794446679
decision_type=2 2 2
left_child=1 2 -1
right_child=-2 -3 -4
leaf_value=-0.0359301963247926 -0.08879599407288144 -0.07974145455277 0.12093668884345286
leaf_weight=1.6925616897642601 37.875602817162871 7.9179981201887122 34.824326977133751
leaf_count=46 1212 241 168
internal_value=0 0.074838 0.111059
internal_weight=0 44.4349 36.5169
internal_count=1667 455 214
is_linear=0
shrinkage=0.1


Tree=91
num_leaves=3
num_cat=0
split_feature=30 28
split_gain=79.8812 3.6869
threshold=150.85249834544015 2.0768900172219751
decision_type=2 2
left_child=-1 -2
right_child=1 -3
leaf_value=-0.090284747427688022 0 0.11697706743876386
leaf_weight=44.47207304649055 1.3468039408326138 34.260429590940475
leaf_count=1480 20 167
internal_value=0 0.110179
internal_weight=0 35.6072
internal_count=1667 187
is_linear=0
shrinkage=0.1


Tree=92
num_leaves=6
num_cat=0
split_feature=0 8 1 15 0
split_gain=57.7846 15.247 4.19449 2.74031 2.53307
threshold=40.754761190476977 6.3703966466589499 124.90018463712055 96.91651385884785 71.668531363797385
decision_type=2 2 2 2 2
left_child=2 -2 3 -1 -3
right_child=1 4 -4 -5 -6
leaf_value=-0.087775681221017463 0.11712818988708594 -0.07463103159844546 0.10143336616588589 0.0242917563259233 0.050983464864107875
leaf_weight=41.118302028626204 33.479410853236914 5.487652948126196 0.67072656750678916 0.92051589488983054 1.2078789770603178
leaf_count=1332 164 159 3 4 5
internal_value=0 0.0889688 -0.0776331 -0.0830876 -0.0380967
internal_weight=0 40.1749 42.7095 42.0388 6.69553
internal_count=1667 328 1339 1336 164
is_linear=0
shrinkage=0.1


Tree=93
num_leaves=3
num_cat=0
split_feature=31 10
split_gain=69.1281 13.4388
threshold=56.080469351562236 14.28771133600778
decision_type=2 2
left_child=1 -1
right_child=-2 -3
leaf_value=0.11687773078002371 -0.090088683094726063 -0.065660711675313108
leaf_weight=34.278669267892838 41.38858587667346 3.776533778756856
leaf_count=166 1388 113
internal_value=0 0.0961617
internal_weight=0 38.0552
internal_count=1667 279
is_linear=0
shrinkage=0.1


Tree=94
num_leaves=3
num_cat=0
split_feature=18 31
split_gain=79.4422 0.631327
threshold=28.829379818099483 99.634214578203569
decision_type=2 2
left_child=-1 -2
right_child=1 -3
leaf_value=-0.090120508566689211 0.0074071635278694968 0.11719199880509057
leaf_weight=43.27100083976984 2.3694004006683818 32.38602976500988
leaf_count=1489 21 157
internal_value=0 0.112367
internal_weight=0 34.7554
internal_count=1667 178
is_linear=0
shrinkage=0.1


Tree=95
num_leaves=3
num_cat=0
split_feature=12 31
split_gain=74.5189 7.46087
threshold=61.451475465731669 142.00278361201859
decision_type=2 2
left_child=-1 -2
right_child=1 -3
leaf_value=-0.090197145165652221 -0.04688669948104212 0.11616348889454241
leaf_weight=43.180939445272088 2.1274835243821135 34.021366596221924
leaf_count=1446 54 167
internal_value=0 0.103886
internal_weight=0 36.1489
internal_count=1667 221
is_linear=0
shrinkage=0.1


Tree=96
num_leaves=4
num_cat=0
split_feature=31 10 1
split_gain=60.5275 21.7849 0.512719
threshold=81.427160548609592 19.190558112803178 16.205617523917358
decision_type=2 2 2
left_child=1 -1 -3
right_child=-2 2 -4
leaf_value=-0.076465234896105697 -0.089866361408540957 0.030822277191629263 0.12038862887916169
leaf_weight=6.4545905869454137 38.126401366665959 3.6889121979475012 32.651990175247192
leaf_count=210 1282 21 154
internal_value=0 0.0829395 0.113978
internal_weight=0 42.7955 36.3409
internal_count=1667 385 175
is_linear=0
shrinkage=0.1


Tree=97
num_leaves=3
num_cat=0
split_feature=4 30
split_gain=72.7959 10.0505
threshold=57.576126922138251 58.089630387047301
decision_type=2 2
left_child=-1 -2
right_child=1 -3
leaf_value=-0.090248314627783294 -0.057614834657558123 0.11558853764913496
leaf_weight=43.044823378324509 2.8604477476328602 34.686793893575668
leaf_count=1415 82 170
internal_value=0 0.0997738
internal_weight=0 37.5472
internal_count=1667 252
is_linear=0
shrinkage=0.1


Tree=98
num_leaves=7
num_cat=0
split_feature=16 28 1 10 12 12
split_gain=60.375 15.8391 1.6048 3.10441 0.107669 0.0004565
threshold=18.699944072921369 8.0835531727818566 36.327803157057716 12.440142191870898 3.0010856257386429 1.7146489192213561
decision_type=2 2 2 2 2 2
left_child=2 -2 4 -4 5 -1
right_child=1 -3 3 -5 -6 -7
leaf_value=0 0.11505663124894948 -0.070417650079860158 0.11015929119650281 -0.064208094124399734 -0.08993786142053721 -0.00195214783910178
leaf_weight=0.7440851442515839 34.302934173494577 4.5475698448717585 1.0837028026580799 3.5562892910093069 36.758789170533419 0.99788469448685646
leaf_count=18 168 127 4 111 1205 34
internal_value=0 0.0907921 -0.0806416 -0.00201909 -0.087732 0
internal_weight=0 38.8505 43.1408 4.63999 38.5008 1.74197
internal_count=1667 295 1372 115 1257 52
is_linear=0
shrinkage=0.1


Tree=99
num_leaves=5
num_cat=0
split_feature=6 7 1 1
split_gain=50.6967 32.4046 3.0462 1.69413
threshold=20.504908470109175 15.377202708655549 17.235711980604865 26.666462552353867
decision_type=2 2 2 2
left_child=-1 2 -2 -4
right_child=1 -3 3 -5
leaf_value=-0.089787634231952004 0.12165895302212307 -0.083608310123309687 0.073475595879893982 -0.045056785679726617
leaf_weight=35.565575402230024 33.569934383034706 10.286549888551233 2.2438927739858623 1.6505986116826532
leaf_count=1157 158 301 11 40
internal_value=0 0.0675239 0.111633 0.00151043
internal_weight=0 47.751 37.4644 3.89449
internal_count=1667 510 209 51
is_linear=0
shrinkage=0.1


Tree=100
num_leaves=4
num_cat=0
split_feature=1 10 18
split_gain=45.6183 15.2687 10.824
threshold=7.623320645983358 8.3757351981715278 0.97415737198791474
decision_type=2 2 2
left_child=1 2 -1
right_child=-2 -3 -4
leaf_value=0.1146624627096588 -0.089042024424372396 -0.073886502518252434 -0.060558931589262788
leaf_weight=31.497267037630081 32.230857072398067 5.480299921706318 3.1358153726905575
leaf_count=169 1226 171 101
internal_value=0 0.0702689 0.0959569
internal_weight=0 40.1134 34.6331
internal_count=1667 441 270
is_linear=0
shrinkage=0.1


Tree=101
num_leaves=3
num_cat=0
split_feature=30 29
split_gain=65.7454 2.08458
threshold=150.85249834544015 2.5598179987146739
decision_type=2 2
left_child=-1 -2
right_child=1 -3
leaf_value=-0.089525650735717721 0 0.11108255613896137
leaf_weight=38.244907651096582 2.1438637599349049 29.79919807612896
leaf_count=1480 25 162
internal_value=0 0.104249
internal_weight=0 31.9431
internal_count=1667 187
is_linear=0
shrinkage=0.1


Tree=102
num_leaves=8
num_cat=0
split_feature=0 30 15 13 13 5 5
split_gain=47.382 10.7316 5.58513 2.75092 0.978369 0.162471 0.0146026
threshold=42.41916955947196 50.717846350746377 87.281826182754529 108.66175651300198 4.1056252924223253 1.554641498167346 0.99461951498972134
decision_type=2 2 2 2 2 2 2
left_child=2 -2 3 5 -3 6 -1
right_child=1 4 -4 -5 -6 -7 -8
leaf_value=-0.010553635533690393 -0.062697302902430863 0 0.06661002691356839 0.047415282555325469 0.11355573615156106 -0.08928271667830931 0
leaf_weight=1.1110725328326214 3.3544718492776147 2.370147060602906 1.8971984982490528 0.59257873520254989 28.929447755217552 34.3875005338341 0.72662315145134915
leaf_count=33 114 27 9 4 156 1299 25
internal_value=0 0.0884203 -0.0720138 -0.0819096 0.107768 -0.0867446 0
internal_weight=0 34.6541 38.715 36.8178 31.2996 36.2252 1.8377
internal_count=1667 297 1370 1361 183 1357 58
is_linear=0
shrinkage=0.1


Tree=103
num_leaves=3
num_cat=0
split_feature=31 10
split_gain=57.0866 10.9838
threshold=56.080469351562236 14.28771133600778
decision_type=2 2
left_child=1 -1
right_child=-2 -3
leaf_value=0.11106345482604614 -0.089304629628891088 -0.061916297731894158
leaf_weight=30.742169380187988 35.595085275359452 3.335020635277032
leaf_count=166 1388 113
internal_value=0 0.0912464
internal_weight=0 34.0772
internal_count=1667 279
is_linear=0
shrinkage=0.1


Tree=104
num_leaves=3
num_cat=0
split_feature=18 31
split_gain=65.5421 0.494655
threshold=28.829379818099483 99.634214578203569
decision_type=2 2
left_child=-1 -2
right_child=1 -3
leaf_value=-0.089359157103112458 0.0050463141295954209 0.11124961293231982
leaf_weight=37.18801708240062 2.299403794109824 29.029522567987442
leaf_count=1489 21 157
internal_value=0 0.106391
internal_weight=0 31.3289
internal_count=1667 178
is_linear=0
shrinkage=0.1


Tree=105
num_leaves=3
num_cat=0
split_feature=12 31
split_gain=61.3947 6.15725
threshold=61.451475465731669 142.00278361201859
decision_type=2 2
left_child=-1 -2
right_child=1 -3
leaf_value=-0.089429905505168342 -0.041689526125550332 0.11041650649379849
leaf_weight=37.13937877677381 1.9083421807736147 30.415428847074509
leaf_count=1446 54 167
internal_value=0 0.0984681
internal_weight=0 32.3238
internal_count=1667 221
is_linear=0
shrinkage=0.1


Tree=106
num_leaves=4
num_cat=0
split_feature=31 10 1
split_gain=50.2726 17.6226 0.123759
threshold=81.427160548609592 20.037471336074717 30.881952093262079
decision_type=2 2 2
left_child=1 2 -1
right_child=-2 -3 -4
leaf_value=-0.073544394007135458 -0.089044310434068796 0.10859796159004381 0
leaf_weight=5.4086552504450074 32.795985892415047 32.720428265631199 0.54966832138597954
leaf_count=197 1282 173 15
internal_value=0 0.0787519 -0.068739
internal_weight=0 38.6788 5.95832
internal_count=1667 385 212
is_linear=0
shrinkage=0.1


Tree=107
num_leaves=3
num_cat=0
split_feature=5 30
split_gain=60.3736 7.96907
threshold=20.757139392747483 58.089630387047301
decision_type=2 2
left_child=-1 -2
right_child=1 -3
leaf_value=-0.089523402171117816 -0.051536016881751759 0.10995822485412027
leaf_weight=37.094043294899166 2.4736628178507081 31.018873453140259
leaf_count=1396 101 170
internal_value=0 0.0951244
internal_weight=0 33.4925
internal_count=1667 271
is_linear=0
shrinkage=0.1


Tree=108
num_leaves=7
num_cat=0
split_feature=16 28 14 9 10 28
split_gain=49.4101 13.0139 1.66897 2.56761 0.558931 0.435017
threshold=18.699944072921369 7.3491378960135831 0.66042282481224934 15.030831636643784 6.1012201713510246 8.0835531727818566
decision_type=2 2 2 2 2 2
left_child=2 -2 3 4 -1 -3
right_child=1 5 -4 -5 -6 -7
leaf_value=-0.068651337179035155 0.11096631060919032 0 -0.088918511655381366 0.093073176492867546 0 -0.06693353596043497
leaf_weight=4.1707592252641907 30.248890191316605 0.7866523340344419 31.539008673280478 1.1073236465454099 0.68156681582331646 3.9838045686483383
leaf_count=137 163 5 1220 4 11 127
internal_value=0 0.085786 -0.0789389 -0.0103425 -0.0545062 -0.0538131
internal_weight=0 35.0193 37.4987 5.95965 4.85233 4.77046
internal_count=1667 295 1372 152 148 132
is_linear=0
shrinkage=0.1


Tree=109
num_leaves=4
num_cat=0
split_feature=12 6 4
split_gain=42.1971 25.3695 1.10508
threshold=10.334874722688994 20.504908470109175 10.260608008984489
decision_type=2 2 2
left_child=1 -1 -3
right_child=-2 2 -4
leaf_value=-0.080503757585898755 -0.088873213999679276 0.11256669585576806 0.019625453902608739
leaf_weight=8.7466503456234914 30.669616607949138 30.049954935908318 3.9751466065645209
leaf_count=318 1165 157 27
internal_value=0 0.0643874 0.104516
internal_weight=0 42.7718 34.0251
internal_count=1667 502 184
is_linear=0
shrinkage=0.1


Tree=110
num_leaves=4
num_cat=0
split_feature=1 10 18
split_gain=37.6888 12.524 8.82358
threshold=7.623320645983358 8.3757351981715278 0.97415737198791474
decision_type=2 2 2
left_child=1 2 -1
right_child=-2 -3 -4
leaf_value=0.10954019335846188 -0.08818644177652403 -0.070974668345719347 -0.05598035136587081
leaf_weight=28.042984247207645 27.701126455329359 4.8095359820872536 2.7539061419665805
leaf_count=169 1226 171 101
internal_value=0 0.0668269 0.0915699
internal_weight=0 35.6064 30.7969
internal_count=1667 441 270
is_linear=0
shrinkage=0.1


Tree=111
num_leaves=3
num_cat=0
split_feature=30 23
split_gain=54.3393 1.6666
threshold=150.85249834544015 9.8193633017535618
decision_type=2 2
left_child=-1 -2
right_child=1 -3
leaf_value=-0.088754242480642509 0 0.10611971213304963
leaf_weight=32.84920038562268 2.0443593040108707 26.414853021502495
leaf_count=1480 25 162
internal_value=0 0.0993809
internal_weight=0 28.4592
internal_count=1667 187
is_linear=0
shrinkage=0.1


Tree=112
num_leaves=7
num_cat=0
split_feature=0 8 1 13 0 31
split_gain=39.2744 12.7261 3.70819 2.31783 1.97111 0.00411576
threshold=37.363485258107872 6.2883966340601765 124.90018463712055 3.9801877080912513 71.668531363797385 90.34265815748202
decision_type=2 2 2 2 2 2
left_child=2 3 -1 5 -3 -2
right_child=1 4 -4 -5 -6 -7
leaf_value=-0.088308120739853585 0.0064020874342244601 -0.073478462718907275 0.076142860330072851 0.11185476504948533 0.032291399063529062 0
leaf_weight=28.623579135164622 0.8041684627532989 5.3572544511407605 0.70206402242183585 26.915608771145344 1.0678158551454542 1.3869710899889467
leaf_count=1257 4 202 3 158 5 38
internal_value=0 0.0748956 -0.0808338 0.103852 -0.0418711 0
internal_weight=0 35.5318 29.3256 29.1067 6.42507 2.19114
internal_count=1667 407 1260 200 207 42
is_linear=0
shrinkage=0.1


Tree=113
num_leaves=3
num_cat=0
split_feature=31 10
split_gain=47.36 9.03603
threshold=56.080469351562236 14.28771133600778
decision_type=2 2
left_child=1 -1
right_child=-2 -3
leaf_value=0.10638890518457469 -0.088506632553728648 -0.057775049786764822
leaf_weight=27.386791184544567 30.595008780248463 2.9414964336901894
leaf_count=166 1388 113
internal_value=0 0.0872446
internal_weight=0 30.3283
internal_count=1667 279
is_linear=0
shrinkage=0.1


Tree=114
num_leaves=3
num_cat=0
split_feature=18 18
split_gain=54.2851 0.028333
threshold=28.829379818099483 139.73625394012518
decision_type=2 2
left_child=-1 -2
right_child=1 -3
leaf_value=-0.088583176809626352 0.020080745874167791 0.10677633969143088
leaf_weight=31.932368073612452 2.8028507120907333 25.216794207692146
leaf_count=1489 24 154
internal_value=0 0.101497
internal_weight=0 28.0196
internal_count=1667 178
is_linear=0
shrinkage=0.1


Tree=115
num_leaves=3
num_cat=0
split_feature=12 31
split_gain=50.6319 5.16439
threshold=61.451475465731669 142.00278361201859
decision_type=2 2
left_child=-1 -2
right_child=1 -3
leaf_value=-0.088648702668295221 -0.036493134556703374 0.10570238106862764
leaf_weight=31.907963310368359 1.7248212769627596 26.92928059399128
leaf_count=1446 54 167
internal_value=0 0.0938302
internal_weight=0 28.6541
internal_count=1667 221
is_linear=0
shrinkage=0.1


Tree=116
num_leaves=5
num_cat=0
split_feature=31 10 31 13
split_gain=41.6538 14.0509 0.802391 0.134944
threshold=78.455013776886233 20.037471336074717 81.427160548609592 40.42028336038112
decision_type=2 2 2 2
left_child=1 3 -2 -1
right_child=2 -3 -4 -5
leaf_value=-0.069454999873401854 0 0.10593289842524103 -0.08820174126318725 0
leaf_weight=4.5321887135505667 1.2521109562367225 28.5604412779212 28.189333553425968 0.4676956683397292
leaf_count=194 14 165 1282 12
internal_value=0 0.0776794 -0.0847362 -0.0642697
internal_weight=0 33.5603 29.4414 4.99988
internal_count=1667 371 1296 206
is_linear=0
shrinkage=0.1


Tree=117
num_leaves=3
num_cat=0
split_feature=5 30
split_gain=49.9365 6.55563
threshold=20.757139392747483 58.089630387047301
decision_type=2 2
left_child=-1 -2
right_child=1 -3
leaf_value=-0.08873239339716732 -0.046470857272339509 0.10533707303593393
leaf_weight=31.892203801311553 2.1887706518173244 27.478400155901909
leaf_count=1396 101 170
internal_value=0 0.0908875
internal_weight=0 29.6672
internal_count=1667 271
is_linear=0
shrinkage=0.1


Tree=118
num_leaves=7
num_cat=0
split_feature=16 13 14 9 10 9
split_gain=40.4115 10.7664 1.71658 1.90516 0.50371 0.0550162
threshold=18.699944072921369 5.8443875045878864 0.66042282481224934 15.030831636643784 6.1012201713510246 4.6641024027481608
decision_type=2 2 2 2 2 2
left_child=2 5 3 4 -1 -2
right_child=1 -3 -4 -5 -6 -7
leaf_value=-0.064733695267727584 0.0047578286025809768 -0.0599074205988821 -0.088050854571544726 0.078980714126988816 0 0.10843036387961461
leaf_weight=3.6347807720303527 1.9255145695060552 3.782933769747614 27.103449419140816 1.1099225282669065 0.65829547867178906 25.59867949038744
leaf_count=137 27 112 1220 4 11 156
internal_value=0 0.0815328 -0.0771492 -0.00520845 -0.0495521 0.104511
internal_weight=0 31.3071 32.5064 5.403 4.29308 27.5242
internal_count=1667 295 1372 152 148 183
is_linear=0
shrinkage=0.1


Tree=119
num_leaves=5
num_cat=0
split_feature=6 7 1 1
split_gain=35.1256 21.75 1.78533 0.686043
threshold=20.504908470109175 15.377202708655549 17.122127366606204 19.18507267113355
decision_type=2 2 2 2
left_child=-1 2 -2 -4
right_child=1 -3 3 -5
leaf_value=-0.088065094624724283 0.11022039361308428 -0.07970572031627382 0.057163187277212126 -0.0093856113715657628
leaf_weight=26.368065055459738 26.935636058449749 7.8079755231738082 1.8584387302398675 1.6491588987410066
leaf_count=1157 156 301 11 42
internal_value=0 0.0614527 0.100877 0.00278116
internal_weight=0 38.2512 30.4432 3.5076
internal_count=1667 510 209 53
is_linear=0
shrinkage=0.1


Tree=120
num_leaves=5
num_cat=0
split_feature=7 15 12 1
split_gain=31.1486 13.7862 3.36512 0.458539
threshold=3.2730008692644934 21.564508456210806 13.622356794446679 0.045807505972513006
decision_type=2 2 2 2
left_child=1 2 -1 -2
right_child=3 -3 -4 -5
leaf_value=-0.012770362567535607 0 -0.072019866141315433 0.10515065777779389 -0.087398320997416581
leaf_weight=1.1642085965722859 0.17116360366344707 5.2100970670580855 24.601373076438904 24.030079923570156
leaf_count=46 1 241 168 1211
internal_value=0 0.0648206 0.096299 -0.0860056
internal_weight=0 30.9757 25.7656 24.2012
internal_count=1667 455 214 1212
is_linear=0
shrinkage=0.1


Tree=121
num_leaves=3
num_cat=0
split_feature=30 23
split_gain=44.9502 1.42178
threshold=150.85249834544015 9.8193633017535618
decision_type=2 2
left_child=-1 -2
right_child=1 -3
leaf_value=-0.087944650356540852 0 0.10207520848977442
leaf_weight=28.162289858795702 1.9251509495079542 23.252357542514801
leaf_count=1480 25 162
internal_value=0 0.0952296
internal_weight=0 25.1775
internal_count=1667 187
is_linear=0
shrinkage=0.1


Tree=122
num_leaves=5
num_cat=0
split_feature=0 5 0 1
split_gain=32.3873 10.4318 4.65971 3.34627
threshold=37.363485258107872 5.0987638039150012 70.280625068074926 124.90018463712055
decision_type=2 2 2 2
left_child=3 -2 -3 -1
right_child=1 2 -4 -5
leaf_value=-0.08739680696165969 0.106265178888585 -0.074436764921366277 0.076177837980543978 0.064341056029954782
leaf_weight=24.527051277458671 23.502938935533169 5.6343280095607025 2.6066447347402573 0.71244598925113578
leaf_count=1257 163 230 14 3
internal_value=0 0.0719484 -0.0154585 -0.0791037
internal_weight=0 31.7439 8.24097 25.2395
internal_count=1667 407 244 1260
is_linear=0
shrinkage=0.1


Tree=123
num_leaves=3
num_cat=0
split_feature=31 10
split_gain=39.3114 7.47803
threshold=56.080469351562236 14.28771133600778
decision_type=2 2
left_child=1 -1
right_child=-2 -3
leaf_value=0.1024832635908199 -0.087665120820793932 -0.05327840841732933
leaf_weight=24.238477244973186 26.25092491414398 2.5977031029760829
leaf_count=166 1388 113
internal_value=0 0.0837943
internal_weight=0 26.8362
internal_count=1667 279
is_linear=0
shrinkage=0.1


Tree=124
num_leaves=3
num_cat=0
split_feature=18 18
split_gain=45.0128 0.018266
threshold=28.829379818099483 139.73625394012518
decision_type=2 2
left_child=-1 -2
right_child=1 -3
leaf_value=-0.08776533431890271 0.016384733195004993 0.10270845527669614
leaf_weight=27.365743527188897 2.6916916631162193 22.28571055829525
leaf_count=1489 24 154
internal_value=0 0.0971845
internal_weight=0 24.9774
internal_count=1667 178
is_linear=0
shrinkage=0.1


Tree=125
num_leaves=3
num_cat=0
split_feature=12 31
split_gain=41.7055 4.43577
threshold=61.451475465731669 142.00278361201859
decision_type=2 2
left_child=-1 -2
right_child=1 -3
leaf_value=-0.087823379820872335 -0.031855533583380113 0.1017432113031064
leaf_weight=27.350060719996691 1.5838760640472198 23.675599649548531
leaf_count=1446 54 167
internal_value=0 0.0896465
internal_weight=0 25.2595
internal_count=1667 221
is_linear=0
shrinkage=0.1


Tree=126
num_leaves=4
num_cat=0
split_feature=31 10 7
split_gain=34.3826 11.7073 0.27214
threshold=81.427160548609592 19.190558112803178 16.57857947655955
decision_type=2 2 2
left_child=1 -1 -3
right_child=-2 2 -4
leaf_value=-0.067928599586921865 -0.087310652833100022 0.027274102538796603 0.10516555478338184
leaf_weight=4.3050530403852489 24.189751570113003 4.0235264599323299 22.744773402810097
leaf_count=210 1282 28 147
internal_value=0 0.0710564 0.0970841
internal_weight=0 31.0734 26.7683
internal_count=1667 385 175
is_linear=0
shrinkage=0.1


Tree=127
num_leaves=3
num_cat=0
split_feature=4 30
split_gain=41.4766 5.27761
threshold=57.576126922138251 58.089630387047301
decision_type=2 2
left_child=-1 -2
right_child=1 -3
leaf_value=-0.087883655586958542 -0.039944055751480655 0.1014639794658323
leaf_weight=27.430538566783071 1.8814246580004717 24.165766417980194
leaf_count=1415 82 170
internal_value=0 0.0875944
internal_weight=0 26.0472
internal_count=1667 252
is_linear=0
shrinkage=0.1


Tree=128
num_leaves=7
num_cat=0
split_feature=16 28 14 9 3 12
split_gain=33.0952 9.04741 1.73699 1.37168 0.60038 0.551718
threshold=18.699944072921369 7.1761498192165414 0.66042282481224934 15.030831636643784 4.5696865317899844 8.0535236914993913
decision_type=2 2 2 2 2 2
left_child=2 -2 3 5 -3 -1
right_child=1 4 -4 -5 -6 -7
leaf_value=0 0.10269009409253592 0 -0.087125890846374149 0.066980184894582226 -0.062834725526050475 -0.061759858247127923
leaf_weight=0.49455162137747111 23.780521448701624 0.75066522881388564 23.238840627484024 1.0961840152740476 3.3449749033898115 3.3181257788091898
leaf_count=5 160 11 1220 4 124 143
internal_value=0 0.0779049 -0.0752575 -0.000244386 -0.0431347 -0.0443762
internal_weight=0 27.8762 28.1477 4.90886 4.09564 3.81268
internal_count=1667 295 1372 152 135 148
is_linear=0
shrinkage=0.1


Tree=129
num_leaves=4
num_cat=0
split_feature=12 6 13
split_gain=29.193 16.7793 0.769558
threshold=10.334874722688994 20.504908470109175 24.080299810585881
decision_type=2 2 2
left_child=1 -1 -3
right_child=-2 2 -4
leaf_value=-0.075966176678873287 -0.087060712959202785 0.10275018864558882 0.011408894146703881
leaf_weight=6.5285158697515717 22.690795005299151 23.917028948664669 3.3997121453285208
leaf_count=318 1165 156 28
internal_value=0 0.0589791 0.0948186
internal_weight=0 33.8453 27.3167
internal_count=1667 502 184
is_linear=0
shrinkage=0.1


Tree=130
num_leaves=4
num_cat=0
split_feature=1 10 18
split_gain=25.7922 8.41798 5.84832
threshold=7.623320645983358 8.3757351981715278 0.97415737198791474
decision_type=2 2 2
left_child=1 2 -1
right_child=-2 -3 -4
leaf_value=0.10147264545810696 -0.086332555863926214 -0.064030735151888826 -0.044814197142641926
leaf_weight=21.761275045573719 20.458512712270021 3.6716751586645833 2.0948678217828265
leaf_count=169 1226 171 101
internal_value=0 0.061228 0.0846198
internal_weight=0 27.5278 23.8561
internal_count=1667 441 270
is_linear=0
shrinkage=0.1


Tree=131
num_leaves=3
num_cat=0
split_feature=30 20
split_gain=37.2125 1.31364
threshold=150.85249834544015 4.5208107075056736
decision_type=2 2
left_child=-1 -2
right_child=1 -3
leaf_value=-0.087084930830254564 0 0.098924464341533055
leaf_weight=24.135776087641716 1.8510596826672578 20.309190161526203
leaf_count=1480 27 160
internal_value=0 0.0915884
internal_weight=0 22.1602
internal_count=1667 187
is_linear=0
shrinkage=0.1


Tree=132
num_leaves=5
num_cat=0
split_feature=0 5 0 1
split_gain=26.7709 8.41042 3.81309 3.02674
threshold=37.363485258107872 5.0987638039150012 70.280625068074926 124.90018463712055
decision_type=2 2 2 2
left_child=3 -2 -3 -1
right_child=1 2 -4 -5
leaf_value=-0.086424540295416741 0.10235539080071798 -0.071437725216256701 0.07076551060445925 0.053871592477672203
leaf_weight=21.011266399174932 20.863340483978394 4.9061692245304576 2.4219323694705963 0.71727186441421409
leaf_count=1257 163 230 14 3
internal_value=0 0.0696236 -0.011853 -0.0772399
internal_weight=0 28.1914 7.3281 21.7285
internal_count=1667 407 244 1260
is_linear=0
shrinkage=0.1


Tree=133
num_leaves=3
num_cat=0
split_feature=31 10
split_gain=32.5508 6.20617
threshold=56.080469351562236 14.28771133600778
decision_type=2 2
left_child=1 -1
right_child=-2 -3
leaf_value=0.099045445208195707 -0.086768626568405283 -0.048392477029032661
leaf_weight=21.274743698537353 22.520051685161889 2.2969265244901171
leaf_count=166 1388 113
internal_value=0 0.0806062
internal_weight=0 23.5717
internal_count=1667 279
is_linear=0
shrinkage=0.1


Tree=134
num_leaves=3
num_cat=0
split_feature=18 18
split_gain=37.3315 0.011668
threshold=28.829379818099483 139.73625394012518
decision_type=2 2
left_child=-1 -2
right_child=1 -3
leaf_value=-0.086893403662839847 0.012898640093228685 0.099187585278577836
leaf_weight=23.44434355571866 2.5793342776596573 19.564144589006901
leaf_count=1489 24 154
internal_value=0 0.0933699
internal_weight=0 22.1435
internal_count=1667 178
is_linear=0
shrinkage=0.1


Tree=135
num_leaves=3
num_cat=0
split_feature=12 7
split_gain=34.2762 3.39298
threshold=61.451475465731669 41.869214370910072
decision_type=2 2
left_child=-1 -2
right_child=1 -3
leaf_value=-0.086942820040790306 -0.021145137802699998 0.096910516628755952
leaf_weight=23.426938782446086 1.3180824443697954 20.825847746804357
leaf_count=1446 47 174
internal_value=0 0.0857291
internal_weight=0 22.1439
internal_count=1667 221
is_linear=0
shrinkage=0.1


Tree=136
num_leaves=5
num_cat=0
split_feature=31 10 31 12
split_gain=28.7089 9.36856 0.615808 0.136364
threshold=78.455013776886233 20.037471336074717 81.427160548609592 18.054315857850018
decision_type=2 2 2 2
left_child=1 3 -2 -1
right_child=2 -3 -4 -5
leaf_value=-0.062509684824786457 0 0.097409710085169882 -0.08635441010588478 0
leaf_weight=3.4852915881201656 1.1388393826782728 22.742569223046303 20.746843812055886 0.34695001505315293
leaf_count=194 14 165 1282 12
internal_value=0 0.0715432 -0.0824241 -0.05686
internal_weight=0 26.5748 21.8857 3.83224
internal_count=1667 371 1296 206
is_linear=0
shrinkage=0.1


Tree=137
num_leaves=3
num_cat=0
split_feature=5 30
split_gain=34.4072 4.33684
threshold=20.757139392747483 58.089630387047301
decision_type=2 2
left_child=-1 -2
right_child=1 -3
leaf_value=-0.087043495654390068 -0.033012545358742887 0.098138140162155468
leaf_weight=23.555054642260075 1.6551750432699943 21.133404314517975
leaf_count=1396 101 170
internal_value=0 0.0844931
internal_weight=0 22.7886
internal_count=1667 271
is_linear=0
shrinkage=0.1


Tree=138
num_leaves=7
num_cat=0
split_feature=16 13 14 9 12 31
split_gain=27.0127 7.44744 1.7381 0.945057 0.48004 0.196814
threshold=18.699944072921369 5.8443875045878864 0.66042282481224934 15.030831636643784 8.0535236914993913 92.483416056650341
decision_type=2 2 2 2 2 2
left_child=2 5 3 4 -1 -2
right_child=1 -3 -4 -5 -6 -7
leaf_value=0 0 -0.052179011164078762 -0.086137523034161625 0.056464883422728457 -0.057329510307327441 0.099775614909375754
leaf_weight=0.48376745730638804 1.1378589477390111 3.0060081966221324 19.931045859120786 1.0704389810562132 2.9035791382193565 20.478280773386359
leaf_count=5 19 112 1220 4 143 164
internal_value=0 0.0746008 -0.0732644 0 -0.0387983 0.0966733
internal_weight=0 24.6221 24.3888 4.45779 3.38735 21.6161
internal_count=1667 295 1372 152 148 183
is_linear=0
shrinkage=0.1


Tree=139
num_leaves=5
num_cat=0
split_feature=6 7 1 1
split_gain=24.2168 14.7024 1.47848 0.271913
threshold=20.504908470109175 15.377202708655549 17.122127366606204 19.18507267113355
decision_type=2 2 2 2
left_child=-1 2 -2 -4
right_child=1 -3 3 -5
leaf_value=-0.086132668445075056 0.10216554804594923 -0.074900271605619725 0.040022752710307655 -0.0022795758716758091
leaf_weight=19.441773612983525 21.255775876343257 5.9152275202795854 1.4923724830150598 1.3876941688358782
leaf_count=1157 156 301 11 42
internal_value=0 0.0564649 0.0927091 0
internal_weight=0 30.0511 24.1358 2.88007
internal_count=1667 510 209 53
is_linear=0
shrinkage=0.1


Tree=140
num_leaves=4
num_cat=0
split_feature=7 15 12
split_gain=21.2592 9.45806 2.60399
threshold=3.5016451736160565 21.564508456210806 13.622356794446679
decision_type=2 2 2
left_child=1 2 -1
right_child=-2 -3 -4
leaf_value=-0.0019694613306472535 -0.085339218508835468 -0.066142913868821193 0.098184039256800359
leaf_weight=1.0065336851403177 17.55304335244 4.0645501669496289 19.017571106553078
leaf_count=51 1196 251 169
internal_value=0 0.0585628 0.0887299
internal_weight=0 24.0887 20.0241
internal_count=1667 471 220
is_linear=0
shrinkage=0.1


Tree=141
num_leaves=3
num_cat=0
split_feature=30 18
split_gain=30.7856 1.20949
threshold=150.85249834544015 1.1337540526302556
decision_type=2 2
left_child=-1 -2
right_child=1 -3
leaf_value=-0.086150963284865628 0 0.095869515053324764
leaf_weight=20.668074299581349 1.6728893816471124 17.759862840175629
leaf_count=1480 27 160
internal_value=0 0.0882709
internal_weight=0 19.4328
internal_count=1667 187
is_linear=0
shrinkage=0.1


Tree=142
num_leaves=6
num_cat=0
split_feature=0 30 30 1 0
split_gain=22.0392 6.90381 4.02837 2.74231 0.305518
threshold=37.363485258107872 50.717846350746377 80.612585721547603 124.90018463712055 54.610498126000998
decision_type=2 2 2 2 2
left_child=3 -2 -3 -1 -4
right_child=1 2 4 -5 -6
leaf_value=-0.085363796937302353 -0.057017892914053528 0.10410777569140138 -0.039117671033817643 0.044490192668581764 0
leaf_weight=17.983289052732292 2.9130024490878013 19.496581047773365 1.7966011641547077 0.7172103077173223 0.77520669251680363
leaf_count=1257 177 158 66 3 6
internal_value=0 0.0673663 0.0881911 -0.0752037 0
internal_weight=0 24.9814 22.0684 18.7005 2.57181
internal_count=1667 407 230 1260 72
is_linear=0
shrinkage=0.1


Tree=143
num_leaves=3
num_cat=0
split_feature=31 10
split_gain=26.9888 5.19372
threshold=56.080469351562236 14.28771133600778
decision_type=2 2
left_child=1 -1
right_child=-2 -3
leaf_value=0.096090413873603397 -0.085790451658217026 -0.04325048704422893
leaf_weight=18.654557086527351 19.303060414269567 2.0408849446102968
leaf_count=166 1388 113
internal_value=0 0.0777597
internal_weight=0 20.6954
internal_count=1667 279
is_linear=0
shrinkage=0.1


Tree=144
num_leaves=3
num_cat=0
split_feature=18 30
split_gain=31.049 0.367388
threshold=28.829379818099483 22.009306733024051
decision_type=2 2
left_child=-1 -2
right_child=1 -3
leaf_value=-0.085942343399458679 0.097481806325657172 0.0030329879395177362
leaf_weight=20.069159179925919 17.10340823978186 2.5138277336955062
leaf_count=1489 148 30
internal_value=0 0.090073
internal_weight=0 19.6172
internal_count=1667 178
is_linear=0
shrinkage=0.1


Tree=145
num_leaves=3
num_cat=0
split_feature=12 7
split_gain=28.1514 2.99433
threshold=61.451475465731669 41.869214370910072
decision_type=2 2
left_child=-1 -2
right_child=1 -3
leaf_value=-0.085984796527558513 -0.016832730765115878 0.093723497871828959
leaf_weight=20.053322048857808 1.2336124684661651 18.169434010982513
leaf_count=1446 47 174
internal_value=0 0.0820034
internal_weight=0 19.403
internal_count=1667 221
is_linear=0
shrinkage=0.1


Tree=146
num_leaves=4
num_cat=0
split_feature=31 10 31
split_gain=23.6898 7.66488 0.563224
threshold=78.455013776886233 19.190558112803178 81.427160548609592
decision_type=2 2 2
left_child=1 -1 -2
right_child=2 -3 -4
leaf_value=-0.058493549797056024 0 0.092657703301948335 -0.085308651544377403
leaf_weight=3.1003172136843231 1.0955360494554067 20.417291030287743 17.783821943216026
leaf_count=204 14 167 1282
internal_value=0 0.0686116 -0.0810215
internal_weight=0 23.5176 18.8794
internal_count=1667 371 1296
is_linear=0
shrinkage=0.1


Tree=147
num_leaves=3
num_cat=0
split_feature=4 30
split_gain=28.5524 3.55861
threshold=57.576126922138251 58.089630387047301
decision_type=2 2
left_child=-1 -2
right_child=1 -3
leaf_value=-0.0860791279209248 -0.025461491410091783 0.095206881291303308
leaf_weight=20.237888806499541 1.4389704493805791 18.403943940997124
leaf_count=1415 82 170
internal_value=0 0.0817991
internal_weight=0 19.8429
internal_count=1667 252
is_linear=0
shrinkage=0.1


Tree=148
num_leaves=6
num_cat=0
split_feature=1 31 9 20 3
split_gain=22.117 11.2276 1.04831 0.30997 0.0588499
threshold=26.223916763627027 90.913435695746969 0.46156598378034636 6.5008523865337269 0.9019728453254271
decision_type=2 2 2 2 2
left_child=2 3 -1 -2 -4
right_child=1 -3 4 -5 -6
leaf_value=0 -0.068667388598886714 0.099109128531043977 0 0 -0.085665431087618232
leaf_weight=0.36238343361765402 4.3747442113235619 19.51705810893327 0.44224714394659059 0.3528827279806136 17.838028377853334
leaf_count=5 257 176 22 8 1199
internal_value=0 0.0639176 -0.0802347 -0.061225 -0.0844459
internal_weight=0 24.2447 18.6427 4.72763 18.2803
internal_count=1667 441 1226 265 1221
is_linear=0
shrinkage=0.1


Tree=149
num_leaves=4
num_cat=0
split_feature=12 6 4
split_gain=20.2292 11.1229 0.62594
threshold=10.334874722688994 20.504908470109175 10.260608008984489
decision_type=2 2 2
left_child=1 -1 -3
right_child=-2 2 -4
leaf_value=-0.070212000426377694 -0.084991625990865127 0.095156828072370733 0
leaf_weight=4.8462198274210122 16.790625357069075 18.81421031057835 2.6941157244145861
leaf_count=318 1165 157 27
internal_value=0 0.0547362 0.0874227
internal_weight=0 26.3545 21.5083
internal_count=1667 502 184
is_linear=0
shrinkage=0.1


Tree=150
num_leaves=4
num_cat=0
split_feature=1 10 18
split_gain=17.4956 5.67219 3.95398
threshold=7.623320645983358 8.3757351981715278 0.97415737198791474
decision_type=2 2 2
left_child=1 2 -1
right_child=-2 -3 -4
leaf_value=0.095195053936174376 -0.084141432594441901 -0.055735089829237285 -0.031711424570315845
leaf_weight=16.534133218228824 15.106597685255108 2.8218575967475763 1.609550111927091
leaf_count=169 1226 171 101
internal_value=0 0.0560912 0.0788077
internal_weight=0 20.9655 18.1437
internal_count=1667 441 270
is_linear=0
shrinkage=0.1


Tree=151
num_leaves=3
num_cat=0
split_feature=30 27
split_gain=25.4446 1.12202
threshold=150.85249834544015 0.80978140680130062
decision_type=2 2
left_child=-1 -2
right_child=1 -3
leaf_value=-0.085120974702094801 0 0.093101827430792566
leaf_weight=17.695012903306633 1.5011232830584074 15.490702129900454
leaf_count=1480 27 160
internal_value=0 0.0851965
internal_weight=0 16.9918
internal_count=1667 187
is_linear=0
shrinkage=0.1


Tree=152
num_leaves=4
num_cat=0
split_feature=31 31 15
split_gain=18.423 12.1925 0.35071
threshold=93.154281706169527 75.444695930879348 50.29781318419419
decision_type=2 2 2
left_child=1 -1 -2
right_child=2 -3 -4
leaf_value=-0.069556373974241067 -0.083802577703986803 0.098411964933595664 0
leaf_weight=4.7792432755231884 14.139014778658744 18.964162642136216 0.28056132141500789
leaf_count=364 1102 196 5
internal_value=0 0.0605446 -0.0815365
internal_weight=0 23.7434 14.4196
internal_count=1667 560 1107
is_linear=0
shrinkage=0.1


Tree=153
num_leaves=3
num_cat=0
split_feature=31 10
split_gain=22.3266 4.36712
threshold=56.080469351562236 14.28771133600778
decision_type=2 2
left_child=1 -1
right_child=-2 -3
leaf_value=0.093402417667172208 -0.084709159646687043 -0.037812680783504415
leaf_weight=16.295675553381447 16.542846513912082 1.820159489288925
leaf_count=166 1388 113
internal_value=0 0.0750361
internal_weight=0 18.1158
internal_count=1667 279
is_linear=0
shrinkage=0.1


Tree=154
num_leaves=3
num_cat=0
split_feature=18 30
split_gain=25.6982 0.510094
threshold=28.829379818099483 22.480922295361228
decision_type=2 2
left_child=-1 -2
right_child=1 -3
leaf_value=-0.084889551926287929 0.094511667482221839 0
leaf_weight=17.171930231619626 15.125807486474516 2.1729895174503318
leaf_count=1489 150 28
internal_value=0 0.0867855
internal_weight=0 17.2988
internal_count=1667 178
is_linear=0
shrinkage=0.1


Tree=155
num_leaves=3
num_cat=0
split_feature=7 31
split_gain=23.3369 2.84799
threshold=41.869214370910072 142.00278361201859
decision_type=2 2
left_child=-1 -2
right_child=1 -3
leaf_value=-0.08504004990357307 -0.015172340570890073 0.092474689703779062
leaf_weight=17.23646895121783 1.2245298577472592 15.641434010118244
leaf_count=1401 98 168
internal_value=0 0.0792993
internal_weight=0 16.866
internal_count=1667 266
is_linear=0
shrinkage=0.1


Tree=156
num_leaves=5
num_cat=0
split_feature=31 10 31 12
split_gain=19.594 6.3439 0.519472 0.0963892
threshold=78.455013776886233 20.037471336074717 81.427160548609592 18.413568888134137
decision_type=2 2 2 2
left_child=1 3 -2 -1
right_child=2 -3 -4 -5
leaf_value=-0.054180344314675472 0 0.090310515670003838 -0.084146106062490969 0
leaf_weight=2.6943326704204114 1.0459600482136036 17.912919349968433 15.238409784156827 0.27398167923092831
leaf_count=195 14 165 1282 11
internal_value=0 0.0659973 -0.0794743 -0.0487589
internal_weight=0 20.8812 16.2844 2.96831
internal_count=1667 371 1296 206
is_linear=0
shrinkage=0.1


Tree=157
num_leaves=3
num_cat=0
split_feature=5 30
split_gain=23.6744 2.9474
threshold=20.757139392747483 58.089630387047301
decision_type=2 2
left_child=-1 -2
right_child=1 -3
leaf_value=-0.085071990536880956 -0.017140174351448861 0.092549518521205548
leaf_weight=17.379843954462558 1.2641501417383576 15.978326506912707
leaf_count=1396 101 170
internal_value=0 0.0792434
internal_weight=0 17.2425
internal_count=1667 271
is_linear=0
shrinkage=0.1


Tree=158
num_leaves=6
num_cat=0
split_feature=16 28 14 1 3
split_gain=18.0905 5.14534 1.64095 0.354238 0.291311
threshold=18.699944072921369 7.1761498192165414 0.66042282481224934 22.173084461200588 4.5696865317899844
decision_type=2 2 2 2 2
left_child=2 -2 3 -1 -3
right_child=1 4 -4 -5 -6
leaf_value=-0.036515417435352235 0.092710004502418411 0 -0.083911379891170146 0.021076295742333533 -0.048889728766670713
leaf_weight=1.7814804203808337 16.152444981038574 0.5459444429725403 14.736487911082802 1.8267838433384893 2.2932703653350472
leaf_count=135 160 11 1220 17 124
internal_value=0 0.0692913 -0.0691828 0 -0.0316597
internal_weight=0 18.9917 18.3448 3.60826 2.83921
internal_count=1667 295 1372 152 135
is_linear=0
shrinkage=0.1


Tree=159
num_leaves=5
num_cat=0
split_feature=12 0 1 7
split_gain=16.748 9.33327 0.52831 0.288116
threshold=10.334874722688994 18.841228303603941 15.041308326913802 11.055974798959554
decision_type=2 2 2 2
left_child=1 3 -3 -1
right_child=-2 2 -4 -5
leaf_value=0.095331749470505933 -0.083762090276880252 0 -0.066247191481649287 0
leaf_weight=16.01111654937268 14.384176111780105 1.3339387401938427 4.2032270561903715 1.7748469291254867
leaf_count=152 1165 43 274 33
internal_value=0 0.0526297 -0.0494715 0.0896166
internal_weight=0 23.3231 5.53717 17.786
internal_count=1667 502 317 185
is_linear=0
shrinkage=0.1


Tree=160
num_leaves=4
num_cat=0
split_feature=7 15 12
split_gain=14.3351 6.33664 1.96781
threshold=3.5016451736160565 21.564508456210806 13.622356794446679
decision_type=2 2 2
left_child=1 2 -1
right_child=-2 -3 -4
leaf_value=0 -0.082903522765102627 -0.058392375767624807 0.092465151310237137
leaf_weight=0.83248007530347123 12.973810770548878 3.1010792013257733 14.373716384172438
leaf_count=51 1196 251 169
internal_value=0 0.0534197 0.0825259
internal_weight=0 18.3073 15.2062
internal_count=1667 471 220
is_linear=0
shrinkage=0.1


Tree=161
num_leaves=3
num_cat=0
split_feature=30 28
split_gain=21.0494 1.0233
threshold=150.85249834544015 4.8649415916650467
decision_type=2 2
left_child=-1 -2
right_child=1 -3
leaf_value=-0.083981274304157222 0 0.090557712339443264
leaf_weight=15.161410407163205 1.3601909391582001 13.504345178604124
leaf_count=1480 27 160
internal_value=0 0.0823467
internal_weight=0 14.8645
internal_count=1667 187
is_linear=0
shrinkage=0.1


Tree=162
num_leaves=4
num_cat=0
split_feature=31 31 0
split_gain=15.2677 9.9946 0.350547
threshold=93.154281706169527 75.444695930879348 50.071242813368002
decision_type=2 2 2
left_child=1 -1 -2
right_child=2 -3 -4
leaf_value=-0.066206464343985236 -0.082440184493030866 0.094832223230297774 0
leaf_weight=4.1432252852246192 12.167143582366403 16.887448841705918 0.22867736406624395
