tree
version=v4
num_class=10
num_tree_per_iteration=10
label_index=0
max_feature_idx=175
objective=multiclass num_class:10
feature_names=right_hand_angle_1 right_hand_angle_2 right_hand_angle_3 right_hand_angle_4 right_hand_angle_5 right_hand_angle_6 right_hand_angle_7 right_hand_angle_8 right_hand_angle_9 right_hand_angle_10 right_hand_angle_11 right_hand_angle_12 right_hand_angle_13 right_hand_angle_14 right_hand_angle_15 right_hand_coord_1_x right_hand_coord_1_y right_hand_coord_1_z right_hand_coord_2_x right_hand_coord_2_y right_hand_coord_2_z right_hand_coord_3_x right_hand_coord_3_y right_hand_coord_3_z right_hand_coord_4_x right_hand_coord_4_y right_hand_coord_4_z right_hand_coord_5_x right_hand_coord_5_y right_hand_coord_5_z right_hand_coord_6_x right_hand_coord_6_y right_hand_coord_6_z right_hand_coord_7_x right_hand_coord_7_y right_hand_coord_7_z right_hand_coord_8_x right_hand_coord_8_y right_hand_coord_8_z right_hand_coord_9_x right_hand_coord_9_y right_hand_coord_9_z right_hand_coord_10_x right_hand_coord_10_y right_hand_coord_10_z right_hand_coord_11_x right_hand_coord_11_y right_hand_coord_11_z right_hand_coord_12_x right_hand_coord_12_y right_hand_coord_12_z right_hand_coord_13_x right_hand_coord_13_y right_hand_coord_13_z right_hand_coord_14_x right_hand_coord_14_y right_hand_coord_14_z right_hand_coord_15_x right_hand_coord_15_y right_hand_coord_15_z right_hand_coord_16_x right_hand_coord_16_y right_hand_coord_16_z right_hand_coord_17_x right_hand_coord_17_y right_hand_coord_17_z right_hand_coord_18_x right_hand_coord_18_y right_hand_coord_18_z right_hand_coord_19_x right_hand_coord_19_y right_hand_coord_19_z right_hand_coord_20_x right_hand_coord_20_y right_hand_coord_20_z right_hand_coord_21_x right_hand_coord_21_y right_hand_coord_21_z left_hand_angle_1 left_hand_angle_2 left_hand_angle_3 left_hand_angle_4 left_hand_angle_5 left_hand_angle_6 left_hand_angle_7 left_hand_angle_8 left_hand_angle_9 left_hand_angle_10 left_hand_angle_11 left_hand_angle_12 left_hand_angle_13 left_hand_angle_14 left_hand_angle_15 left_hand_coord_1_x left_hand_coord_1_y left_hand_coord_1_z left_hand_coord_2_x left_hand_coord_2_y left_hand_coord_2_z left_hand_coord_3_x left_hand_coord_3_y left_hand_coord_3_z left_hand_coord_4_x left_hand_coord_4_y left_hand_coord_4_z left_hand_coord_5_x left_hand_coord_5_y left_hand_coord_5_z left_hand_coord_6_x left_hand_coord_6_y left_hand_coord_6_z left_hand_coord_7_x left_hand_coord_7_y left_hand_coord_7_z left_hand_coord_8_x left_hand_coord_8_y left_hand_coord_8_z left_hand_coord_9_x left_hand_coord_9_y left_hand_coord_9_z left_hand_coord_10_x left_hand_coord_10_y left_hand_coord_10_z left_hand_coord_11_x left_hand_coord_11_y left_hand_coord_11_z left_hand_coord_12_x left_hand_coord_12_y left_hand_coord_12_z left_hand_coord_13_x left_hand_coord_13_y left_hand_coord_13_z left_hand_coord_14_x left_hand_coord_14_y left_hand_coord_14_z left_hand_coord_15_x left_hand_coord_15_y left_hand_coord_15_z left_hand_coord_16_x left_hand_coord_16_y left_hand_coord_16_z left_hand_coord_17_x left_hand_coord_17_y left_hand_coord_17_z left_hand_coord_18_x left_hand_coord_18_y left_hand_coord_18_z left_hand_coord_19_x left_hand_coord_19_y left_hand_coord_19_z left_hand_coord_20_x left_hand_coord_20_y left_hand_coord_20_z left_hand_coord_21_x left_hand_coord_21_y left_hand_coord_21_z arm_1 arm_2 pose_11_x pose_11_y pose_11_z pose_13_x pose_13_y pose_13_z pose_15_x pose_15_y pose_15_z pose_12_x pose_12_y pose_12_z pose_14_x pose_14_y pose_14_z pose_16_x pose_16_y pose_16_z
feature_infos=[0:88.71901638273836] [0:56.990973481165121] [0:62.548149001604308] [0:179.96748979605553] [0:112.96425020820963] [0:176.63780136526927] [0:179.89537451247324] [0:179.55758291919585] [0:153.72049297258789] [0:167.51870334249102] [0:144.63738565691304] [0:131.15942503287414] [0:150.82025441847657] [0:70.282751140975321] [0:91.406978530895685] [0:2549.8422918319702] [0:2696.0750312805176] [-4.729702993699903e-07:7.1506099175167037e-07] [0:2437.6855459213257] [0:2732.6548004150391] [-0.073633946478366796:0.016665749251842499] [0:2496.0218410491943] [0:2798.3272247314453] [-0.1159236058592796:0.0156329162418842] [0:2566.8757524490361] [0:2841.502498626709] [-0.14379413425922391:0.0077712605707347003] [0:2625.7846841812134] [0:2852.4616012573242] [-0.1731607168912887:0] [0:2608.1809301376343] [0:2853.3536911010742] [-0.1205585151910781:0.0083925779908895007] [0:2542.5088663101201] [0:2916.0290107727051] [-0.1629186123609542:0] [0:2463.0138559341431] [0:2963.1040534973145] [-0.19270458817481989:0] [0:2427.7281217575078] [0:3007.1113357543945] [-0.2126403599977493:0] [0:2611.2814950942998] [0:2827.866886138916] [-0.0968231111764907:0] [0:2527.3476047515869] [0:2898.6344604492188] [-0.14147007465362549:0] [0:2444.4618358612061] [0:2947.6840209960938] [-0.1733662784099578:0] [0:2412.2249364852905] [0:2996.9227180480962] [-0.1959295719861984:0] [0:2594.099513053894] [0:2796.7014198303223] [-0.076600611209869301:0] [0:2538.4587736129761] [0:2852.2354545593262] [-0.1109337136149406:0] [0:2496.920539855957] [0:2904.3381156921387] [-0.13481453061103821:0] [0:2447.2448101043701] [0:2943.9818000793457] [-0.1516259014606475:0] [0:2564.0338382720947] [0:2775.5702819824219] [-0.072029754519462502:0] [0:2562.947865486145] [0:2807.9121437072754] [-0.098537206649780204:0] [0:2537.511589050293] [0:2843.5270042419438] [-0.1158637925982475:0] [0:2503.2153968811035] [0:2877.093807220459] [-0.128646120429039:0] [0:160.59883081845351] [0:146.54463861204127] [0:112.37723477729402] [0:131.9631886273371] [0:136.62288915297898] [0:87.049658205857369] [0:176.97972337254109] [0:179.82415438112116] [0:37.182613771976882] [0:142.00534776809914] [0:178.6840387025882] [0:58.838382249743681] [0:160.71178600531479] [0:128.64408780059472] [0:105.88207544139712] [0:1721.9698190689087] [0:2738.9905128479004] [-2.3772365409513441e-07:6.089421731303446e-07] [0:1783.6729001998899] [0:2789.252758026123] [-0.068978928029537201:0.051272492855787201] [0:1840.6611471176147] [0:2850.2474784851074] [-0.1066206023097038:0.086745835840702001] [0:1909.3496017456052] [0:2903.7211990356445] [-0.13036607205867759:0.1142357736825943] [0:1988.0369367599487] [0:2932.1981391906738] [-0.1545231342315673:0.14229519665241239] [0:1826.4335517883301] [0:2939.7604751586914] [-0.1240237206220626:0.079590477049350697] [0:1957.645199775696] [0:3024.1107902526851] [-0.1737616211175918:0.1057686805725097] [0:2034.011707305908] [0:3045.1936225891118] [-0.2014327645301818:0.1243477389216423] [0:2091.1026935577397] [0:3059.5228157043457] [-0.2180418372154235:0.13800612092018119] [0:1818.6911516189573] [0:2944.5722808837891] [-0.12061864137649531:0.066598795354366302] [0:1963.9524936676023] [0:3043.7968482971191] [-0.17291364073753351:0.090985447168350206] [0:2048.8640298843384] [0:3084.4280319213867] [-0.1953151673078537:0.1094950884580612] [0:2110.2511425018311] [0:3102.902366638184] [-0.21363116800785059:0.1252981424331665] [0:1825.7625017166135] [0:2925.6853065490723] [-0.11479303240776061:0.054755415767431197] [0:1931.8760118484497] [0:3011.7027626037602] [-0.16203637421131131:0.073695167899131706] [0:2012.3070316314695] [0:3058.4646606445312] [-0.18158167600631711:0.087569795548915794] [0:2070.09213924408] [0:3085.2783050537109] [-0.1941494345664978:0.098959378898143699] [0:1851.1791315078733] [0:2885.8976669311523] [-0.10620890557765961:0.046661023050546598] [0:1892.4893560409544] [0:2936.600910186768] [-0.14187613129615781:0.063169911503791795] [0:1932.3031911849976] [0:2960.9980773925781] [-0.1596203744411468:0.074471116065979004] [0:1982.1770095825195] [0:2974.142944335937] [-0.1737300306558609:0.0842436403036117] [0.465702641679407:179.05252071635169] [0.85518754786191087:177.30366194700656] [0.4753168523311615:0.90645611286163319] [0.205994427204132:0.63083779811859131] [-0.52817445993423462:0.060555655509233398] [0.52096658945083618:0.97303271293640137] [0.3701032400131225:0.78796005249023438] [-1.0085543394088743:0.26691430807113647] [0.4565870463848114:0.87279951572418213] [0.42896431684494019:0.77820503711700439] [-1.4630178213119509:0.31160947680473328] [0.1553370654582977:0.60954838991165161] [0.21428248286247251:0.63290059566497803] [-0.62263703346252441:0.0452985242009162] [0.030294716358184801:0.53927707672119141] [0.40552783012390131:0.77161061763763428] [-0.83332163095474243:0.051551353186368901] [0.14085233211517331:0.55101680755615234] [0.43928626179695129:0.67231839895248413] [-1.4368314743041992:-0.089767292141914298]
tree_sizes=844 454 549 353 346 451 653 453 550 650 737 435 455 351 343 538 635 449 553 652 554 349 456 351 344 537 634 450 556 756 555 348 550 438 343 539 637 449 533 765 556 348 557 350 343 451 534 450 450 758 553 348 552 351 343 451 625 443 449 753 554 350 558 440 342 452 640 449 539 659 550 348 558 351 344 452 641 447 540 763 539 349 558 437 344 451 713 449 540 560 539 349 559 351 343 452 630 448 540 724 540 349 561 439 345 432 633 447 541 727 630 350 458 352 345 434 535 451 537 624 539 351 622 439 343 452 536 450 538 629 536 350 457 349 346 453 538 451 542 628 543 351 625 439 345 451 539 450 543 631 537 352 457 353 346 435 634 452 524 456 536 350 627 350 346 434 536 451 522 457 541 352 456 349 346 436 538 432 521 456 543 351 542 443 346 523 714 433 518 454 534 350 458 349 344 433 540 432 523 456 542 352 631 348 345 438 708 431 519 456 539 350 456 440 346 520 620 428 519 456 538 350 612 352 346 434 709 434 520 457 539 352 439 349 346 435 531 431 522 544 525 350 528 349 345 521 710 432 517 457 521 350 441 441 345 435 533 433 609 545 520 438 615 350 346 434 610 432 521 527 527 350 441 349 345 524 609 430 522 438 522 350 616 353 346 436 535 434 525 529 520 352 530 441 346 436 612 435 522 435 523 352 529 439 347 435 435 433 520 433 528 438 615 350 347 524 611 433 524 438 522 348 531 350 346 435 613 435 435 435 523 351 618 443 347 438 436 435 432 435 528 351 444 354 346 527 612 436 522 526 528 353 529 443 345 437 705 435 437 531 517 439 435 350 347 436 613 438 521 434 522 353 519 442 347 438 704 437 528 437 522 351 608 351 348 437 439 439 438 437 521 354 522 350 347 439 709 438 517 533 522 353 436 441 348 438 622 439 514 440 519 353 522 350 349 436 710 438 519 534 524 356 521 446 350 440 709 429 520 437 526 355 419 353 350 442 709 430 524 436 436 357 419 447 351 445 537 433 432 525 526 357 420 352 351 440 446 434 525 435 520 444 420 352 350 434 524 432 524 526 436 357 422 353 351 435 425 432 334 436 525 357 422 353 352 435 424 433 223 435 529 358 420 352 352 436 427 431 223 437 337 337 422 354 331 437 426 433 223 528 337 335 223 354 332 436 428 433 223 524 339 337 420 437 329 223 223 436 223 340 223 338 223 334 332 223 337 436 223 337 223 338 223 437 328 223 337 436 223 338 223 338 223 335 330 223 337 434 223 340 223 338 223 439 332 223 337 438 223 223 223 337 223 335 330 223 337 438 223 223 223 338 223 438 331 223 337 438 223 223 223 338 223 335 332 223 336 223 223 223 223 337 223 441 332 223 337 223 223 223 223 337 223 335 330 223 337 223 223 223 223 337 223 441 332 223 337 223 223 223 223 337 223 442 332 223 337 223 223 223 223 338 223 335 332 223 337 223 223 223 223 339 223 440 333 223 337 223 223 223 223 339 223 334 333 223 336 223 223 223 223 339 223 439 332 223 337 223 223 223 223 339 223 334 333 223 337 223 223 223 223 338 223 441 332 223 336 223 223 223 223 339 223 335 334 223 337 223 223 223 223 339 223 339 334 223 337 223 223 223 223 338 223 440 332 223 337 223 223 223 223 336 223 339 334 223 337 223 223 223 223 339 223 443 333 223 336 223 223 223 223 339 223 338 332 223 337 223 223 223 223 339 223 336 332 223 337 223 223 223 223 339 223 442 333 223 337 223 223 223 223 339 223 338 333 223 337 223 223 223 223 336 223 336 334 223 337 223 223 223 223 339 223 338 333 223 335 223 223 223 223 338 223 442 334 223 335 223 223 223 223 338 223 339 334 223 337 223 223 223 223 339 223 443 333 223 336 223 223 223 223 338 223 339 332 223 337 223 223 223 223 338 223 336 334 223 336 223 223 223 223 339 223 340 333 223 337 223 223 223 223 339 223 443 334 223 337 223 223 223 223 339 223 335 334 223 337 223 223 223 223 338 223 340 333 223 336 223 223 223 223 338 223 443 333 223 337 223 223 223 223 338 223 340 334 223 337 223 223 223 223 338 223 337 334 223 337 223 223 223 223 339 223 340 334 223 337 223 223 223 223 339 223 442 334 223 337 223 223 223 223 338 223 340 334 223 337 223 223 223 223 339 223 446 333 223 336 223 223 223 223 339 223 337 334 223 337 223 223 223 223 339 223 339 334 223 336 223 223 223 223 338 223 339 334 223 337 223 223 223 224 340 224 446 335 224 338 224 224 224 224 340 224 338 334 224 338 224 224 224 224 340 224 340 335 224 338 224 224 224 224 339 224 337 335 224 338 224 224 224 224 340 224 341 335 224 338 224 224 224 224 340 224 446 335 224 338 224 224 224 224 340 224 338 334 224 337 224 224 224 224 339 224 340 335 224 336 224 224 224 224 340 224 337 335 224 337 224 224 224 224 340 224 446 334 224 338 224 224 224 224 340 224 341 334 224 338 224 224 224 224 340 224 337 334 224 338 224 224 224 224 340 224 341 334 224 338 224 224 224 224 340 224 337 335 224 338 224 224 224 224 340 224 337 335 224 338 224 224 224 224 340 224 447 334 224 338 224 224 224 224 338 224 340 335 224 338 224 224 224 224 339 224 338 335 224 336 224 224 224 224 339 224 341 335 224 338 224 224 224 224 340 224 338 335 224 338 224 224 224 224 340 224 341 334 224 338 224 224 224 224 340 224 446 335 224 338 224 224 224 224 339 224 337 335 224 337 224 224 224 224 340 224 341 335 224 338 224 224 224 224 340 224 338 334 224 338 224 224 224 224 339 224 341 335 224 338 224 224 224 224 339 224 338 334 224 337 224 224 224 224 339 224 338 335 224 337 224 224 224 224 339 224 446 335 224 336 224 224 224 224 340 224 341 335 224 338 224 224 224 224 338 224 337 335 224 338 224 224 224 224 340 224 341 335 224 338 224 224 224 224 339 224 337 334 224 338 224 224 224 224 339 224 340 335 224 337 224 224 224 224 340 224 338 334 224 337 224 224 224 224 340 224 336 335 224 338 224 224 224 224 339 224 341 335 224 338 224 224 224 224 340 224 446 335 224 338 224 224 224 224 340 224 338 335 224 337 224 224 224 224 340 224 341 334 224 337 224 224 224 224 338 224 338 334 224 338 224 224 224 224 340 224 338 335 224 337 224 224 224 224 339 224 340 335 224 337 224 224 224 224 340 224 341 333 224 338 224 224 224 224 340 224 338 334 224 338 224 224 224 224 340 224 337 335 224 336 224 224 224 224 340 224 341 335 224 337 224 224 224 224 340 224 337 334 224 338 224 224 224 224 340 224 337 333 224 337 224 224 224 224 338 224 341 335 224 337 224 224 224 224 340 224 338 335 224 337 224 224 224 224 339 224 338 335 224 338 224 224 224 224 340 224 339 335 224 337 224 224 224 224 340 224 445 335 224 337 224 224 224 224 339 224 337 224 224 338 224 224 224 224 340 224 341 224 224 338 224 224 224 224 340 224 338 224 224 338 224 224 224 224 340 224 341 224 224 336 224 224 224 224 340 224 335 224 224 336 224 224 224 224 340 224 338 224 224 338 224 224 224 224 339 224 341 224 224 338 224 224 224 224 340 224 338 224 224 338 224 224 224 224 340 224 337 224 224 338 224 224 224 224 340 224 340 224 224 338 224 224 224 224 338 224 338 224 224 337 224 224 224 224 340 224 337 224 224 338 224 224 224 224 340 224 341 224 224 338 224 224 224 224 339 224 338 224 224 338 224 224 224 224 339 224 337 224 224 337 224 224 224 224 340 224 340 224 224 338 224 224 224 224 339 224 337 224 224 338 224 224 224 224 340 224 336 224 224 338 224 224 224 224 340 224 341 224 224 338 224 224 224 224 339 224 341 224 224 338 224 224 224 224 340 224 338 224 224 337 224 224 224 224 340 224 338 224 224 337 224 224 224 224 340 224 341 224 224 338 224 224 224 224 340 224 338 224 224 338 224 224 224 224 340 224 338 224 224 338 224 224 224 224 340 224 340 224 224 337 224 224 224 224 339 224 337 224 224 338 224 224 224 224 340 224 338 224 224 338 224 224 224 224 340 224 341 224 224 338 224 224 224 224 340 224 338 224 224 338 224 224 224 224 339 224 338 224 224 338 224 224 224 224 339 224 340 224 224 337 224 224 224 224 340 224 340 224 224 337 224 224 224 224 339 224 338 224 224 338 224 224 224 224 340 224 338 224 224 337 224 224 224 224 340 224 340 224 224 338 224 224 224 224 340 224 337 224 224 338 224 224 224 224 340 224 338 224 224 338 224 224 224 224 340 224 341 224 224 338 224 224 224 224 340 224 338 224 224 338 224 224 224 224 340 224 338 224 224 335 224 224 224 224 339 224 341 224 224 338 224 224 224 224 338 224 338 224 224 338 224 224 224 224 338 224 339 224 224 338 224 224 224 224 340 224 338 224 224 337 224 224 224 224 340 224 340 224 224 337 224 224 224

Tree=0
num_leaves=7
num_cat=0
split_feature=168 89 90 79 84 81
split_gain=540.937 417.715 36.6467 11.0903 11.8627 1.13633
threshold=0.3186610639095307 4.7712846747072222 14.651954929157588 1.3035613627305984 6.4601016026785327 12.12176355330975
decision_type=2 2 2 2 2 2
left_child=1 2 -1 4 -2 -3
right_child=3 5 -4 -5 -6 -7
leaf_value=-2.0064639621984708 -2.0509247196349238 -2.3615563173549825 -1.4367388081877694 -2.3744936304974145 -2.3408101893523847 -2.2752063943505836
leaf_weight=2.0491744577884701 2.0491744577884665 7.684404216706751 12.295046746730803 107.47920031100512 2.9713029637932777 2.0491744577884674
leaf_count=20 20 75 120 1049 29 20
internal_value=-2.27521 -1.84705 -1.50713 -2.36744 -2.23567 -2.3443
internal_weight=0 24.0778 14.3442 112.5 5.02048 9.73358
internal_count=1333 235 140 1098 49 95
is_linear=0
shrinkage=1


Tree=1
num_leaves=3
num_cat=0
split_feature=168 21
split_gain=1152.62 0.0812554
threshold=0.55242741107940685 2229.7808775901799
decision_type=2 2
left_child=1 -1
right_child=-2 -3
leaf_value=-2.4573297510016601 -1.4299627049048742 -2.3589054132272307
leaf_weight=112.97736668586731 11.887349188327788 1.9019758701324452
leaf_count=1188 125 20
internal_value=-2.35891 -2.45648
internal_weight=0 114.879
internal_count=1333 1208
is_linear=0
shrinkage=1


Tree=2
num_leaves=4
num_cat=0
split_feature=78 28 79
split_gain=1002.07 48.962 9.19725
threshold=65.480126789306553 2402.282592773438 60.935188466614918
decision_type=2 2 2
left_child=1 2 -1
right_child=-2 -3 -4
leaf_value=-2.4340586069367403 -1.4300736203108504 -1.9542866202572891 -2.2510252459386022
leaf_weight=114.40859977900982 10.974678926169871 1.9424210488796223 2.1366631537675849
leaf_count=1178 113 20 22
internal_value=-2.33537 -2.42061 -2.42979
internal_weight=0 118.488 116.545
internal_count=1333 1220 1200
is_linear=0
shrinkage=1


Tree=3
num_leaves=2
num_cat=0
split_feature=107
split_gain=1154.92
threshold=0.0048663051566108506
decision_type=2
left_child=-1
right_child=-2
leaf_value=-2.4264448140806674 -1.4335957616684745
leaf_weight=117.54675367474556 12.810835883021353
leaf_count=1202 131
internal_value=-2.32765
internal_weight=0
internal_count=1333
is_linear=0
shrinkage=1


Tree=4
num_leaves=2
num_cat=0
split_feature=3
split_gain=1165.03
threshold=107.170145622899
decision_type=2
left_child=-1
right_child=-2
leaf_value=-2.4188711094095496 -1.4250425819387365
leaf_weight=118.35249777138233 12.898649923503397
leaf_count=1202 131
internal_value=-2.31999
internal_weight=0
internal_count=1333
is_linear=0
shrinkage=1


Tree=5
num_leaves=3
num_cat=0
split_feature=90 98
split_gain=949.169 205.833
threshold=65.034286652720525 -0.014549671672284549
decision_type=2 2
left_child=-1 -2
right_child=1 -3
leaf_value=-2.3882869365453567 -2.3511672829727024 -1.420715060330771
leaf_weight=118.62761516869068 2.6294271051883724 13.551662772893904
leaf_count=1173 26 134
internal_value=-2.28991 -1.57631
internal_weight=0 16.1811
internal_count=1333 160
is_linear=0
shrinkage=1


Tree=6
num_leaves=5
num_cat=0
split_feature=81 85 170 83
split_gain=526.012 523.457 1.82831 1.04874
threshold=38.783460209710661 139.31295556493941 0.46148350834846502 0.98452250392590823
decision_type=2 2 2 2
left_child=1 2 3 -1
right_child=-2 -3 -4 -5
leaf_value=-2.3589054132272307 -1.4809425794671642 -1.4733207115905369 -2.3589054132272307 -2.4563982270646205
leaf_weight=2.8529638051986685 6.2765203714370719 5.5157300233840934 1.9970746636390675 110.12440288066864
leaf_count=30 66 58 21 1158
internal_value=-2.35891 -2.40602 -2.45301 -2.45468
internal_weight=0 120.49 114.974 112.977
internal_count=1333 1267 1209 1188
is_linear=0
shrinkage=1


Tree=7
num_leaves=3
num_cat=0
split_feature=82 110
split_gain=753.072 405.335
threshold=59.919894586377751 -0.019868467003106998
decision_type=2 2
left_child=-1 -2
right_child=1 -3
leaf_value=-2.3177036340093387 -2.3043621153746763 -1.4073350380572687
leaf_weight=120.96546301245689 7.1092792153358486 15.511154651641844
leaf_count=1123 66 144
internal_value=-2.21845 -1.69148
internal_weight=0 22.6204
internal_count=1333 210
is_linear=0
shrinkage=1


Tree=8
num_leaves=4
num_cat=0
split_feature=1 9 87
split_gain=902.767 244.527 0.803975
threshold=26.007899249772819 12.005468945179915 0.52893217305204676
decision_type=2 2 2
left_child=2 -2 -1
right_child=1 -3 -4
leaf_value=-2.2610688510802399 -2.3239098823620319 -1.4145039085274007 -2.3531767100552634
leaf_weight=3.1331913918256751 3.4465105310082462 14.412680402398108 118.22575518488884
leaf_count=30 33 138 1132
internal_value=-2.25354 -1.59382 -2.35156
internal_weight=0 17.8592 121.359
internal_count=1333 171 1162
is_linear=0
shrinkage=1


Tree=9
num_leaves=5
num_cat=0
split_feature=122 94 165 79
split_gain=946.251 132.826 8.38 9.00111
threshold=-0.074980866163968943 2190.3604259490971 0.49608178436756134 3.6503396284538225
decision_type=2 2 2 2
left_child=1 -1 3 -2
right_child=2 -3 -4 -5
leaf_value=-1.4231379815980918 -2.11224623562281 -2.2973475202277975 -2.3964436762693739 -2.3651909655682619
leaf_weight=12.558309361338614 2.0093294978141776 2.0093294978141776 114.12991547584534 3.2149271965026855
leaf_count=125 20 20 1136 32
internal_value=-2.29735 -1.54216 -2.39063 -2.28126
internal_weight=0 14.5676 119.354 5.22426
internal_count=1333 145 1188 52
is_linear=0
shrinkage=1


Tree=10
num_leaves=6
num_cat=0
split_feature=168 79 101 79 141
split_gain=311.889 140.968 31.563 10.356 10.485
threshold=0.3186610639095307 8.1882960904622717 -0.019489953294396348 1.3035613627305984 1303.4138724803927
decision_type=2 2 2 2 2
left_child=1 2 -1 4 -2
right_child=3 -3 -4 -5 -6
leaf_value=0 -0.065806684864076814 -0.086860176557847335 0.40766365734245086 -0.097553695257240891 0.20132628458995666
leaf_weight=2.3467272892594329 2.9642626345157614 8.433748431503771 23.75670459121466 93.821417935192585 2.2088763639330864
leaf_count=19 29 90 126 1049 20
internal_value=0 0.258498 0.373314 -0.0896763 0.0347545
internal_weight=0 34.5372 26.1034 98.9946 5.17314
internal_count=1333 235 145 1098 49
is_linear=0
shrinkage=0.1


Tree=11
num_leaves=3
num_cat=0
split_feature=168 168
split_gain=468.919 0.315076
threshold=0.55242741107940685 0.51349836587905895
decision_type=2 2
left_child=1 -1
right_child=-2 -3
leaf_value=-0.09689494349578498 0.39222820506970374 0
leaf_weight=98.883068211376667 24.254042968153954 1.6767931357026089
leaf_count=1188 125 20
internal_value=0 -0.0959225
internal_weight=0 100.56
internal_count=1333 1208
is_linear=0
shrinkage=0.1


Tree=12
num_leaves=3
num_cat=0
split_feature=29 98
split_gain=424.987 49.0948
threshold=-0.067467465996742179 -0.032569937407970394
decision_type=2 2
left_child=-1 -2
right_child=1 -3
leaf_value=0.40429152442335803 0.2382715830379262 -0.097180789365939338
leaf_weight=21.413609810173512 4.2281093895435324 101.09531410783529
leaf_count=114 34 1185
internal_value=0 -0.0824354
internal_weight=0 105.323
internal_count=1333 1219
is_linear=0
shrinkage=0.1


Tree=13
num_leaves=2
num_cat=0
split_feature=107
split_gain=485.418
threshold=0.0048663051566108506
decision_type=2
left_child=-1
right_child=-2
leaf_value=-0.097194162134079887 0.38959057468716107
leaf_weight=102.74585557729006 25.374252155423164
leaf_count=1202 131
internal_value=0
internal_weight=0
internal_count=1333
is_linear=0
shrinkage=0.1


Tree=14
num_leaves=2
num_cat=0
split_feature=3
split_gain=491.836
threshold=107.170145622899
decision_type=2
left_child=-1
right_child=-2
leaf_value=-0.09727397799682394 0.39175385495060633
leaf_weight=103.49584326148033 25.454155638813972
leaf_count=1202 131
internal_value=0
internal_weight=0
internal_count=1333
is_linear=0
shrinkage=0.1


Tree=15
num_leaves=4
num_cat=0
split_feature=90 98 136
split_gain=444.797 50.1203 0.19656
threshold=65.034286652720525 -0.014549671672284549 1708.2272014617922
decision_type=2 2 2
left_child=2 -2 -1
right_child=1 -3 -4
leaf_value=0 -0.056370069300756921 0.38748925123179123 -0.097532430730103384
leaf_weight=1.7897271811962117 2.3780703321099308 26.247143983840942 101.97683932632208
leaf_count=20 26 134 1153
internal_value=0 0.347358 -0.0965915
internal_weight=0 28.6252 103.767
internal_count=1333 160 1173
is_linear=0
shrinkage=0.1


Tree=16
num_leaves=5
num_cat=0
split_feature=157 88 85 165
split_gain=267.07 209.268 1.50028 0.140727
threshold=80.652825317390921 19.232298272530603 16.256554514372137 0.59355682134628307
decision_type=2 2 2 2
left_child=1 3 -3 -1
right_child=-2 2 -4 -5
leaf_value=-0.089135136569799725 -0.09684084278807098 0.1960893089232138 0.41631829828583539 0
leaf_weight=12.158433638513086 86.383721202611923 2.5238868892192867 21.521995685994625 1.6684142351150502
leaf_count=146 1032 19 116 20
internal_value=0 0.220952 0.398723 -0.0830646
internal_weight=0 37.8727 24.0459 13.8268
internal_count=1333 301 135 166
is_linear=0
shrinkage=0.1


Tree=17
num_leaves=3
num_cat=0
split_feature=82 109
split_gain=405.326 124.34
threshold=51.334496830203392 2234.4889526367192
decision_type=2 2
left_child=-1 -2
right_child=1 -3
leaf_value=-0.098254781404891633 0.38280692217352746 -0.083469289753435941
leaf_weight=105.32360193133354 28.665613293647766 6.6796051785349837
leaf_count=1118 145 70
internal_value=0 0.292183
internal_weight=0 35.3452
internal_count=1333 215
is_linear=0
shrinkage=0.1


Tree=18
num_leaves=4
num_cat=0
split_feature=1 9 87
split_gain=442.068 63.1996 0.881893
threshold=26.007899249772819 12.005468945179915 0.52893217305204676
decision_type=2 2 2
left_child=2 -2 -1
right_child=1 -3 -4
leaf_value=-0.0031885936311906189 -0.065643866959235381 0.38495415115403869 -0.097884649584425512
leaf_weight=3.001180335879325 3.0762305334210422 27.165039166808128 103.34749888628721
leaf_count=30 33 138 1132
internal_value=0 0.336031 -0.096068
internal_weight=0 30.2413 106.349
internal_count=1333 171 1162
is_linear=0
shrinkage=0.1


Tree=19
num_leaves=5
num_cat=0
split_feature=134 174 165 90
split_gain=435.576 54.9688 3.48353 6.25443e-05
threshold=-0.065353576093912027 0.55303862690925609 0.47884887456893921 0.16084749250027439
decision_type=2 2 2 2
left_child=1 -1 -2 -4
right_child=2 -3 3 -5
leaf_value=0.39787805407922039 0 -0.058748136836018067 -0.0029021468993220573 -0.097463105039284237
leaf_weight=24.962173812091354 2.2315570116043082 2.5156095772981635 1.9848558083176602 99.551554992794991
leaf_count=130 23 27 22 1131
internal_value=0 0.352699 -0.093696 -0.0965086
internal_weight=0 27.4778 103.768 101.536
internal_count=1333 157 1176 1153
is_linear=0
shrinkage=0.1


Tree=20
num_leaves=4
num_cat=0
split_feature=171 106 98
split_gain=221.869 114.995 26.5286
threshold=0.49346977472305303 2075.5075836181645 -0.010279707610607099
decision_type=2 2 2
left_child=1 2 -1
right_child=-2 -3 -4
leaf_value=-0.046740341721837123 -0.096407770431734277 -0.088829152286012444 0.29317829473798235
leaf_weight=1.933326102793212 83.037853851914406 11.451168932020662 31.953180372715
leaf_count=23 1036 137 137
internal_value=0 0.178137 0.270984
internal_weight=0 45.3377 33.8865
internal_count=1333 297 160
is_linear=0
shrinkage=0.1


Tree=21
num_leaves=2
num_cat=0
split_feature=159
split_gain=312.373
threshold=0.54712757468223583
decision_type=2
left_child=-1
right_child=-2
leaf_value=-0.095728845179137545 0.27317397349958378
leaf_weight=88.839423388242722 30.725358434021473
leaf_count=1203 130
internal_value=0
internal_weight=0
internal_count=1333
is_linear=0
shrinkage=0.1


Tree=22
num_leaves=3
num_cat=0
split_feature=29 98
split_gain=275.963 38.6544
threshold=-0.067467465996742179 -0.032569937407970394
decision_type=2 2
left_child=-1 -2
right_child=1 -3
leaf_value=0.28124806998078478 0.17875856049580408 -0.095948263645892221
leaf_weight=27.009794719517231 5.0360951051115981 89.583471834659576
leaf_count=114 34 1185
internal_value=0 -0.0800317
internal_weight=0 94.6196
internal_count=1333 1219
is_linear=0
shrinkage=0.1


Tree=23
num_leaves=2
num_cat=0
split_feature=107
split_gain=323.446
threshold=0.0048663051566108506
decision_type=2
left_child=-1
right_child=-2
leaf_value=-0.095972011654109027 0.27423545128515431
leaf_weight=91.095781244337559 31.627184182405472
leaf_count=1202 131
internal_value=0
internal_weight=0
internal_count=1333
is_linear=0
shrinkage=0.1


Tree=24
num_leaves=2
num_cat=0
split_feature=3
split_gain=326.597
threshold=107.170145622899
decision_type=2
left_child=-1
right_child=-2
leaf_value=-0.096040311819803173 0.27500831300563972
leaf_weight=91.745382145047188 31.770201861858368
leaf_count=1202 131
internal_value=0
internal_weight=0
internal_count=1333
is_linear=0
shrinkage=0.1


Tree=25
num_leaves=4
num_cat=0
split_feature=90 98 90
split_gain=302.313 26.9309 0.370158
threshold=65.034286652720525 -0.014549671672284549 52.745832702834214
decision_type=2 2 2
left_child=2 -2 -1
right_child=1 -3 -4
leaf_value=-0.096269912927256202 -0.052416153488966645 0.27314200293538643 0
leaf_weight=90.525230549275875 2.1971460282802573 32.621786028146744 1.6151814833283413
leaf_count=1153 26 134 20
internal_value=0 0.249847 -0.095214
internal_weight=0 34.8189 92.1404
internal_count=1333 160 1173
is_linear=0
shrinkage=0.1


Tree=26
num_leaves=5
num_cat=0
split_feature=157 88 79 105
split_gain=197.388 117.599 0.495487 0.277358
threshold=80.652825317390921 19.232298272530603 17.875366779299743 1122.4146080017092
decision_type=2 2 2 2
left_child=1 3 -3 -1
right_child=-2 2 -4 -5
leaf_value=0 -0.095629497090442508 0.14152671020306148 0.2909622466990166 -0.087215875977195989
leaf_weight=1.5081289410591114 76.649474050849676 3.3380166143178966 26.96019458770752 10.921039633452891
leaf_count=20 1032 20 115 146
internal_value=0 0.172077 0.278486 -0.08049
internal_weight=0 42.7274 30.2982 12.4292
internal_count=1333 301 135 166
is_linear=0
shrinkage=0.1


Tree=27
num_leaves=3
num_cat=0
split_feature=82 109
split_gain=285.435 68.0813
threshold=51.334496830203392 2234.4889526367192
decision_type=2 2
left_child=-1 -2
right_child=1 -3
leaf_value=-0.096878544855615562 0.27087047320196606 -0.080546144358105018
leaf_weight=93.409415766596794 35.460821256041527 5.9864532351493827
leaf_count=1118 145 70
internal_value=0 0.217809
internal_weight=0 41.4473
internal_count=1333 215
is_linear=0
shrinkage=0.1


Tree=28
num_leaves=4
num_cat=0
split_feature=1 9 87
split_gain=302.509 33.7634 0.920375
threshold=26.007899249772819 12.005468945179915 0.52893217305204676
decision_type=2 2 2
left_child=2 -2 -1
right_child=1 -3 -4
leaf_value=-0.00043588478809203341 -0.061518988207956087 0.27185951264523162 -0.096557333917064156
leaf_weight=2.9206062257289878 2.7924909219145766 33.685789227485657 91.633023820817471
leaf_count=30 33 138 1132
internal_value=0 0.243689 -0.0945453
internal_weight=0 36.4783 94.5536
internal_count=1333 171 1162
is_linear=0
shrinkage=0.1


Tree=29
num_leaves=6
num_cat=0
split_feature=134 88 88 165 90
split_gain=294.635 17.0607 9.51386 1.538 0.847839
threshold=-0.062926992774009691 21.371421515310868 34.144693419912379 0.49415273964405065 12.512681270291656
decision_type=2 2 2 2 2
left_child=1 -1 -3 4 -2
right_child=3 2 -4 -5 -6
leaf_value=0.2800298918122705 0.013307066009777666 0.19694068059489997 -0.057721846354344311 -0.09616494981460065 -0.056683114160271456
leaf_weight=29.2198266685009 1.837393894791602 2.3539066910743704 2.5143559500575066 87.624819494783878 2.3880825787782669
leaf_count=122 20 11 30 1124 26
internal_value=0 0.25037 0.0505677 -0.0930498 -0.00668602
internal_weight=0 34.0881 4.86826 91.8503 4.22548
internal_count=1333 163 41 1170 46
is_linear=0
shrinkage=0.1


Tree=30
num_leaves=4
num_cat=0
split_feature=171 85 98
split_gain=170.711 75.9225 16.5165
threshold=0.49346977472305303 3.8402162448512747 -0.010279707610607099
decision_type=2 2 2
left_child=1 2 -1
right_child=-2 -3 -4
leaf_value=-0.041937100745197201 -0.09521362414770014 -0.086673784760902456 0.22857576592246792
leaf_weight=1.756578005850314 73.388528626412153 10.248170152306555 35.829828053712845
leaf_count=22 1036 138 137
internal_value=0 0.147142 0.213397
internal_weight=0 47.8346 37.5864
internal_count=1333 297 159
is_linear=0
shrinkage=0.1


Tree=31
num_leaves=2
num_cat=0
split_feature=159
split_gain=229.421
threshold=0.54712757468223583
decision_type=2
left_child=-1
right_child=-2
leaf_value=-0.094654407208830157 0.21548699730295337
leaf_weight=78.48584296554327 34.024975940585136
leaf_count=1203 130
internal_value=0
internal_weight=0
internal_count=1333
is_linear=0
shrinkage=0.1


Tree=32
num_leaves=4
num_cat=0
split_feature=78 38 79
split_gain=201.372 23.5703 7.674
threshold=62.447608209076613 -0.06971922516822808 69.270061365925059
decision_type=2 2 2
left_child=1 -1 -3
right_child=-2 2 -4
leaf_value=0.21287012340962402 0.21628547826189171 -0.094992015479877345 0.1051460876598682
leaf_weight=2.2957026436924926 31.297786884009838 79.830730240792036 1.38001438230276
leaf_count=13 123 1184 13
internal_value=0 -0.0803389 -0.0902356
internal_weight=0 83.5064 81.2107
internal_count=1333 1210 1197
is_linear=0
shrinkage=0.1


Tree=33
num_leaves=3
num_cat=0
split_feature=131 133
split_gain=238.394 0.400774
threshold=1.0000000180025095e-35 2639.9919719696049
decision_type=2 2
left_child=1 -1
right_child=-2 -3
leaf_value=-0.094958899074202685 0.21922868377176813 0
leaf_weight=79.703936655074358 34.494041353464127 1.308612011373042
leaf_count=1187 129 17
internal_value=0 -0.0939284
internal_weight=0 81.0125
internal_count=1333 1204
is_linear=0
shrinkage=0.1


Tree=34
num_leaves=2
num_cat=0
split_feature=3
split_gain=239.766
threshold=107.170145622899
decision_type=2
left_child=-1
right_child=-2
leaf_value=-0.094931896118341255 0.21708707072430597
leaf_weight=81.063682198524475 35.13664972782135
leaf_count=1202 131
internal_value=0
internal_weight=0
internal_count=1333
is_linear=0
shrinkage=0.1


Tree=35
num_leaves=4
num_cat=0
split_feature=90 113 165
split_gain=224.505 17.3049 0.627842
threshold=65.034286652720525 -0.048653049394488293 0.65330275893211376
decision_type=2 2 2
left_child=2 -2 -1
right_child=1 -3 -4
leaf_value=-0.095144486613720616 -0.047776262576200025 0.2161564777658784 0
leaf_weight=80.230034314095974 2.0087926015257827 35.996871381998062 1.3470053374767292
leaf_count=1154 26 134 19
internal_value=0 0.199674 -0.0939499
internal_weight=0 38.0057 81.577
internal_count=1333 160 1173
is_linear=0
shrinkage=0.1


Tree=36
num_leaves=5
num_cat=0
split_feature=157 88 168 158
split_gain=154.089 77.4719 0.442043 0.0766201
threshold=80.652825317390921 19.232298272530603 0.3727113157510758 0.6827053725719453
decision_type=2 2 2 2
left_child=1 2 -1 -3
right_child=-2 3 -4 -5
leaf_value=-0.085338415126932687 -0.094530769255518995 0.10894903156995878 0 0.22924438576763176
leaf_weight=9.848124645650385 67.796254321932793 3.6483041495084754 1.3042411133646954 30.137405380606651
leaf_count=147 1032 20 19 115
internal_value=0 0.143791 -0.077824 0.21962
internal_weight=0 44.9381 11.1524 33.7857
internal_count=1333 301 166 135
is_linear=0
shrinkage=0.1


Tree=37
num_leaves=3
num_cat=0
split_feature=82 109
split_gain=215.646 44.4184
threshold=51.334496830203392 2234.4889526367192
decision_type=2 2
left_child=-1 -2
right_child=1 -3
leaf_value=-0.09565024053263349 0.21483608535079074 -0.077713509062822039
leaf_weight=82.551116783171892 39.012146830558777 5.3866392895579329
leaf_count=1118 145 70
internal_value=0 0.177135
internal_weight=0 44.3988
internal_count=1333 215
is_linear=0
shrinkage=0.1


Tree=38
num_leaves=4
num_cat=0
split_feature=1 9 87
split_gain=225.206 21.7243 0.941348
threshold=26.007899249772819 12.005468945179915 0.52893217305204676
decision_type=2 2 2
left_child=2 -2 -1
right_child=1 -3 -4
leaf_value=0 -0.057291140686002634 0.21540327318307201 -0.095369303359653504
leaf_weight=2.8584512919187537 2.5371768102049819 37.116821885108948 80.971823040395975
leaf_count=30 33 138 1132
internal_value=0 0.195497 -0.0931337
internal_weight=0 39.654 83.8303
internal_count=1333 171 1162
is_linear=0
shrinkage=0.1


Tree=39
num_leaves=6
num_cat=0
split_feature=134 88 153 165 173
split_gain=218.686 9.36958 7.60369 1.68476 0.962066
threshold=-0.062926992774009691 21.371421515310868 1177.9083580970766 0.49415273964405065 0.37497456371784216
decision_type=2 2 2 2 2
left_child=1 -1 -3 4 -2
right_child=3 2 -4 -5 -6
leaf_value=0.22060622743804859 -0.05614246659097042 0.17110271240966171 -0.055360849960000583 -0.095019049001011394 0.027858553209355041
leaf_weight=32.410017713904381 2.4133654907345763 2.4503707289695731 2.4020256325602531 77.423226032406092 1.5961588174104688
leaf_count=122 29 10 31 1124 17
internal_value=0 0.200292 0.0434319 -0.0915364 -0.00158745
internal_weight=0 37.2624 4.8524 81.4328 4.00952
internal_count=1333 163 41 1170 46
is_linear=0
shrinkage=0.1


Tree=40
num_leaves=4
num_cat=0
split_feature=171 106 98
split_gain=135.305 54.2938 11.4994
threshold=0.49346977472305303 2075.5075836181645 -0.010279707610607099
decision_type=2 2 2
left_child=1 2 -1
right_child=-2 -3 -4
leaf_value=-0.03627737821090201 -0.094117303077119491 -0.084663276156908635 0.19080724518460349
leaf_weight=1.6113035455346096 64.568330064415932 9.1163225881755334 37.37748509645462
leaf_count=23 1036 137 137
internal_value=0 0.127018 0.178989
internal_weight=0 48.1051 38.9888
internal_count=1333 297 160
is_linear=0
shrinkage=0.1


Tree=41
num_leaves=2
num_cat=0
split_feature=159
split_gain=176.463
threshold=0.54712757468223583
decision_type=2
left_child=-1
right_child=-2
leaf_value=-0.093663172848292689 0.18061031366832003
leaf_weight=69.014002937823534 35.28221407532692
leaf_count=1203 130
internal_value=0
internal_weight=0
internal_count=1333
is_linear=0
shrinkage=0.1


Tree=42
num_leaves=4
num_cat=0
split_feature=98 78 23
split_gain=154.22 19.6636 12.1078
threshold=-0.028264667838811847 31.399477748879736 -0.042691215872764546
decision_type=2 2 2
left_child=1 -1 -2
right_child=2 -3 -4
leaf_value=-0.040665413945093674 0.14222546856000792 0.18961866695597729 -0.093826191685037905
leaf_weight=3.3928110636770716 1.7754714190959919 33.530073039233685 68.097387947142124
leaf_count=43 10 125 1155
internal_value=0 0.165929 -0.0861549
internal_weight=0 36.9229 69.8729
internal_count=1333 168 1165
is_linear=0
shrinkage=0.1


Tree=43
num_leaves=2
num_cat=0
split_feature=107
split_gain=184.382
threshold=0.0048663051566108506
decision_type=2
left_child=-1
right_child=-2
leaf_value=-0.09387153048343938 0.18272532415193313
leaf_weight=70.902463044971228 36.257806181907654
leaf_count=1202 131
internal_value=0
internal_weight=0
internal_count=1333
is_linear=0
shrinkage=0.1


Tree=44
num_leaves=2
num_cat=0
split_feature=3
split_gain=184.617
threshold=107.170145622899
decision_type=2
left_child=-1
right_child=-2
leaf_value=-0.093914076956151823 0.18238322856154829
leaf_weight=71.29592676460743 36.344026952981949
leaf_count=1202 131
internal_value=0
internal_weight=0
internal_count=1333
is_linear=0
shrinkage=0.1


Tree=45
num_leaves=3
num_cat=0
split_feature=90 113
split_gain=174.001 16.4617
threshold=59.80274165678226 -0.048653049394488293
decision_type=2 2
left_child=-1 -2
right_child=1 -3
leaf_value=-0.094107484966641855 -0.054998689881560404 0.18361097656306039
leaf_weight=71.162363011389971 2.433587633073329 37.312652453780174
leaf_count=1163 35 135
internal_value=0 0.166546
internal_weight=0 39.7462
internal_count=1333 170
is_linear=0
shrinkage=0.1


Tree=46
num_leaves=4
num_cat=0
split_feature=157 88 169
split_gain=123.06 54.6993 0.47844
threshold=80.652825317390921 19.232298272530603 -0.1921329051256179
decision_type=2 2 2
left_child=1 2 -1
right_child=-2 -3 -4
leaf_value=-0.08319680525343924 -0.093506259450717499 0.18351662524700943 0
leaf_weight=8.7282861359417421 59.66687098518014 35.346253916621208 1.2263853587210167
leaf_count=147 1032 135 19
internal_value=0 0.124666 -0.0749307
internal_weight=0 45.3009 9.95467
internal_count=1333 301 166
is_linear=0
shrinkage=0.1


Tree=47
num_leaves=3
num_cat=0
split_feature=82 112
split_gain=168.841 31.5479
threshold=51.334496830203392 2242.2433090209965
decision_type=2 2
left_child=-1 -2
right_child=1 -3
leaf_value=-0.094532812541545025 0.18107993756418284 -0.074724740840906911
leaf_weight=72.621913444250822 40.209526225924492 4.8303615003824225
leaf_count=1118 145 70
internal_value=0 0.151447
internal_weight=0 45.0399
internal_count=1333 215
is_linear=0
shrinkage=0.1


Tree=48
num_leaves=3
num_cat=0
split_feature=1 20
split_gain=175.406 18.8149
threshold=23.524576281823283 -0.027097310870885797
decision_type=2 2
left_child=-1 -2
right_child=1 -3
leaf_value=-0.093093076766213423 -0.059862811762309634 0.18298311997180827
leaf_weight=73.378261633217335 2.794829510152339 38.441488429903984
leaf_count=1153 41 139
internal_value=0 0.164143
internal_weight=0 41.2363
internal_count=1333 180
is_linear=0
shrinkage=0.1


Tree=49
num_leaves=6
num_cat=0
split_feature=134 99 98 165 173
split_gain=169.122 7.29455 2.22634 1.81707 0.776931
threshold=-0.062926992774009691 1096.1265864372256 -0.027631018310785248 0.49415273964405065 0.37497456371784216
decision_type=2 2 2 2 2
left_child=1 -1 -3 4 -2
right_child=3 2 -4 -5 -6
leaf_value=-0.015232532863713639 -0.051856061499619632 0.015707859070866817 0.18426012969312255 -0.093961828405176251 0.026788323150851757
leaf_weight=1.1414002627134312 2.2078145891427989 2.0500143617391577 35.176525048911572 68.057752512395382 1.6039910838007925
leaf_count=16 29 17 130 1124 17
internal_value=0 0.1694 0.177516 -0.0900541 0
internal_weight=0 38.3679 37.2265 71.8696 3.81181
internal_count=1333 163 147 1170 46
is_linear=0
shrinkage=0.1


Tree=50
num_leaves=4
num_cat=0
split_feature=171 85 90
split_gain=108.864 40.7477 8.54979
threshold=0.49346977472305303 3.8402162448512747 13.66174325226514
decision_type=2 2 2
left_child=1 2 -1
right_child=-2 -3 -4
leaf_value=-0.031186396953024876 -0.093092480842098715 -0.082401318918997907 0.16604904153082711
leaf_weight=1.4697247855365265 56.491289690136909 8.1111679486930353 37.238392382860184
leaf_count=22 1036 138 137
internal_value=0 0.112713 0.156125
internal_weight=0 46.8193 38.7081
internal_count=1333 297 159
is_linear=0
shrinkage=0.1


Tree=51
num_leaves=2
num_cat=0
split_feature=159
split_gain=139.45
threshold=0.54712757468223583
decision_type=2
left_child=-1
right_child=-2
leaf_value=-0.092733259054442282 0.15749025466152708
leaf_weight=60.372557133436203 35.021766841411591
leaf_count=1203 130
internal_value=0
internal_weight=0
internal_count=1333
is_linear=0
shrinkage=0.1


Tree=52
num_leaves=4
num_cat=0
split_feature=98 78 29
split_gain=121.6 14.5418 11.2862
threshold=-0.028264667838811847 31.399477748879736 -0.067467465996742179
decision_type=2 2 2
left_child=1 -1 -2
right_child=2 -3 -4
leaf_value=-0.036155197795087649 0.13839666276734605 0.16492486619008143 -0.092871094609950938
leaf_weight=3.1564382500946513 1.709696128964423 33.487608529627323 59.744281642138958
leaf_count=43 7 125 1158
internal_value=0 0.145059 -0.0845492
internal_weight=0 36.644 61.454
internal_count=1333 168 1165
is_linear=0
shrinkage=0.1


Tree=53
num_leaves=2
num_cat=0
split_feature=107
split_gain=145.754
threshold=0.0048663051566108506
decision_type=2
left_child=-1
right_child=-2
leaf_value=-0.092924579555010794 0.15938442206216438
leaf_weight=62.035668563097715 36.021166428923607
leaf_count=1202 131
internal_value=0
internal_weight=0
internal_count=1333
is_linear=0
shrinkage=0.1


Tree=54
num_leaves=2
num_cat=0
split_feature=3
split_gain=146.026
threshold=107.170145622899
decision_type=2
left_child=-1
right_child=-2
leaf_value=-0.092963617965360457 0.1594320851071673
leaf_weight=62.381860665977001 35.970908582210541
leaf_count=1202 131
internal_value=0
internal_weight=0
internal_count=1333
is_linear=0
shrinkage=0.1


Tree=55
num_leaves=3
num_cat=0
split_feature=90 113
split_gain=138.322 12.2958
threshold=59.80274165678226 -0.048653049394488293
decision_type=2 2
left_child=-1 -2
right_child=1 -3
leaf_value=-0.093128621535238931 -0.050488656096985121 0.16065407233172635
leaf_weight=62.277912884950638 2.2081099748611441 36.92440727353096
leaf_count=1163 35 135
internal_value=0 0.146256
internal_weight=0 39.1325
internal_count=1333 170
is_linear=0
shrinkage=0.1


Tree=56
num_leaves=5
num_cat=0
split_feature=157 88 157 172
split_gain=99.7501 41.0043 0.699217 0.573454
threshold=75.750662871164252 19.232298272530603 83.731517064152897 -0.26413066685199732
decision_type=2 2 2 2
left_child=1 3 -2 -1
right_child=2 -3 -4 -5
leaf_value=-0.080794037961969462 0 0.16430213992636816 -0.092509733056519272 0
leaf_weight=7.6049980930984002 2.3981102481484404 34.179676346480846 51.357998315244913 1.0772821605205534
leaf_count=144 30 126 1014 19
internal_value=0 0.114369 -0.0897112 -0.0713467
internal_weight=0 42.862 53.7561 8.68228
internal_count=1333 289 1044 163
is_linear=0
shrinkage=0.1


Tree=57
num_leaves=3
num_cat=0
split_feature=82 156
split_gain=134.863 23.4999
threshold=51.334496830203392 58.12797540636204
decision_type=2 2
left_child=-1 -2
right_child=1 -3
leaf_value=-0.093499876398605034 -0.071467360751437795 0.15858286166970417
leaf_weight=63.559995863586664 4.3092182204127303 39.69077967107296
leaf_count=1118 70 145
internal_value=0 0.133795
internal_weight=0 44
internal_count=1333 215
is_linear=0
shrinkage=0.1


Tree=58
num_leaves=3
num_cat=0
split_feature=1 20
split_gain=139.395 13.9634
threshold=23.524576281823283 -0.027097310870885797
decision_type=2 2
left_child=-1 -2
right_child=1 -3
leaf_value=-0.091905611478815596 -0.055408762116073845 0.160161350244624
leaf_weight=64.328467328101397 2.5131751745939246 38.012307316064835
leaf_count=1153 41 139
internal_value=0 0.144376
internal_weight=0 40.5255
internal_count=1333 180
is_linear=0
shrinkage=0.1


Tree=59
num_leaves=6
num_cat=0
split_feature=134 99 165 163 102
split_gain=133.656 5.6225 1.93148 1.72827 0.622273
threshold=-0.062926992774009691 1096.1265864372256 0.49415273964405065 -0.3940488845109939 1362.68509554863
decision_type=2 2 2 2 2
left_child=1 -1 4 -3 -2
right_child=2 3 -4 -5 -6
leaf_value=-0.010553931221795834 -0.04738717733542358 0.0032131631544407972 -0.092975065650734767 0.16090193238165887 0.02620507366242061
leaf_weight=1.0742084681987751 2.0197672136127944 1.9164314121007908 59.518931530416012 35.064706727862358 1.6030234321951864
leaf_count=16 29 16 1124 131 17
internal_value=0 0.14815 -0.0885721 0.155212 0
internal_weight=0 38.0553 63.1417 36.9811 3.62279
internal_count=1333 163 1170 147 46
is_linear=0
shrinkage=0.1


Tree=60
num_leaves=4
num_cat=0
split_feature=171 106 90
split_gain=88.4495 31.5942 6.28452
threshold=0.49346977472305303 2075.5075836181645 13.66174325226514
decision_type=2 2 2
left_child=1 2 -1
right_child=-2 -3 -4
leaf_value=-0.022100139396546897 -0.092125135799649205 -0.080271936538052605 0.14832709744144051
leaf_weight=1.2864110805094231 49.198761474341154 7.1960927434265605 35.964353255927563
leaf_count=22 1036 137 138
internal_value=0 0.102081 0.139952
internal_weight=0 44.4469 37.2508
internal_count=1333 297 160
is_linear=0
shrinkage=0.1


Tree=61
num_leaves=2
num_cat=0
split_feature=163
split_gain=112.271
threshold=-0.52443709969520558
decision_type=2
left_child=-1
right_child=-2
leaf_value=0.14127981340148207 -0.091950741999661745
leaf_weight=33.690159272402525 52.581279821693897
leaf_count=138 1195
internal_value=0
internal_weight=0
internal_count=1333
is_linear=0
shrinkage=0.1


Tree=62
num_leaves=4
num_cat=0
split_feature=98 163 23
split_gain=97.1933 10.9804 10.3414
threshold=-0.028264667838811847 -0.43245074152946467 -0.047426518052816294
decision_type=2 2 2
left_child=1 -1 -2
right_child=2 -3 -4
leaf_value=-0.037080545016583262 0.13243938904850813 0.1466129913854142 -0.09199207395087089
leaf_weight=2.6915582455694667 1.6446875929832447 32.638625890016556 52.144133925437927
leaf_count=38 6 130 1159
internal_value=0 0.129956 -0.0829975
internal_weight=0 35.3302 53.7888
internal_count=1333 168 1165
is_linear=0
shrinkage=0.1


Tree=63
num_leaves=3
num_cat=0
split_feature=131 139
split_gain=117.267 0.476942
threshold=1.0000000180025095e-35 2656.8014488220219
decision_type=2 2
left_child=1 -1
right_child=-2 -3
leaf_value=-0.092187450201830876 0.14471409976741503 0
leaf_weight=53.639554049819708 34.174876838922501 0.90455875173210998
leaf_count=1189 129 15
internal_value=0 -0.0909449
internal_weight=0 54.5441
internal_count=1333 1204
is_linear=0
shrinkage=0.1


Tree=64
num_leaves=2
num_cat=0
split_feature=3
split_gain=117.338
threshold=107.170145622899
decision_type=2
left_child=-1
right_child=-2
leaf_value=-0.0920664198865742 0.14319028955929244
leaf_weight=54.329763121902943 34.485744923353195
leaf_count=1202 131
internal_value=0
internal_weight=0
internal_count=1333
is_linear=0
shrinkage=0.1


Tree=65
num_leaves=3
num_cat=0
split_feature=90 113
split_gain=111.536 9.53872
threshold=59.80274165678226 -0.048653049394488293
decision_type=2 2
left_child=-1 -2
right_child=1 -3
leaf_value=-0.092207057023294015 -0.045716950267164998 0.14447717378189687
leaf_weight=54.250349316745996 2.0028171166777602 35.404516354203224
leaf_count=1163 35 135
internal_value=0 0.131712
internal_weight=0 37.4073
internal_count=1333 170
is_linear=0
shrinkage=0.1


Tree=66
num_leaves=5
num_cat=0
split_feature=157 88 165 167
split_gain=81.598 30.8811 0.641364 0.553985
threshold=80.652825317390921 19.232298272530603 0.59627470374107372 0.3912530243396759
decision_type=2 2 2 2
left_child=1 2 -1 -3
right_child=-2 3 -4 -5
leaf_value=-0.078993792875269878 -0.091622474336173834 0.051725046636570293 0 0.15035313440795792
leaf_weight=6.9551418684422961 45.585350213572383 3.8474277704954138 0.95894063264131535 30.628670319914818
leaf_count=148 1032 20 18 115
internal_value=0 0.10067 -0.0686449 0.142304
internal_weight=0 42.3902 7.91408 34.4761
internal_count=1333 301 166 135
is_linear=0
shrinkage=0.1


Tree=67
num_leaves=3
num_cat=0
split_feature=82 112
split_gain=109.097 18.0369
threshold=51.334496830203392 2242.2433090209965
decision_type=2 2
left_child=-1 -2
right_child=1 -3
leaf_value=-0.092535677886140505 0.14266294356356454 -0.067886147631175717
leaf_weight=55.380648672580719 37.969928234815598 3.8250255584716788
leaf_count=1118 145 70
internal_value=0 0.121019
internal_weight=0 41.795
internal_count=1333 215
is_linear=0
shrinkage=0.1


Tree=68
num_leaves=4
num_cat=0
split_feature=1 20 146
split_gain=112.268 10.7395 0.143494
threshold=23.524576281823283 -0.027097310870885797 0.011268259957432702
decision_type=2 2 2
left_child=2 -2 -1
right_child=1 -3 -4
leaf_value=-0.092437483505083795 -0.050629409733268793 0.14403724783125382 0
leaf_weight=54.27088651061058 2.2568702697753897 36.421605303883553 1.8733835518360127
leaf_count=1115 41 139 38
internal_value=0 0.130162 -0.0907476
internal_weight=0 38.6785 56.1443
internal_count=1333 180 1153
is_linear=0
shrinkage=0.1


Tree=69
num_leaves=5
num_cat=0
split_feature=134 105 165 149
split_gain=106.996 6.12618 2.02293 0.603118
threshold=-0.062926992774009691 1237.6968827247622 0.49415273964405065 -0.0059636973310261488
decision_type=2 2 2 2
left_child=1 -1 3 -2
right_child=2 -3 -4 -5
leaf_value=-0.025248008685297241 0.031774101321141723 0.14127749646346327 -0.092042199323586038 -0.044908776217584198
leaf_weight=1.3344489894807328 1.5146257355809214 35.367944873869419 51.803593177348375 1.9321422204375256
leaf_count=20 16 143 1124 30
internal_value=0 0.13268 -0.0870652 0
internal_weight=0 36.7024 55.2504 3.44677
internal_count=1333 163 1170 46
is_linear=0
shrinkage=0.1


Tree=70
num_leaves=4
num_cat=0
split_feature=171 85 90
split_gain=72.3038 24.8 5.35664
threshold=0.49346977472305303 3.8402162448512747 13.66174325226514
decision_type=2 2 2
left_child=1 2 -1
right_child=-2 -3 -4
leaf_value=-0.020181410722715887 -0.09119873361054795 -0.077654034597242239 0.13587539718468641
leaf_weight=1.2435532957315434 42.689456880092621 6.3436334058642379 33.806756034493446
leaf_count=22 1036 138 137
internal_value=0 0.0938456 0.127702
internal_weight=0 41.3939 35.0503
internal_count=1333 297 159
is_linear=0
shrinkage=0.1


Tree=71
num_leaves=2
num_cat=0
split_feature=156
split_gain=91.4192
threshold=151.21076420792227
decision_type=2
left_child=-1
right_child=-2
leaf_value=-0.091100755314536527 0.12950981365131295
leaf_weight=45.700444415211678 31.592441767454147
leaf_count=1195 138
internal_value=0
internal_weight=0
internal_count=1333
is_linear=0
shrinkage=0.1


Tree=72
num_leaves=4
num_cat=0
split_feature=98 95 20
split_gain=78.2773 8.86991 8.81661
threshold=-0.028264667838811847 2.8375912108913331e-07 -0.029252117499709098
decision_type=2 2 2
left_child=1 -1 -2
right_child=2 -3 -4
leaf_value=-0.03487997319952163 0.11302535586179015 0.13363010306547313 -0.091113392047111205
leaf_weight=2.4803730323910704 1.6664726436138142 30.911236576735973 45.213529424741864
leaf_count=38 6 130 1159
internal_value=0 0.118301 -0.0814958
internal_weight=0 33.3916 46.88
internal_count=1333 168 1165
is_linear=0
shrinkage=0.1


Tree=73
num_leaves=2
num_cat=0
split_feature=107
split_gain=95.5711
threshold=0.0048663051566108506
decision_type=2
left_child=-1
right_child=-2
leaf_value=-0.091178577357295953 0.13106010091993714
leaf_weight=46.916712768375874 32.635342195630074
leaf_count=1202 131
internal_value=0
internal_weight=0
internal_count=1333
is_linear=0
shrinkage=0.1


Tree=74
num_leaves=2
num_cat=0
split_feature=3
split_gain=95.2659
threshold=107.170145622899
decision_type=2
left_child=-1
right_child=-2
leaf_value=-0.091206698222360563 0.13119289593777034
leaf_weight=47.130795571953058 32.274069845676422
leaf_count=1202 131
internal_value=0
internal_weight=0
internal_count=1333
is_linear=0
shrinkage=0.1


Tree=75
num_leaves=3
num_cat=0
split_feature=90 113
split_gain=90.5303 7.65527
threshold=59.80274165678226 -0.048653049394488293
decision_type=2 2
left_child=-1 -2
right_child=1 -3
leaf_value=-0.091324145823078101 -0.041101134757034995 0.13240443529279913
leaf_weight=47.054908590391278 1.8311548084020604 33.130430698394775
leaf_count=1163 35 135
internal_value=0 0.120575
internal_weight=0 34.9616
internal_count=1333 170
is_linear=0
shrinkage=0.1


Tree=76
num_leaves=5
num_cat=0
split_feature=157 88 169 158
split_gain=67.5582 24.0443 0.649346 0.40152
threshold=80.652825317390921 19.232298272530603 -0.18906493484973902 0.6827053725719453
decision_type=2 2 2 2
left_child=1 2 -1 -3
right_child=-2 3 -4 -5
leaf_value=-0.076440652788876295 -0.090718920556445162 0.044280117062553866 0 0.13768248346842163
leaf_weight=6.1283447034656993 39.563769489526749 3.7560505494475356 0.88708858564496029 29.054553493857384
leaf_count=149 1032 20 17 115
internal_value=0 0.0932897 -0.0649989 0.13005
internal_weight=0 39.826 7.01543 32.8106
internal_count=1333 301 166 135
is_linear=0
shrinkage=0.1


Tree=77
num_leaves=3
num_cat=0
split_feature=82 112
split_gain=88.954 14.1345
threshold=51.334496830203392 2242.2433090209965
decision_type=2 2
left_child=-1 -2
right_child=1 -3
leaf_value=-0.091621630334428342 0.1308871099402818 -0.06396769146373181
leaf_weight=48.068170867860317 35.467207163572311 3.3842745274305335
leaf_count=1118 145 70
internal_value=0 0.111368
internal_weight=0 38.8515
internal_count=1333 215
is_linear=0
shrinkage=0.1


Tree=78
num_leaves=4
num_cat=0
split_feature=1 20 146
split_gain=91.2799 8.51769 0.208975
threshold=23.524576281823283 -0.027097310870885797 0.011268259957432702
decision_type=2 2 2
left_child=2 -2 -1
right_child=1 -3 -4
leaf_value=-0.091526622752901104 -0.045725779464648356 0.13219251254478004 0
leaf_weight=47.103878183290362 2.0344548523426047 34.084842413663864 1.7802968434989441
leaf_count=1115 41 139 38
internal_value=0 0.119496 -0.0896142
internal_weight=0 36.1193 48.8842
internal_count=1333 180 1153
is_linear=0
shrinkage=0.1


Tree=79
num_leaves=6
num_cat=0
split_feature=134 105 165 146 154
split_gain=86.0678 4.93666 2.09412 0.80577 0.0260541
threshold=-0.062926992774009691 1237.6968827247622 0.49415273964405065 -0.0088064833544194473 2196.9377861022954
decision_type=2 2 2 2 2
left_child=1 -1 3 -2 -3
right_child=2 4 -4 -5 -6
leaf_value=-0.020029377639646934 0.048577371568803561 0.043750891089867919 -0.091147368058017361 -0.045543211011087284 0.13469281384406792
leaf_weight=1.2380517199635495 1.3025668337941172 3.3548477888107291 44.911792838945985 1.9753152467310418 30.065592870116234
leaf_count=20 13 22 1124 33 121
internal_value=0 0.120581 -0.0855121 0 0.128555
internal_weight=0 34.6585 48.1897 3.27788 33.4204
internal_count=1333 163 1170 46 143
is_linear=0
shrinkage=0.1


Tree=80
num_leaves=4
num_cat=0
split_feature=171 106 98
split_gain=59.2331 19.9005 2.81117
threshold=0.49346977472305303 2075.5075836181645 -0.0097449650056659481
decision_type=2 2 2
left_child=1 2 -1
right_child=-2 -3 -4
leaf_value=0 -0.090292388768500639 -0.075244206537248615 0.12567021288936617
leaf_weight=1.9181005991995324 36.904963297769427 5.6090059690177432 30.449807658791542
leaf_count=26 1036 137 134
internal_value=0 0.0871299 0.11832
internal_weight=0 37.9769 32.3679
internal_count=1333 297 160
is_linear=0
shrinkage=0.1


Tree=81
num_leaves=2
num_cat=0
split_feature=159
split_gain=74.8528
threshold=0.54712757468223583
decision_type=2
left_child=-1
right_child=-2
leaf_value=-0.090194334325263179 0.12042759833598782
leaf_weight=39.583086812868714 29.097227931022644
leaf_count=1203 130
internal_value=0
internal_weight=0
internal_count=1333
is_linear=0
shrinkage=0.1


Tree=82
num_leaves=4
num_cat=0
split_feature=98 20 163
split_gain=63.3739 8.4842 6.67118
threshold=-0.028759486041963048 -0.029252117499709098 -0.43245074152946467
decision_type=2 2 2
left_child=2 -2 -1
right_child=1 -3 -4
leaf_value=-0.026196676891827128 0.10058797045406043 -0.090278195509662096 0.12405352068205389
leaf_weight=2.1548252366483238 1.8726215064525593 39.300759887322783 28.44304121285677
leaf_count=34 7 1164 128
internal_value=0 -0.0789777 0.110449
internal_weight=0 41.1734 30.5979
internal_count=1333 1171 162
is_linear=0
shrinkage=0.1


Tree=83
num_leaves=3
num_cat=0
split_feature=131 97
split_gain=78.3451 0.511733
threshold=1.0000000180025095e-35 2570.6274204254155
decision_type=2 2
left_child=1 -1
right_child=-2 -3
leaf_value=-0.090534798139839029 0.12348584600599709 0
leaf_weight=40.394684379920363 29.693033054471016 0.66412085667252441
leaf_count=1191 129 13
internal_value=0 -0.08911
internal_weight=0 41.0588
internal_count=1333 1204
is_linear=0
shrinkage=0.1


Tree=84
num_leaves=2
num_cat=0
split_feature=3
split_gain=77.8543
threshold=107.170145622899
decision_type=2
left_child=-1
right_child=-2
leaf_value=-0.090368585698770071 0.12200711461261715
leaf_weight=40.751944284886122 29.634570896625519
leaf_count=1202 131
internal_value=0
internal_weight=0
internal_count=1333
is_linear=0
shrinkage=0.1


Tree=85
num_leaves=3
num_cat=0
split_feature=90 113
split_gain=74.0014 6.18698
threshold=59.80274165678226 -0.048653049394488293
decision_type=2 2
left_child=-1 -2
right_child=1 -3
leaf_value=-0.09046888816658126 -0.035551796297042963 0.12320064444496198
leaf_weight=40.696566486731172 1.6545677669346321 30.423602938652039
leaf_count=1163 35 135
internal_value=0 0.112055
internal_weight=0 32.0782
internal_count=1333 170
is_linear=0
shrinkage=0.1


Tree=86
num_leaves=6
num_cat=0
split_feature=157 88 158 162 84
split_gain=56.1338 19.1831 0.680902 0.674251 0.385851
threshold=75.750662871164252 19.232298272530603 0.82012376189231884 0.5070478916168214 108.02984740054235
decision_type=2 2 2 2 2
left_child=1 3 4 -1 -2
right_child=2 -3 -4 -5 -6
leaf_value=-0.073283825580684012 -0.089984430602766688 0.12505748828199625 0 0 0
leaf_weight=5.2625685110688201 34.098162205889821 29.441172622144222 0.84901461750268836 0.78626307100057591 0.69059541821479697
leaf_count=145 1012 126 17 18 15
internal_value=0 0.0908126 -0.0863231 -0.0601312 -0.0884709
internal_weight=0 35.49 35.6378 6.04883 34.7888
internal_count=1333 289 1044 163 1027
is_linear=0
shrinkage=0.1


Tree=87
num_leaves=3
num_cat=0
split_feature=83 156
split_gain=73.1702 11.1169
threshold=19.966170104515495 58.12797540636204
decision_type=2 2
left_child=-1 -2
right_child=1 -3
leaf_value=-0.090787030746155073 -0.058891570795093356 0.12197023938546368
leaf_weight=41.617424257099628 2.9671760797500601 32.550163105130196
leaf_count=1107 81 145
internal_value=0 0.104096
internal_weight=0 35.5173
internal_count=1333 226
is_linear=0
shrinkage=0.1


Tree=88
num_leaves=4
num_cat=0
split_feature=1 20 146
split_gain=74.5987 6.87031 0.269941
threshold=23.524576281823283 -0.027097310870885797 0.011268259957432702
decision_type=2 2 2
left_child=2 -2 -1
right_child=1 -3 -4
leaf_value=-0.090645275863337579 -0.040411886912907827 0.12311620711341992 0
leaf_weight=40.748977268114686 1.8310426250100125 31.309806779026985 1.6903364062309254
leaf_count=1115 41 139 38
internal_value=0 0.111194 -0.0884733
internal_weight=0 33.1408 42.4393
internal_count=1333 180 1153
is_linear=0
shrinkage=0.1


Tree=89
num_leaves=4
num_cat=0
split_feature=134 85 95
split_gain=70.6179 9.50684 0.877539
threshold=-0.054947746917605345 12.069483355674086 3.1579973835960123e-07
decision_type=2 2 2
left_child=1 -1 -3
right_child=-2 2 -4
leaf_value=0.12704759983174832 -0.088194727913268184 -0.058580443493723079 0.0043475804931531851
leaf_weight=29.832388021051884 40.296033747494221 2.7871299237012859 1.1720504350960252
leaf_count=133 1134 58 8
internal_value=0 0.107277 -0.0189995
internal_weight=0 33.7916 3.95918
internal_count=1333 199 66
is_linear=0
shrinkage=0.1


Tree=90
num_leaves=4
num_cat=0
split_feature=171 85 110
split_gain=48.7027 16.1011 2.51647
threshold=0.49346977472305303 3.8402162448512747 -0.036405513063073096
decision_type=2 2 2
left_child=1 2 -1
right_child=-2 -3 -4
leaf_value=0 -0.089390599619762784 -0.072301325205319136 0.11818093700886599
leaf_weight=1.7190642394125486 31.811347251757979 4.9547680690884581 27.756753653287888
leaf_count=25 1036 138 134
internal_value=0 0.0817141 0.110949
internal_weight=0 34.4306 29.4758
internal_count=1333 297 159
is_linear=0
shrinkage=0.1


Tree=91
num_leaves=2
num_cat=0
split_feature=163
split_gain=61.548
threshold=-0.52443709969520558
decision_type=2
left_child=-1
right_child=-2
leaf_value=0.11308125371015992 -0.089455198125757848
leaf_weight=26.443108152598143 34.138564497232437
leaf_count=138 1195
internal_value=0
internal_weight=0
internal_count=1333
is_linear=0
shrinkage=0.1


Tree=92
num_leaves=4
num_cat=0
split_feature=98 20 163
split_gain=51.3633 6.50562 5.94607
threshold=-0.028264667838811847 -0.029252117499709098 -0.43245074152946467
decision_type=2 2 2
left_child=2 -2 -1
right_child=1 -3 -4
leaf_value=-0.026108186608266498 0.084743213125416883 -0.089396105114687624 0.11533352259203661
leaf_weight=2.1441780216991928 1.6064622700214375 33.65512677282095 26.340803869068623
leaf_count=38 6 1159 130
internal_value=0 -0.0784914 0.101441
internal_weight=0 35.2616 28.485
internal_count=1333 1165 168
is_linear=0
shrinkage=0.1


Tree=93
num_leaves=2
num_cat=0
split_feature=107
split_gain=64.6331
threshold=0.0048663051566108506
decision_type=2
left_child=-1
right_child=-2
leaf_value=-0.089510642311928137 0.11460665416958729
leaf_weight=34.998468777164817 27.536912277340889
leaf_count=1202 131
internal_value=0
internal_weight=0
internal_count=1333
is_linear=0
shrinkage=0.1


Tree=94
num_leaves=2
num_cat=0
split_feature=3
split_gain=63.918
threshold=107.170145622899
decision_type=2
left_child=-1
right_child=-2
leaf_value=-0.089533250465604911 0.11480142550160498
leaf_weight=35.129196824505925 26.809978067874908
leaf_count=1202 131
internal_value=0
internal_weight=0
internal_count=1333
is_linear=0
shrinkage=0.1


Tree=95
num_leaves=3
num_cat=0
split_feature=90 119
split_gain=60.8354 4.40153
threshold=59.80274165678226 -0.065807677805423681
decision_type=2 2
left_child=-1 -2
right_child=1 -3
leaf_value=-0.089618844827469249 -0.0015073626111174881 0.11609574693485086
leaf_weight=35.088168077170849 1.911589521914723 27.173533320426941
leaf_count=1163 37 133
internal_value=0 0.105336
internal_weight=0 29.0851
internal_count=1333 170
is_linear=0
shrinkage=0.1


Tree=96
num_leaves=5
num_cat=0
split_feature=157 78 174 158
split_gain=46.6325 15.4469 4.3563 0.128111
threshold=80.652825317390921 37.306052980489589 0.54453060030937206 0.68986299633979808
decision_type=2 2 2 2
left_child=1 2 3 -1
right_child=-2 -3 -4 -5
leaf_value=-0.028223365685989432 -0.088936108823453708 -0.071584892698808911 0.12260871314441223 0
leaf_weight=1.408305350691083 29.590475752949715 4.7361325062811366 26.64006595313549 0.93894174322485913
leaf_count=33 1032 136 124 8
internal_value=0 0.0824742 0.111047 0
internal_weight=0 33.7234 28.9873 2.34725
internal_count=1333 301 165 41
is_linear=0
shrinkage=0.1


Tree=97
num_leaves=3
num_cat=0
split_feature=82 156
split_gain=60.148 8.95701
threshold=51.334496830203392 58.12797540636204
decision_type=2 2
left_child=-1 -2
right_child=1 -3
leaf_value=-0.089877405195568111 -0.054600480363419551 0.11489521383112772
leaf_weight=35.911908321082592 2.6083125434815875 29.416705101728439
leaf_count=1118 70 145
internal_value=0 0.0980444
internal_weight=0 32.025
internal_count=1333 215
is_linear=0
shrinkage=0.1


Tree=98
num_leaves=4
num_cat=0
split_feature=1 23 146
split_gain=61.1653 5.64832 0.327395
threshold=23.524576281823283 -0.042691215872764546 0.011268259957432702
decision_type=2 2 2
left_child=2 -2 -1
right_child=1 -3 -4
leaf_value=-0.089772588754140417 -0.034957447982808067 0.11601701145297159 0
leaf_weight=35.138903338462114 1.6546406112611318 28.354615062475204 1.6020221412181843
leaf_count=1115 41 139 38
internal_value=0 0.104537 -0.0872983
internal_weight=0 30.0093 36.7409
internal_count=1333 180 1153
is_linear=0
shrinkage=0.1


Tree=99
num_leaves=6
num_cat=0
split_feature=134 88 131 86 86
split_gain=57.9621 8.57375 0.22531 0.0338168 0.00173699
threshold=-0.054947746917605345 22.711499904539778 -0.15794253349304191 1.0273157354189391 0.33655593841301235
decision_type=2 2 2 2 2
left_child=1 -1 -3 4 -2
right_child=3 2 -4 -5 -6
leaf_value=0.11928183123922186 -0.0037956412792796851 0 -0.049271734997249107 -0.089457785209269905 0
leaf_weight=27.69152303412557 1.0056649912148703 0.96926262229681048 2.2073272485285989 32.94640232808888 0.87091987766325463
leaf_count=137 26 10 52 1085 23
internal_value=0 0.100644 -0.0326121 -0.0869727 0
internal_weight=0 30.8681 3.17659 34.823 1.87658
internal_count=1333 199 62 1134 49
is_linear=0
shrinkage=0.1


Tree=100
num_leaves=4
num_cat=0
split_feature=171 106 101
split_gain=40.0738 13.1338 0.995721
threshold=0.49346977472305303 2075.5075836181645 -0.018639609217643696
decision_type=2 2 2
left_child=1 2 -1
right_child=-2 -3 -4
leaf_value=0 -0.088465561054776307 -0.069403217908419412 0.11164708193815623
leaf_weight=2.3376575633883538 27.350840482860804 4.3644015528261653 24.222614631056786
leaf_count=29 1036 137 131
internal_value=0 0.0771214 0.1049
internal_weight=0 30.9247 26.5603
internal_count=1333 297 160
is_linear=0
shrinkage=0.1


Tree=101
num_leaves=2
num_cat=0
split_feature=156
split_gain=50.8336
threshold=151.21076420792227
decision_type=2
left_child=-1
right_child=-2
leaf_value=-0.088598390389880238 0.10737778207452496
leaf_weight=29.409610096365213 23.729760676622391
leaf_count=1195 138
internal_value=0
internal_weight=0
internal_count=1333
is_linear=0
shrinkage=0.1


Tree=102
num_leaves=4
num_cat=0
split_feature=98 20 152
split_gain=41.7017 6.30893 4.96502
threshold=-0.028759486041963048 -0.029252117499709098 -0.071722082793712574
decision_type=2 2 2
left_child=2 -2 -1
right_child=1 -3 -4
leaf_value=-0.021168324827919371 0.078290984704426039 -0.0885490925374538 0.10995270734660743
leaf_weight=1.9554877877235437 1.7302089035511041 29.106819918379188 23.554662358015776
leaf_count=32 7 1164 130
internal_value=0 -0.0758441 0.0963145
internal_weight=0 30.837 25.5102
internal_count=1333 1171 162
is_linear=0
shrinkage=0.1


Tree=103
num_leaves=3
num_cat=0
split_feature=131 145
split_gain=53.408 0.477209
threshold=1.0000000180025095e-35 2653.085529327393
decision_type=2 2
left_child=1 -1
right_child=-2 -3
leaf_value=-0.088883840555665949 0.11044970856915681 0
leaf_weight=30.036888595670465 24.389501601457596 0.50934299826621909
leaf_count=1193 129 11
internal_value=0 -0.0872597
internal_weight=0 30.5462
internal_count=1333 1204
is_linear=0
shrinkage=0.1


Tree=104
num_leaves=2
num_cat=0
split_feature=3
split_gain=52.6172
threshold=107.170145622899
decision_type=2
left_child=-1
right_child=-2
leaf_value=-0.088679255986047922 0.10899153793037891
leaf_weight=30.204239897429943 23.966082826256752
leaf_count=1202 131
internal_value=0
internal_weight=0
internal_count=1333
is_linear=0
shrinkage=0.1


Tree=105
num_leaves=3
num_cat=0
split_feature=90 110
split_gain=49.9348 3.57197
threshold=59.80274165678226 -0.027286461554467598
decision_type=2 2
left_child=-1 -2
right_child=1 -3
leaf_value=-0.088751720006409338 0 0.11024829694334688
leaf_weight=30.171587888151407 1.95696381852031 24.139186695218086
leaf_count=1163 38 132
internal_value=0 0.0994574
internal_weight=0 26.0962
internal_count=1333 170
is_linear=0
shrinkage=0.1


Tree=106
num_leaves=5
num_cat=0
split_feature=157 78 174 158
split_gain=38.8685 12.5213 3.59125 0.07203
threshold=80.652825317390921 37.306052980489589 0.54453060030937206 0.68986299633979808
decision_type=2 2 2 2
left_child=1 2 3 -1
right_child=-2 -3 -4 -5
leaf_value=-0.022034276454301366 -0.088001085105480492 -0.068122194836137781 0.11620714945284505 0
leaf_weight=1.2835972607135837 25.465264579281211 4.1429826486855736 24.310487162321806 0.89632088504731644
leaf_count=33 1032 136 124 8
internal_value=0 0.0785036 0.105146 0
internal_weight=0 30.6334 26.4904 2.17992
internal_count=1333 301 165 41
is_linear=0
shrinkage=0.1


Tree=107
num_leaves=3
num_cat=0
split_feature=83 156
split_gain=49.7469 7.11124
threshold=19.966170104515495 58.12797540636204
decision_type=2 2
left_child=-1 -2
right_child=1 -3
leaf_value=-0.0890409943654622 -0.048314471967903047 0.1092150349446051
leaf_weight=30.943891478702426 2.260823572054508 26.285697847604752
leaf_count=1107 81 145
internal_value=0 0.0933589
internal_weight=0 28.5465
internal_count=1333 226
is_linear=0
shrinkage=0.1


Tree=108
num_leaves=4
num_cat=0
split_feature=1 23 146
split_gain=50.1933 4.71854 0.377755
threshold=23.524576281823283 -0.042691215872764546 0.011268259957432702
decision_type=2 2 2
left_child=2 -2 -1
right_child=1 -3 -4
leaf_value=-0.088884221105484329 -0.029413845563186054 0.11027841318064394 0
leaf_weight=30.215967221185569 1.5023144036531473 25.38311280310154 1.5186873860657204
leaf_count=1115 41 139 38
internal_value=0 0.0989903 -0.0860605
internal_weight=0 26.8854 31.7347
internal_count=1333 180 1153
is_linear=0
shrinkage=0.1


Tree=109
num_leaves=6
num_cat=0
split_feature=134 88 106 90 134
split_gain=47.5986 7.01872 0.210722 0.0928734 0.0074048
threshold=-0.054947746917605345 22.711499904539778 2361.5117797851567 1.2174284174213374 -0.018741301260888545
decision_type=2 2 2 2 2
left_child=1 -1 -3 4 -2
right_child=3 2 -4 -5 -6
leaf_value=0.11278142345830422 0 -0.04536052889273158 0 -0.088560832144008561 -0.0076414655596978107
leaf_weight=25.04160946235061 0.71993217989802349 2.0172362551093097 0.87458443641662587 28.307146085426211 1.0681194495409752
leaf_count=137 20 49 13 1081 33
internal_value=0 0.0948929 -0.0281781 -0.085729 0
internal_weight=0 27.9334 2.89182 30.0952 1.78805
internal_count=1333 199 62 1134 53
is_linear=0
shrinkage=0.1


Tree=110
num_leaves=5
num_cat=0
split_feature=171 90 117 81
split_gain=33.0406 10.9131 1.40097 0.0101763
threshold=0.49346977472305303 13.66174325226514 1459.3344655036929 23.256901463114271
decision_type=2 2 2 2
left_child=1 -1 3 -3
right_child=-2 2 -4 -5
leaf_value=-0.066594586764993136 -0.087503357534081519 0 0.10707683387222666 0.0094856609403548547
leaf_weight=3.8741069976240423 23.48145361803472 0.83528686687350517 21.966887939721346 0.9309794008731842
leaf_count=125 1036 34 132 6
internal_value=0 0.0732204 0.10017 0
internal_weight=0 27.6073 23.7332 1.76627
internal_count=1333 297 172 40
is_linear=0
shrinkage=0.1


Tree=111
num_leaves=2
num_cat=0
split_feature=159
split_gain=41.9139
threshold=0.54712757468223583
decision_type=2
left_child=-1
right_child=-2
leaf_value=-0.087637750911347526 0.10237453602846291
leaf_weight=25.291092101484537 21.111686751246452
leaf_count=1203 130
internal_value=0
internal_weight=0
internal_count=1333
is_linear=0
shrinkage=0.1


Tree=112
num_leaves=3
num_cat=0
split_feature=29 98
split_gain=34.1958 9.08597
threshold=-0.067467465996742179 -0.032569937407970394
decision_type=2 2
left_child=-1 -2
right_child=1 -3
leaf_value=0.10587978391984941 0.053914106071259842 -0.087871450404087142
leaf_weight=19.256975196301937 4.4983177296817329 25.838187381625175
leaf_count=114 34 1185
internal_value=0 -0.0636847
internal_weight=0 30.3365
internal_count=1333 1219
is_linear=0
shrinkage=0.1


Tree=113
num_leaves=2
num_cat=0
split_feature=107
split_gain=44.2542
threshold=0.0048663051566108506
decision_type=2
left_child=-1
right_child=-2
leaf_value=-0.087773169007109242 0.10381093524520509
leaf_weight=25.854308482259512 22.238811612129211
leaf_count=1202 131
internal_value=0
internal_weight=0
internal_count=1333
is_linear=0
shrinkage=0.1


Tree=114
num_leaves=2
num_cat=0
split_feature=3
split_gain=43.4155
threshold=107.170145622899
decision_type=2
left_child=-1
right_child=-2
leaf_value=-0.087793739759959286 0.10420641263637925
leaf_weight=25.936485011130571 21.229409322142601
leaf_count=1202 131
internal_value=0
internal_weight=0
internal_count=1333
is_linear=0
shrinkage=0.1


Tree=115
num_leaves=3
num_cat=0
split_feature=90 110
split_gain=41.0517 3.08762
threshold=59.80274165678226 -0.027286461554467598
decision_type=2 2
left_child=-1 -2
right_child=1 -3
leaf_value=-0.087854394286417017 0 0.10540140236342888
leaf_weight=25.907213905826211 1.8340200744569326 21.393075421452522
leaf_count=1163 38 132
internal_value=0 0.0944551
internal_weight=0 23.2271
internal_count=1333 170
is_linear=0
shrinkage=0.1


Tree=116
num_leaves=4
num_cat=0
split_feature=157 78 174
split_gain=32.2998 10.1678 3.48053
threshold=80.652825317390921 37.306052980489589 0.54099598526954662
decision_type=2 2 2
left_child=1 2 -1
right_child=-2 -3 -4
leaf_value=0 -0.087018866425320696 -0.064328942985803994 0.11081068203671729
leaf_weight=1.6562338601797879 21.888132041320205 3.6225935742259017 22.318162001669407
leaf_count=39 1032 136 126
internal_value=0 0.0748748 0.09999
internal_weight=0 27.597 23.9744
internal_count=1333 301 165
is_linear=0
shrinkage=0.1


Tree=117
num_leaves=3
num_cat=0
split_feature=82 156
split_gain=41.0473 5.85166
threshold=51.334496830203392 58.12797540636204
decision_type=2 2
left_child=-1 -2
right_child=1 -3
leaf_value=-0.088107945309437621 -0.043143357171092217 0.10456255394856223
leaf_weight=26.597702136263251 1.9985651709139372 23.293856933712959
leaf_count=1118 70 145
internal_value=0 0.0891137
internal_weight=0 25.2924
internal_count=1333 215
is_linear=0
shrinkage=0.1


Tree=118
num_leaves=4
num_cat=0
split_feature=1 23 90
split_gain=41.3266 3.98142 0.464359
threshold=23.524576281823283 -0.042691215872764546 2.2145291241448777
decision_type=2 2 2
left_child=2 -2 -1
right_child=1 -3 -4
leaf_value=0 -0.023487605658813353 0.10563189878007984 -0.087929613857385236
leaf_weight=1.3605404719710374 1.3637413941323782 22.568920657038689 26.030412865802646
leaf_count=36 41 139 1117
internal_value=0 0.0944113 -0.084747
internal_weight=0 23.9327 27.391
internal_count=1333 180 1153
is_linear=0
shrinkage=0.1


Tree=119
num_leaves=5
num_cat=0
split_feature=134 88 90 106
split_gain=39.1129 5.80943 0.464264 0.16042
threshold=-0.054947746917605345 22.711499904539778 0.68936131467668871 2361.5117797851567
decision_type=2 2 2 2
left_child=1 -1 -2 -3
right_child=2 3 -4 -5
leaf_value=0.1073743708739498 0 -0.039877635239411881 -0.08767561034060245 0
leaf_weight=22.439322464168075 1.3112345505505825 1.8099292777478688 24.680790884420276 0.82819660939276207
leaf_count=137 36 49 1098 13
internal_value=0 0.0899483 -0.0844093 -0.0236843
internal_weight=0 25.0774 25.992 2.63813
internal_count=1333 199 1134 62
is_linear=0
shrinkage=0.1


Tree=120
num_leaves=4
num_cat=0
split_feature=171 85 98
split_gain=27.158 8.96933 0.635058
threshold=0.49346977472305303 3.8402162448512747 -0.009236443322151849
decision_type=2 2 2
left_child=1 2 -1
right_child=-2 -3 -4
leaf_value=0 -0.086478778523130267 -0.062592137861448169 0.10251977533130396
leaf_weight=2.098295705392963 20.136193292215466 3.4378791805356732 18.951230227947235
leaf_count=30 1036 138 129
internal_value=0 0.0695721 0.0957789
internal_weight=0 24.4874 21.0495
internal_count=1333 297 159
is_linear=0
shrinkage=0.1


Tree=121
num_leaves=2
num_cat=0
split_feature=163
split_gain=34.7555
threshold=-0.52443709969520558
decision_type=2
left_child=-1
right_child=-2
leaf_value=0.09834071092942015 -0.086777970564987927
leaf_weight=18.670427637174726 21.719224441796541
leaf_count=138 1195
internal_value=0
internal_weight=0
internal_count=1333
is_linear=0
shrinkage=0.1


Tree=122
num_leaves=5
num_cat=0
split_feature=78 83 159 172
split_gain=28.0536 5.40103 2.14111 0.860355
threshold=56.157220161381225 1.5448117380683115 0.31752990186214453 -0.37685686349868769
decision_type=2 2 2 2
left_child=1 3 -2 -1
right_child=2 -3 -4 -5
leaf_value=0.068679571851770538 0 -0.086845574232070524 0.10258998799969715 0
leaf_weight=2.283046774566174 0.77091162092983978 21.297372253611684 17.922300070524216 1.2629201579839016
leaf_count=20 42 1114 119 38
internal_value=0 -0.066646 0.0946678 0.0288076
internal_weight=0 24.8433 18.6932 3.54597
internal_count=1333 1172 161 58
is_linear=0
shrinkage=0.1


Tree=123
num_leaves=3
num_cat=0
split_feature=131 136
split_gain=36.7188 0.441283
threshold=1.0000000180025095e-35 2669.974674224854
decision_type=2 2
left_child=1 -1
right_child=-2 -3
leaf_value=-0.087103481385449405 0.10156489012054833 0
leaf_weight=22.215780084952716 19.336969792842865 0.37247995845973392
leaf_count=1195 129 9
internal_value=0 -0.0852605
internal_weight=0 22.5883
internal_count=1333 1204
is_linear=0
shrinkage=0.1


Tree=124
num_leaves=2
num_cat=0
split_feature=3
split_gain=35.8598
threshold=107.170145622899
decision_type=2
left_child=-1
right_child=-2
leaf_value=-0.0868535878009873 0.10015716916623113
leaf_weight=22.246211335062981 18.668007850646973
leaf_count=1202 131
internal_value=0
internal_weight=0
internal_count=1333
is_linear=0
shrinkage=0.1


Tree=125
num_leaves=3
num_cat=0
split_feature=90 104
split_gain=33.818 3.32816
threshold=59.80274165678226 -0.044521581381559344
decision_type=2 2
left_child=-1 -2
right_child=1 -3
leaf_value=-0.086903660169308561 -0.016472846011462795 0.10158898855111245
leaf_weight=22.219774270430207 1.2181357517838503 19.34948493540287
leaf_count=1163 35 135
internal_value=0 0.0901717
internal_weight=0 20.5676
internal_count=1333 170
is_linear=0
shrinkage=0.1


Tree=126
num_leaves=4
num_cat=0
split_feature=157 78 174
split_gain=26.8391 8.29791 3.024
threshold=80.652825317390921 37.306052980489589 0.54099598526954662
decision_type=2 2 2
left_child=1 2 -1
right_child=-2 -3 -4
leaf_value=0 -0.085967919154258055 -0.060240167993595821 0.10634260940123284
leaf_weight=1.5522711668163598 18.797264984808862 3.1757701542228451 20.055114816874266
leaf_count=39 1032 136 126
internal_value=0 0.0716038 0.0954835
internal_weight=0 24.7832 21.6074
internal_count=1333 301 165
is_linear=0
shrinkage=0.1


Tree=127
num_leaves=3
num_cat=0
split_feature=83 156
split_gain=34.0045 4.69127
threshold=19.966170104515495 58.12797540636204
decision_type=2 2
left_child=-1 -2
right_child=1 -3
leaf_value=-0.087200652497412531 -0.035619608682382953 0.10057898144133677
leaf_weight=22.87773201148957 1.7282717134803558 20.462976843118668
leaf_count=1107 81 145
internal_value=0 0.0857289
internal_weight=0 22.1912
internal_count=1333 226
is_linear=0
shrinkage=0.1


Tree=128
num_leaves=4
num_cat=0
split_feature=1 23 87
split_gain=33.9269 3.38761 0.633943
threshold=23.524576281823283 -0.042691215872764546 0.52893217305204676
decision_type=2 2 2
left_child=2 -2 -1
right_child=1 -3 -4
leaf_value=0 -0.01733227230155223 0.10159050163020733 -0.087023555069571934
leaf_weight=1.1388722807168985 1.2409248743206287 19.884019866585732 22.481834063306451
leaf_count=29 41 139 1124
internal_value=0 0.0902873 -0.083336
internal_weight=0 21.1249 23.6207
internal_count=1333 180 1153
is_linear=0
shrinkage=0.1


Tree=129
num_leaves=5
num_cat=0
split_feature=134 85 90 137
split_gain=32.1436 4.92698 0.660573 0.179278
threshold=-0.054947746917605345 12.661736016797724 0.49828082158210651 -0.12017237395048135
decision_type=2 2 2 2
left_child=1 -1 -2 -3
right_child=2 3 -4 -5
leaf_value=0.10302635851205039 0 0 -0.086731178042137536 -0.037879878819658659
leaf_weight=19.961231548339132 1.0400528050959135 0.67440316453576121 21.374663718044758 1.7605533394962538
leaf_count=135 27 8 1107 56
internal_value=0 0.0856466 -0.0829714 -0.0196787
internal_weight=0 22.3962 22.4147 2.43496
internal_count=1333 199 1134 64
is_linear=0
shrinkage=0.1


Tree=130
num_leaves=4
num_cat=0
split_feature=171 90 157
split_gain=22.3741 7.51301 1.16988
threshold=0.49346977472305303 13.66174325226514 97.138863222211128
decision_type=2 2 2
left_child=1 -1 -3
right_child=-2 2 -4
leaf_value=-0.059355352039293999 -0.085368027460189219 0 0.099433448529869642
leaf_weight=3.0528111066669252 17.251327526755631 1.4173611197620655 17.1894755885005
leaf_count=125 1036 41 131
internal_value=0 0.0664629 0.0923029
internal_weight=0 21.6596 18.6068
internal_count=1333 297 172
is_linear=0
shrinkage=0.1


Tree=131
num_leaves=2
num_cat=0
split_feature=156
split_gain=28.7451
threshold=151.21076420792227
decision_type=2
left_child=-1
right_child=-2
leaf_value=-0.085749883638258362 0.094716837948622817
leaf_weight=18.646140740253031 16.394589096307755
leaf_count=1195 138
internal_value=0
internal_weight=0
internal_count=1333
is_linear=0
shrinkage=0.1


Tree=132
num_leaves=3
num_cat=0
split_feature=29 98
split_gain=23.0794 6.66168
threshold=-0.067467465996742179 -0.032569937407970394
decision_type=2 2
left_child=-1 -2
right_child=1 -3
leaf_value=0.09795014998744922 0.043382284208124289 -0.085932198276401126
leaf_weight=15.141685396432875 3.8750856257975093 19.105866027995948
leaf_count=114 34 1185
internal_value=0 -0.0600583
internal_weight=0 22.981
internal_count=1333 1219
is_linear=0
shrinkage=0.1


Tree=133
num_leaves=2
num_cat=0
split_feature=130
split_gain=30.558
threshold=2694.1174564361577
decision_type=2
left_child=-1
right_child=-2
leaf_value=-0.086047596245957869 0.096026938839525733
leaf_weight=18.981285008601844 17.537250442430377
leaf_count=1190 143
internal_value=0
internal_weight=0
internal_count=1333
is_linear=0
shrinkage=0.1


Tree=134
num_leaves=2
num_cat=0
split_feature=3
split_gain=29.6216
threshold=107.170145622899
decision_type=2
left_child=-1
right_child=-2
leaf_value=-0.085835346540114765 0.096630534908405577
leaf_weight=19.061269392259419 16.325360581278801
leaf_count=1202 131
internal_value=0
internal_weight=0
internal_count=1333
is_linear=0
shrinkage=0.1


Tree=135
num_leaves=3
num_cat=0
split_feature=90 104
split_gain=27.7859 2.86863
threshold=59.80274165678226 -0.044521581381559344
decision_type=2 2
left_child=-1 -2
right_child=1 -3
leaf_value=-0.085877638834341005 -0.010348292203459843 0.09799366133175548
leaf_weight=19.040814630687237 1.116716088727119 16.930900052189827
leaf_count=1163 35 135
internal_value=0 0.0863178
internal_weight=0 18.0476
internal_count=1333 170
is_linear=0
shrinkage=0.1


Tree=136
num_leaves=4
num_cat=0
split_feature=157 78 174
split_gain=22.1712 6.76282 2.63179
threshold=80.652825317390921 37.306052980489589 0.54099598526954662
decision_type=2 2 2
left_child=1 2 -1
right_child=-2 -3 -4
leaf_value=0 -0.084818232706221006 -0.055764030801661403 0.10226228195972638
leaf_weight=1.4527840632945359 16.125367660075426 2.7859057523310176 17.872417286038399
leaf_count=39 1032 136 126
internal_value=0 0.0683832 0.0912775
internal_weight=0 22.1111 19.3252
internal_count=1333 301 165
is_linear=0
shrinkage=0.1


Tree=137
num_leaves=3
num_cat=0
split_feature=82 156
split_gain=28.0141 3.90311
threshold=51.334496830203392 58.12797540636204
decision_type=2 2
left_child=-1 -2
right_child=1 -3
leaf_value=-0.086161045280629192 -0.029352764926637961 0.097123756743030643
leaf_weight=19.62725481018424 1.5326844248920704 17.873504661023617
leaf_count=1118 70 145
internal_value=0 0.0823468
internal_weight=0 19.4062
internal_count=1333 215
is_linear=0
shrinkage=0.1


Tree=138
num_leaves=4
num_cat=0
split_feature=1 23 146
split_gain=27.8052 2.91621 0.642526
threshold=23.524576281823283 -0.042691215872764546 0.011268259957432702
decision_type=2 2 2
left_child=2 -2 -1
right_child=1 -3 -4
leaf_value=-0.08605273620932373 -0.011133054292211573 0.098087554659140139 0
leaf_weight=19.226767533458773 1.1345742773264671 17.429601654410362 1.1213850285857905
leaf_count=1115 41 139 38
internal_value=0 0.0865685 -0.0817818
internal_weight=0 18.5642 20.3482
internal_count=1333 180 1153
is_linear=0
shrinkage=0.1


Tree=139
num_leaves=5
num_cat=0
split_feature=134 85 90 137
split_gain=26.4097 4.12492 0.741241 0.13032
threshold=-0.054947746917605345 12.661736016797724 0.16084749250027439 -0.12017237395048135
decision_type=2 2 2 2
left_child=1 -1 -2 -3
right_child=2 3 -4 -5
leaf_value=0.099008066942968917 0 0 -0.085692439550547492 -0.032031474690164964
leaf_weight=17.714885700494055 0.90009118616581218 0.6392278075218204 18.405166937969625 1.5819085277616967
leaf_count=135 22 8 1112 56
internal_value=0 0.0818465 -0.0813899 -0.0147264
internal_weight=0 19.936 19.3053 2.22114
internal_count=1333 199 1134 64
is_linear=0
shrinkage=0.1


Tree=140
num_leaves=4
num_cat=0
split_feature=171 106 98
split_gain=18.3351 6.21812 0.536547
threshold=0.49346977472305303 2075.5075836181645 -0.0094561399891971987
decision_type=2 2 2
left_child=1 2 -1
right_child=-2 -3 -4
leaf_value=0 -0.084157251173523268 -0.054994255416960326 0.09547660701328857
leaf_weight=1.6340860407799525 14.787890945561228 2.7158201271668068 14.711279146373272
leaf_count=30 1036 137 130
internal_value=0 0.0633092 0.0888323
internal_weight=0 19.0612 16.3454
internal_count=1333 297 160
is_linear=0
shrinkage=0.1


Tree=141
num_leaves=2
num_cat=0
split_feature=159
split_gain=23.6979
threshold=0.54712757468223583
decision_type=2
left_child=-1
right_child=-2
leaf_value=-0.084564187116923387 0.091244173187197852
leaf_weight=16.001911001279954 14.347794383764265
leaf_count=1203 130
internal_value=0
internal_weight=0
internal_count=1333
is_linear=0
shrinkage=0.1


Tree=142
num_leaves=5
num_cat=0
split_feature=78 20 169 79
split_gain=18.9425 3.99505 2.0106 0.837905
threshold=51.449807692065001 -0.029252117499709098 -0.32281191647052754 78.35094889359884
decision_type=2 2 2 2
left_child=1 -1 -2 -3
right_child=2 3 -4 -5
leaf_value=0.053173871566418535 0 -0.085075984384362438 0.095722894551553681 0
leaf_weight=1.5601748824119557 0.81200045440345903 16.446858544833965 14.250967643223701 0.30347015894949336
leaf_count=8 58 1141 123 3
internal_value=0 -0.0645534 0.0857793 -0.0813266
internal_weight=0 18.3105 15.063 16.7503
internal_count=1333 1152 181 1144
is_linear=0
shrinkage=0.1


Tree=143
num_leaves=3
num_cat=0
split_feature=131 97
split_gain=25.4238 0.394886
threshold=1.0000000180025095e-35 2614.2117290496831
decision_type=2 2
left_child=1 -1
right_child=-2 -3
leaf_value=-0.084963719923970213 0.095054421861856114 0
leaf_weight=16.407888162881143 15.106261946260927 0.26711391657590766
leaf_count=1198 129 6
internal_value=0 -0.0828888
internal_weight=0 16.675
internal_count=1333 1204
is_linear=0
shrinkage=0.1


Tree=144
num_leaves=2
num_cat=0
split_feature=3
split_gain=24.4664
threshold=107.170145622899
decision_type=2
left_child=-1
right_child=-2
leaf_value=-0.084725034391016502 0.093473080159307831
leaf_weight=16.338407291099433 14.21489382535219
leaf_count=1202 131
internal_value=0
internal_weight=0
internal_count=1333
is_linear=0
shrinkage=0.1


Tree=145
num_leaves=3
num_cat=0
split_feature=90 104
split_gain=22.8047 2.49829
threshold=59.80274165678226 -0.044521581381559344
decision_type=2 2
left_child=-1 -2
right_child=1 -3
leaf_value=-0.084761003711202251 -0.0042353808116025 0.094775940390079749
leaf_weight=16.3229173226282 1.0284573435783375 14.751335889101027
leaf_count=1163 35 135
internal_value=0 0.0827185
internal_weight=0 15.7798
internal_count=1333 170
is_linear=0
shrinkage=0.1


Tree=146
num_leaves=4
num_cat=0
split_feature=157 88 168
split_gain=18.3797 5.60077 0.780656
threshold=80.652825317390921 20.81092709205274 0.39164260029792791
decision_type=2 2 2
left_child=1 2 -1
right_child=-2 -3 -4
leaf_value=-0.058690897348366494 -0.083558836860708863 0.091646680714852713 0
leaf_weight=3.0558551577851207 13.84177102986723 16.279744382947683 0.41475196555256832
leaf_count=165 1032 133 3
internal_value=0 0.0655857 -0.0304734
internal_weight=0 19.7504 3.47061
internal_count=1333 301 168
is_linear=0
shrinkage=0.1


Tree=147
num_leaves=3
num_cat=0
split_feature=83 156
split_gain=23.221 3.18034
threshold=19.966170104515495 58.12797540636204
decision_type=2 2
left_child=-1 -2
right_child=1 -3
leaf_value=-0.085103260183922114 -0.020745554360132697 0.094086159045975004
leaf_weight=16.879934789612889 1.332595507614317 15.575913459062575
leaf_count=1107 81 145
internal_value=0 0.0796388
internal_weight=0 16.9085
internal_count=1333 226
is_linear=0
shrinkage=0.1


Tree=148
num_leaves=4
num_cat=0
split_feature=1 23 87
split_gain=22.7266 2.53433 0.695882
threshold=23.524576281823283 -0.042691215872764546 0.52893217305204676
decision_type=2 2 2
left_child=2 -2 -1
right_child=1 -3 -4
leaf_value=0 -0.0048750735728493137 0.094933779716668276 -0.084888976295338453
leaf_weight=0.99303956329822796 1.0416079554706836 15.201630070805548 16.554079405963421
leaf_count=29 41 139 1124
internal_value=0 0.0830787 -0.0800675
internal_weight=0 16.2432 17.5471
internal_count=1333 180 1153
is_linear=0
shrinkage=0.1


Tree=149
num_leaves=5
num_cat=0
split_feature=134 85 90 143
split_gain=21.6203 3.47136 0.720921 0.103719
threshold=-0.054947746917605345 12.661736016797724 0.16084749250027439 -0.15349809080362317
decision_type=2 2 2 2
left_child=1 -1 -2 -3
right_child=2 3 -4 -5
leaf_value=0.095290274044449591 0 0 -0.084524444022981982 -0.027403281101648337
leaf_weight=15.646683130413296 0.87415391579270618 0.56636284291744265 15.759867812506853 1.4623003341257561
leaf_count=135 22 7 1112 57
internal_value=0 0.0782276 -0.0796564 -0.00973228
internal_weight=0 17.6753 16.634 2.02866
internal_count=1333 199 1134 64
is_linear=0
shrinkage=0.1


Tree=150
num_leaves=4
num_cat=0
split_feature=171 90 81
split_gain=15.0366 5.21886 0.856493
threshold=0.49346977472305303 13.66174325226514 22.72905304644431
decision_type=2 2 2
left_child=1 -1 -3
right_child=-2 2 -4
leaf_value=-0.050985696182116604 -0.082826480052306681 0 0.092957757862472595
leaf_weight=2.4259276948869291 12.691544596105812 1.1250390857458104 13.207320898771284
leaf_count=125 1036 40 132
internal_value=0 0.0604296 0.0859233
internal_weight=0 16.7583 14.3324
internal_count=1333 297 172
is_linear=0
shrinkage=0.1


Tree=151
num_leaves=2
num_cat=0
split_feature=163
split_gain=19.6178
threshold=-0.52443709969520558
decision_type=2
left_child=-1
right_child=-2
leaf_value=0.088291441410081883 -0.083410177433798915
leaf_weight=12.512173464521767 13.754032185301183
leaf_count=138 1195
internal_value=0
internal_weight=0
internal_count=1333
is_linear=0
shrinkage=0.1


Tree=152
num_leaves=3
num_cat=0
split_feature=29 98
split_gain=15.6226 4.85901
threshold=-0.067467465996742179 -0.032569937407970394
decision_type=2 2
left_child=-1 -2
right_child=1 -3
leaf_value=0.091694909167734123 0.034198748157353728 -0.083604783598858035
leaf_weight=11.801535952836277 3.2723136544227627 14.087644570507107
leaf_count=114 34 1185
internal_value=0 -0.0561372
internal_weight=0 17.36
internal_count=1333 1219
is_linear=0
shrinkage=0.1


Tree=153
num_leaves=2
num_cat=0
split_feature=107
split_gain=21.1786
threshold=0.0048663051566108506
decision_type=2
left_child=-1
right_child=-2
leaf_value=-0.083492672215811164 0.090243221429271117
leaf_weight=14.004593403078617 13.646668769419191
leaf_count=1202 131
internal_value=0
internal_weight=0
internal_count=1333
is_linear=0
shrinkage=0.1


Tree=154
num_leaves=2
num_cat=0
split_feature=3
split_gain=20.1882
threshold=107.170145622899
decision_type=2
left_child=-1
right_child=-2
leaf_value=-0.083501916794547437 0.090541675560649154
leaf_weight=14.016904113814237 12.334282025694845
leaf_count=1202 131
internal_value=0
internal_weight=0
internal_count=1333
is_linear=0
shrinkage=0.1


Tree=155
num_leaves=3
num_cat=0
split_feature=90 104
split_gain=18.705 2.21371
threshold=59.80274165678226 -0.044521581381559344
decision_type=2 2
left_child=-1 -2
right_child=1 -3
leaf_value=-0.083532530228014976 0 0.091874822935161068
leaf_weight=14.004075211472811 0.95862426236271758 12.840584479272364
leaf_count=1163 35 135
internal_value=0 0.0792569
internal_weight=0 13.7992
internal_count=1333 170
is_linear=0
shrinkage=0.1


Tree=156
num_leaves=5
num_cat=0
split_feature=157 78 174 162
split_gain=15.2192 4.67673 1.75052 0.00299784
threshold=80.652825317390921 37.306052980489589 0.55216485261917125 0.48506951332092285
decision_type=2 2 2 2
left_child=1 2 3 -1
right_child=-2 -3 -4 -5
leaf_value=0 -0.082157795418739465 -0.046537504004846048 0.09711186761465268 -0.0049591052501901543
leaf_weight=0.80082986503840103 11.884993983432649 2.1970315892249337 13.558147627860306 1.018994817510247
leaf_count=7 1032 136 120 38
internal_value=0 0.0630531 0.084884 0
internal_weight=0 17.575 15.378 1.81982
internal_count=1333 301 165 45
is_linear=0
shrinkage=0.1


Tree=157
num_leaves=3
num_cat=0
split_feature=82 156
split_gain=19.0935 2.69414
threshold=51.334496830203392 58.12797540636204
decision_type=2 2
left_child=-1 -2
right_child=1 -3
leaf_value=-0.083887067646770952 -0.013777661657402596 0.091253097819128659
leaf_weight=14.504659107886257 1.1937063448131073 13.506427019834517
leaf_count=1118 70 145
internal_value=0 0.0766135
internal_weight=0 14.7001
internal_count=1333 215
is_linear=0
shrinkage=0.1


Tree=158
num_leaves=4
num_cat=0
split_feature=1 20 146
split_gain=18.5491 2.23005 0.714713
threshold=23.524576281823283 -0.027097310870885797 0.011268259957432702
decision_type=2 2 2
left_child=2 -2 -1
right_child=1 -3 -4
leaf_value=-0.083750545170125923 0 0.092075265323695407 0
leaf_weight=14.200995859690011 0.96279756352305312 13.23829787224531 0.95008473470807153
leaf_count=1115 41 139 38
internal_value=0 0.0797655 -0.0781951
internal_weight=0 14.2011 15.1511
internal_count=1333 180 1153
is_linear=0
shrinkage=0.1


Tree=159
num_leaves=3
num_cat=0
split_feature=134 90
split_gain=17.7051 5.17601
threshold=-0.046027440577745396 10.958841536647144
decision_type=2 2
left_child=1 -1
right_child=-2 -3
leaf_value=0.093960885956461959 -0.083263107711234574 -0.046367982186843577
leaf_weight=14.487203263677662 13.374478992074726 2.1415810175240031
leaf_count=153 1080 100
internal_value=0 0.070204
internal_weight=0 16.6288
internal_count=1333 253
is_linear=0
shrinkage=0.1


Tree=160
num_leaves=4
num_cat=0
split_feature=171 90 81
split_gain=12.2579 4.3086 0.741134
threshold=0.49346977472305303 13.66174325226514 22.72905304644431
decision_type=2 2 2
left_child=1 -1 -3
right_child=-2 2 -4
leaf_value=-0.046057643032383716 -0.081335904448292182 0 0.090021026730591758
leaf_weight=2.1556269116699722 10.900829946622251 1.0510839391499747 11.478719815611838
leaf_count=125 1036 40 132
internal_value=0 0.0574571 0.0827796
internal_weight=0 14.6854 12.5298
internal_count=1333 297 172
is_linear=0
shrinkage=0.1


Tree=161
num_leaves=2
num_cat=0
split_feature=156
split_gain=16.2226
threshold=151.21076420792227
decision_type=2
left_child=-1
right_child=-2
leaf_value=-0.082032017002496169 0.085540247147471868
leaf_weight=11.829867143183948 10.907407701015471
leaf_count=1195 138
internal_value=0
internal_weight=0
internal_count=1333
is_linear=0
shrinkage=0.1


Tree=162
num_leaves=5
num_cat=0
split_feature=78 20 169 79
split_gain=12.7267 2.86046 1.46023 0.747147
threshold=51.449807692065001 -0.029252117499709098 -0.32281191647052754 110.23705359748297
decision_type=2 2 2 2
left_child=1 -1 -2 -3
right_child=2 3 -4 -5
leaf_value=0.037310359983256346 0 -0.082546278609038237 0.089970423533295554 0
leaf_weight=1.3220858275890339 0.64355873223394056 12.214380155317485 11.073992995545266 0.25673040747642595
leaf_count=8 58 1143 123 1
internal_value=0 -0.0601531 0.0802015 -0.078014
internal_weight=0 13.7932 11.7176 12.4711
internal_count=1333 1152 181 1144
is_linear=0
shrinkage=0.1


Tree=163
num_leaves=2
num_cat=0
split_feature=142
split_gain=17.6519
threshold=2670.3617191314702
decision_type=2
left_child=-1
right_child=-2
leaf_value=-0.082350936078301448 0.087516900559861679
leaf_weight=12.014431567862632 12.031592100858687
leaf_count=1189 144
internal_value=0
internal_weight=0
internal_count=1333
is_linear=0
shrinkage=0.1


Tree=164
num_leaves=2
num_cat=0
split_feature=3
split_gain=16.6394
threshold=107.170145622899
decision_type=2
left_child=-1
right_child=-2
leaf_value=-0.082132749581023734 0.087772099058088249
leaf_weight=12.030347754247488 10.689363874495028
leaf_count=1202 131
internal_value=0
internal_weight=0
internal_count=1333
is_linear=0
shrinkage=0.1


Tree=165
num_leaves=3
num_cat=0
split_feature=118 84
split_gain=15.3875 1.79955
threshold=1733.0956478118899 24.819565247817341
decision_type=2 2
left_child=1 -1
right_child=-2 -3
leaf_value=0 -0.082245767378631179 0.088979391533381524
leaf_weight=0.95281901583075779 12.049536956474183 11.042459845542906
leaf_count=74 1125 134
internal_value=0 0.0763095
internal_weight=0 11.9953
internal_count=1333 208
is_linear=0
shrinkage=0.1


Tree=166
num_leaves=4
num_cat=0
split_feature=157 78 174
split_gain=12.6428 3.8871 1.6499
threshold=80.652825317390921 37.306052980489589 0.54331687092781078
decision_type=2 2 2
left_child=1 2 -1
right_child=-2 -3 -4
leaf_value=0 -0.080592552082284941 -0.041187786661242926 0.093172440207534735
leaf_weight=1.2488457793369914 10.215809682384132 1.9510648334398855 12.535066995769737
leaf_count=40 1032 136 125
internal_value=0 0.0607627 0.0820121
internal_weight=0 15.735 13.7839
internal_count=1333 301 165
is_linear=0
shrinkage=0.1


Tree=167
num_leaves=3
num_cat=0
split_feature=83 156
split_gain=15.7641 2.23288
threshold=19.966170104515495 58.12797540636204
decision_type=2 2
left_child=-1 -2
right_child=1 -3
leaf_value=-0.082601652467204134 -0.00406779273982314 0.088574315878201373
leaf_weight=12.502556984312834 1.0434957826510061 11.689687743782995
leaf_count=1107 81 145
internal_value=0 0.0740779
internal_weight=0 12.7332
internal_count=1333 226
is_linear=0
shrinkage=0.1


Tree=168
num_leaves=4
num_cat=0
split_feature=1 20 87
split_gain=15.0447 1.97177 0.713154
threshold=23.524576281823283 -0.027097310870885797 0.52893217305204676
decision_type=2 2 2
left_child=2 -2 -1
right_child=1 -3 -4
leaf_value=0 0 0.089315992889650725 -0.082308394121599751
leaf_weight=0.87924440763890999 0.89384289085864921 11.482206419110296 12.214342297054825
leaf_count=29 41 139 1124
internal_value=0 0.0764361 -0.0760929
internal_weight=0 12.376 13.0936
internal_count=1333 180 1153
is_linear=0
shrinkage=0.1


Tree=169
num_leaves=3
num_cat=0
split_feature=134 94
split_gain=14.5025 4.37478
threshold=-0.046027440577745396 2195.9607410430913
decision_type=2 2
left_child=1 -1
right_child=-2 -3
leaf_value=0.090796496486244216 -0.081815976342962046 -0.041466115435141802
leaf_weight=12.772751414217057 11.472824377007781 1.9453207366168488
leaf_count=145 1080 108
internal_value=0 0.0669605
internal_weight=0 14.7181
internal_count=1333 253
is_linear=0
shrinkage=0.1

